%YAML:1.0
opencv_ml_svm:
   format: 3
   svmType: C_SVC
   kernel:
      type: LINEAR
   C: 2.5000000000000000e-001
   term_criteria: { epsilon:1.1920928955078125e-007, iterations:1000 }
   var_count: 25
   class_count: 17
   class_labels: !!opencv-matrix
      rows: 17
      cols: 1
      dt: i
      data: [ 0, 1, 2, 3, 4, 5, 6, 7, 8, 9, 10, 11, 12, 13, 14, 15, 16 ]
   sv_total: 136
   support_vectors:
      - [ 1.61478305e+000, 1.99732339e+000, 5.97155280e-002,
          -6.32674038e-001, 1.11403763e-002, 6.04591310e-001,
          8.35816324e-001, -2.94806337e+000, -1.30401301e+000,
          6.08872175e-001, -5.71398318e-001, -7.81553209e-001,
          7.40872100e-002, 6.81358501e-002, -6.41453117e-002,
          -1.85616851e-001, -4.43034321e-001, 2.05857441e-001,
          -2.65064061e-001, 2.68832952e-001, -3.43575448e-001,
          2.06880257e-001, 1.36611626e-001, -2.42370382e-001,
          -1.33934975e-001 ]
      - [ -1.30164337e+000, 6.78349793e-001, 2.00217828e-001,
          -2.29601383e+000, -2.19316721e+000, -8.24736118e-001,
          -4.45584178e-001, -1.00090146e+000, -5.25779307e-001,
          1.11959808e-001, -3.39850485e-001, 2.35465169e-001,
          1.93935812e-001, -1.25944957e-001, -3.59838784e-001,
          2.00206161e-001, 1.07630067e-001, 2.55319595e-001,
          -4.87200916e-001, 1.89494282e-001, -6.04024455e-002,
          -9.74923894e-002, -1.05269901e-001, -1.39740139e-001,
          1.07632112e-003 ]
      - [ -1.65354276e+000, 2.88178325e+000, 2.38846302e-001,
          -7.84253895e-001, -9.04701710e-001, 5.30564785e-001,
          2.07238924e-002, -1.93387544e+000, -7.85576284e-001,
          5.82868934e-001, 6.82008207e-001, 7.63299406e-001,
          2.15877533e-001, 4.16057706e-001, -9.56358969e-001,
          -4.53802079e-001, 3.41202676e-001, 2.46352300e-001,
          -2.37387910e-001, -8.46817195e-002, 3.21144938e-001,
          -2.21514612e-001, -2.65055954e-001, -2.50140518e-001,
          -1.32548586e-001 ]
      - [ -8.12960267e-001, 9.80131567e-001, 1.92238599e-001,
          -3.30533957e+000, 2.06823021e-001, 3.22381854e-001,
          -1.40418738e-001, -2.57123375e+000, -1.37331545e+000,
          -1.13013964e-002, -2.73105991e-003, 6.62218392e-001,
          -4.18535858e-001, -1.36202499e-001, 5.12915075e-001,
          -1.37690556e+000, 1.17733970e-001, 1.86409548e-001,
          4.92618643e-002, -3.10196251e-001, 5.57122767e-001,
          -1.59050867e-001, -1.43506989e-001, -2.09853232e-001,
          -2.02055633e-001 ]
      - [ 2.20275569e+000, 1.74431956e+000, 9.50047374e-001,
          -8.47893059e-001, -1.42511654e+000, -6.79664969e-001,
          8.01097989e-001, -9.72045481e-001, -5.20086586e-001,
          -3.75296414e-001, 7.69860506e-001, 2.25032136e-001,
          4.94139761e-001, -5.74148834e-001, -2.50271797e-001,
          -3.13014448e-001, 7.57515803e-003, 1.88022759e-002,
          1.65175438e-001, -1.16333347e-002, 1.03099570e-001,
          5.34210280e-002, 1.17373645e-001, -1.14981174e-001,
          3.86564940e-001 ]
      - [ -9.21303988e-001, 1.87744832e+000, 1.10977995e+000,
          -3.81644845e-001, -2.16092086e+000, 1.77733183e+000,
          -1.21003175e+000, -1.30001915e+000, -1.46300781e+000,
          -1.15830398e+000, 4.66927260e-001, 1.72704399e-001,
          4.14444685e-001, -3.61055791e-001, -2.88982958e-001,
          -2.70125180e-001, -7.29629278e-001, 3.52727890e-001,
          -5.17007448e-002, -3.55636001e-001, 3.10030758e-001,
          -1.11910783e-001, -2.48674199e-001, -2.06667021e-001,
          -2.48331785e-001 ]
      - [ -8.02255213e-001, 1.39036894e+000, -1.20363784e+000,
          -1.38913667e+000, -2.36482596e+000, 1.12994242e+000,
          1.33889699e+000, -2.13348016e-001, -4.82304722e-001,
          2.25596324e-001, -5.72000861e-001, 2.42492735e-001,
          -1.26836732e-001, -2.15494022e-001, -5.56739904e-002,
          -1.65672675e-001, 2.10664701e-002, 3.20118189e-001,
          1.64853528e-001, 6.17593266e-002, 2.10066676e-001,
          -1.65410370e-001, 1.92830503e-001, -3.39322895e-001,
          -2.22326592e-002 ]
      - [ 2.11748624e+000, 1.01035309e+000, 1.74122536e+000,
          -4.31996435e-001, -1.43182683e+000, 5.71665585e-001,
          -3.67246628e-001, -5.45575917e-001, -5.93907177e-001,
          3.06505382e-001, -5.86640835e-001, 8.82126570e-001,
          -2.94959635e-001, 8.88028443e-002, -4.68121558e-001,
          -4.51643497e-001, -3.71493161e-001, 3.86304170e-001,
          -3.37975956e-002, 1.17140062e-001, -2.97239963e-002,
          -5.76435849e-002, 8.47340673e-002, -1.34043515e-001,
          1.56091437e-001 ]
      - [ 2.25922656e+000, 1.47880709e+000, 6.28576398e-001,
          -1.58211768e+000, -1.07762933e+000, 5.79876184e-001,
          3.96222740e-001, -1.28706217e+000, 8.48297849e-002,
          9.71332286e-003, 5.04666209e-001, 4.10165101e-001,
          7.74068713e-001, 5.90036273e-001, 1.14699066e-001,
          -8.31211507e-002, -5.31237781e-001, 3.53515834e-001,
          6.43993914e-002, 3.96761782e-002, -5.74974203e-003,
          1.79527611e-001, -7.65745863e-002, -3.26273650e-001,
          1.22400276e-001 ]
      - [ -2.58507907e-001, 5.91548085e-001, 1.88970053e+000,
          -2.90287280e+000, 1.21464014e+000, 8.69602323e-001,
          1.01867378e+000, -1.08137941e+000, -2.57539868e-001,
          -1.17110431e-001, -5.37899733e-001, 9.16306198e-001,
          8.50586176e-001, -3.63017946e-001, -9.59849954e-001,
          -2.37530231e-001, -5.59951961e-001, 2.77081788e-001,
          -2.19709054e-001, 1.42397016e-001, 1.05576918e-001,
          -1.07257091e-001, -9.51842740e-002, -2.12076426e-001,
          -1.15028575e-001 ]
      - [ 4.27611887e-001, 1.62811255e+000, 2.03332853e+000,
          -3.85696888e-001, -9.19198513e-001, 2.52899766e+000,
          -3.17955822e-001, -2.50375795e+000, -6.99812114e-001,
          4.92269486e-001, -9.20366764e-001, 1.27769673e+000,
          1.26873767e+000, 5.95194876e-001, 4.74312276e-001,
          7.54513741e-001, 3.06710482e-001, 4.34008062e-001,
          1.69789210e-001, -5.08708835e-001, 4.67266440e-001,
          -2.03776974e-002, -6.04818240e-002, -8.90090466e-002,
          -1.38118699e-001 ]
      - [ 8.20539653e-001, 1.90416491e+000, -1.71526742e+000,
          -1.33520639e+000, 4.77866650e-001, -4.30405028e-002,
          -5.91371119e-001, -5.90858340e-001, -7.73943901e-001,
          -1.23750577e-002, -7.12958872e-002, 6.15383565e-001,
          8.29215422e-002, 7.33589157e-002, -2.73697883e-001,
          2.47808516e-001, -2.62858331e-001, 2.38390088e-001,
          -1.33961812e-001, 1.56438556e-002, 1.41859233e-001,
          -3.16831358e-002, 1.61966663e-002, 1.15958355e-001,
          -3.79839912e-002 ]
      - [ -5.62704384e-001, 2.92346740e+000, 3.47272664e-001,
          -3.05434316e-001, -6.15693212e-001, 5.28840601e-001,
          -1.91026494e-001, -7.11103380e-001, 2.28092112e-002,
          3.78132403e-001, -3.16156060e-001, 3.78806353e-001,
          2.88590908e-001, -6.37544155e-001, -7.07631782e-002,
          -5.57876490e-002, 1.27304062e-001, -1.50193855e-001,
          7.92416465e-003, -5.57981469e-002, -3.23050730e-002,
          -6.51226938e-002, -1.67691067e-001, -2.27564722e-001,
          -1.88887373e-001 ]
      - [ -4.57548350e-001, 1.46368432e+000, 5.41521370e-001,
          -1.45104337e+000, -5.06214797e-001, 1.54713702e+000,
          1.56205487e+000, -9.73856747e-001, -4.01228607e-001,
          -9.07660425e-001, 4.19167310e-001, 1.15980756e+000,
          -6.91313088e-001, -2.76971817e-001, 7.36643076e-002,
          7.07303584e-001, -2.93344438e-001, -1.71140000e-001,
          -3.82191390e-001, -1.98656738e-001, -3.66991162e-001,
          -6.05614930e-002, -1.83038965e-001, -4.90876697e-002,
          2.76137412e-001 ]
      - [ 1.03372723e-001, 2.49383092e+000, 9.76419032e-001,
          -1.16974962e+000, -1.89687446e-001, 6.08443856e-001,
          -5.32373190e-002, -6.95547760e-002, -5.62754035e-001,
          6.91759810e-002, -1.50401369e-001, -4.93954979e-002,
          1.77552059e-001, 6.94519281e-002, -1.70374751e-001,
          -4.67833988e-002, 9.23842043e-002, -1.02762051e-001,
          -3.16815637e-002, 5.53751551e-002, 4.30065254e-003,
          3.18638496e-002, -5.93918115e-002, -1.97264403e-002,
          1.00374810e-001 ]
      - [ -8.65381777e-001, 2.92234302e+000, 1.41235441e-001,
          2.22128019e-001, -1.06003320e+000, -8.48247051e-001,
          6.09893680e-001, -7.55273581e-001, -4.95112181e-001,
          -9.36448693e-001, -9.03164327e-001, 5.20571053e-001,
          6.63723290e-001, 3.05881321e-001, -3.32440075e-004,
          -2.55842119e-001, 1.68063596e-001, 1.19673744e-001,
          -2.18773320e-001, -8.43635425e-002, -8.06215685e-004,
          -3.41876298e-002, -1.46306977e-001, 1.93961244e-002,
          -1.36550933e-001 ]
      - [ -1.94151258e+000, -6.39585853e-001, 2.31720001e-001,
          -1.61858857e+000, -1.58145356e+000, -9.87187326e-001,
          -8.14937532e-001, 8.64133596e-001, 6.01314008e-001,
          -1.31936923e-001, -2.69907825e-002, 4.87096608e-001,
          -8.09094235e-002, -2.88964156e-002, -2.75968164e-001,
          2.94167966e-001, 3.88001412e-001, 1.20555244e-001,
          1.45341093e-002, 2.16863900e-002, 1.31380662e-001,
          -1.72872722e-001, 1.38075307e-001, 2.43573561e-002,
          2.95197338e-001 ]
      - [ -3.35365009e+000, 6.66458488e-001, 3.76036197e-001,
          -1.50589377e-001, -8.04715216e-001, 1.94846556e-001,
          -8.60062540e-001, 1.11156881e+000, 6.73431218e-001,
          1.96118094e-002, 1.28703094e+000, 1.65159333e+000,
          -1.47789150e-001, 4.88537610e-001, -9.78497624e-001,
          -3.67569357e-001, 8.60488117e-001, 8.74137878e-002,
          3.62190545e-001, -1.48918092e-001, 3.88037652e-001,
          -5.79012573e-001, -2.61482447e-001, -6.68261349e-002,
          2.77441293e-001 ]
      - [ -2.39273524e+000, -1.64409435e+000, 1.89983398e-001,
          -2.20195842e+000, 4.27398086e-001, -3.82469982e-001,
          -1.27549875e+000, 1.25550067e+000, 7.50474632e-001,
          -7.74835050e-001, 4.17516440e-001, 1.27690578e+000,
          -5.59869766e-001, -2.12692052e-001, 4.90815192e-001,
          -9.97549236e-001, 1.16563547e+000, -1.34293869e-001,
          5.05130112e-001, -5.66165149e-001, 5.59782147e-001,
          -4.02218968e-001, 1.11611113e-001, 3.82189035e-001,
          1.34039342e-001 ]
      - [ 1.63628018e+000, 6.83165669e-001, 1.21197736e+000,
          -6.00620091e-001, -2.01206803e+000, -1.49873209e+000,
          3.28563064e-001, 1.48052597e+000, 4.80025709e-001,
          -1.48490739e+000, 2.16438413e+000, 1.07257056e+000,
          4.04607832e-001, -1.18036795e+000, -5.55574656e-001,
          4.17773634e-001, 6.09789073e-001, -7.49559328e-003,
          1.06701279e+000, -4.87466007e-002, 8.90841067e-001,
          -1.84044555e-001, -2.61668384e-001, 2.73736924e-001,
          4.75508988e-001 ]
      - [ -2.04315305e+000, 6.78815320e-002, 7.64235497e-001,
          1.49918586e-001, -1.71447742e+000, 9.63618934e-001,
          -1.77455044e+000, 1.65890157e+000, 4.32467997e-001,
          -1.33596087e+000, 8.39809656e-001, 5.69670022e-001,
          2.94452220e-001, -3.41062635e-001, -4.38036472e-001,
          -2.91613281e-001, 1.60840571e-001, 3.11032087e-001,
          2.00708196e-001, -5.68035841e-001, 2.05020115e-001,
          -3.03077519e-001, -1.16622418e-001, 1.91435158e-001,
          2.43036240e-001 ]
      - [ -1.63176823e+000, -2.25671679e-001, -1.15261054e+000,
          -9.15697396e-001, -2.06695414e+000, 9.77387667e-001,
          4.37973022e-001, 1.81617641e+000, 5.01391649e-001,
          -2.92964607e-001, -3.76250774e-001, 6.65821970e-001,
          -3.96793056e-003, -2.94485837e-001, -6.09421507e-002,
          -1.24329321e-001, 5.51888645e-001, 3.19163173e-001,
          3.02935630e-001, -5.56740761e-002, 3.58830065e-001,
          -2.77918458e-001, 6.19169213e-002, -1.19351491e-001,
          2.49385104e-001 ]
      - [ 1.56683874e+000, -2.76034623e-001, 1.83563638e+000,
          2.00681929e-002, -1.71927822e+000, -5.18713072e-002,
          -1.19544756e+000, 2.03780150e+000, 5.55310771e-002,
          -2.71702945e-001, -2.71887630e-001, 1.68038428e+000,
          -6.82720423e-001, -6.21344671e-002, -6.78502083e-001,
          -4.48207706e-001, -1.73737761e-002, 2.48349115e-001,
          4.16524827e-001, -1.76737625e-002, 2.44337931e-001,
          -6.99540675e-002, -2.91989207e-001, 3.75948548e-002,
          2.22503528e-001 ]
      - [ 1.69909024e+000, 1.34210050e-001, 5.99440038e-001,
          -1.95100093e+000, -1.59381413e+000, 2.30534554e-001,
          -6.01894557e-001, 1.58571827e+000, 2.32435942e+000,
          -1.21437597e+000, 1.12561250e+000, 1.36515820e+000,
          6.62602425e-001, 7.51836479e-001, -1.11677162e-001,
          2.00987890e-001, 1.09435625e-001, 1.78086072e-001,
          5.69703102e-001, -8.18251893e-002, 4.54408258e-001,
          8.49988218e-003, -5.22670925e-001, -5.46642905e-003,
          4.65929002e-001 ]
      - [ -1.55790603e+000, -1.13490617e+000, 1.64443600e+000,
          -1.80920160e+000, 1.26952338e+000, 2.57498741e-001,
          -4.35359962e-002, 1.62384546e+000, 1.14223409e+000,
          -7.15420246e-001, -1.49381980e-002, 1.22370911e+000,
          5.92498720e-001, -3.96812558e-001, -6.39053404e-001,
          -9.28014815e-002, 2.32889384e-001, 2.10246265e-001,
          2.30915606e-001, -2.44971305e-001, 1.49026707e-001,
          -2.81183362e-001, 6.38166517e-002, 1.50222316e-001,
          1.67845890e-001 ]
      - [ -1.47356534e+000, -1.07373369e+000, 1.58567774e+000,
          5.24662614e-001, -1.35539722e+000, 1.86748505e+000,
          -1.52048111e+000, 1.85125649e+000, 1.58993554e+000,
          -3.37289006e-001, -7.49296136e-003, 2.20777416e+000,
          1.12363970e+000, 5.35890937e-001, 5.75752735e-001,
          1.19044912e+000, 1.45920992e+000, -1.65226907e-002,
          4.40538853e-001, -8.27077210e-001, 9.69814956e-001,
          -2.32066616e-001, -5.39200902e-001, 4.24425095e-001,
          2.90510863e-001 ]
      - [ 1.66367546e-001, 1.08613992e+000, -2.25665212e+000,
          -1.53276825e+000, 5.48223853e-001, -2.47256786e-001,
          -1.53091466e+000, 1.35532248e+000, -2.05904186e-001,
          -3.55910063e-001, 2.48228997e-001, 1.51597250e+000,
          3.14180791e-001, -3.66490819e-002, -2.22868055e-001,
          3.24271321e-001, 1.10504571e-002, 2.01807380e-001,
          1.40110597e-001, -1.32030696e-001, 3.49018723e-001,
          -3.33499938e-001, -2.27319419e-001, 3.97215299e-002,
          4.36392613e-002 ]
      - [ -1.86418629e+000, 2.29640341e+000, 5.69803894e-001,
          -3.74020189e-001, -6.55648828e-001, 3.78460646e-001,
          -8.96541059e-001, 1.13873267e+000, 1.07266235e+000,
          1.61557540e-001, 1.01884142e-001, 9.46746767e-001,
          1.33756980e-001, -6.90754592e-001, 6.23369776e-002,
          -1.15475699e-001, 2.30991766e-001, -1.58333316e-001,
          1.90233961e-001, -2.13881969e-001, 1.43967539e-001,
          -3.26347411e-001, -1.63362831e-001, -1.42152846e-001,
          -4.57561538e-002 ]
      - [ -1.83069265e+000, 1.85050189e-001, 7.63695657e-001,
          -9.48099911e-001, -4.97490406e-001, 1.06982863e+000,
          8.72241676e-001, 1.20702577e+000, 7.57014871e-001,
          -1.03173411e+000, 9.60865438e-001, 1.67629170e+000,
          -9.93501008e-001, -3.01165611e-001, 1.58836797e-001,
          8.57675016e-001, 6.67094393e-003, 3.77069563e-002,
          -1.20297998e-001, -4.93114293e-001, -1.85484558e-001,
          -2.79008448e-001, -2.34574676e-001, 2.16291532e-001,
          4.20491099e-001 ]
      - [ -7.80965745e-001, 2.10611105e+000, 1.42479372e+000,
          -1.45520973e+000, -2.06150979e-001, 3.61904353e-001,
          -5.19247532e-001, 1.56944990e+000, 1.71155646e-001,
          -2.40551353e-001, 2.03494817e-001, 3.03613663e-001,
          -6.76250551e-003, 1.64639965e-001, -1.34135067e-001,
          3.25878076e-002, 2.55719125e-001, -1.46295801e-001,
          2.19976917e-001, -7.77704716e-002, 2.84644425e-001,
          -1.17409565e-001, -6.31556585e-002, 1.02653079e-001,
          1.67938769e-001 ]
      - [ -2.19731975e+000, 1.55556464e+000, 4.41231400e-001,
          6.17955148e-001, -8.71158600e-001, -1.45762503e+000,
          7.94626866e-003, 1.47589326e+000, 6.07119977e-001,
          -1.12050807e+000, -3.80739748e-001, 1.04311442e+000,
          4.41079348e-001, 2.97031522e-001, 7.48153552e-002,
          -2.69415766e-001, 1.47358388e-001, 6.92050979e-002,
          8.28235596e-003, -3.30811203e-001, 2.07247227e-001,
          -4.29792970e-001, -2.03143567e-001, 7.93042183e-002,
          -7.34307691e-002 ]
      - [ 2.41030186e-001, 1.68010640e+000, -2.08149895e-001,
          2.54548240e+000, 2.41511130e+000, 1.36086977e+000,
          9.77244139e-001, -2.18839988e-001, -5.32151639e-001,
          1.90502405e-001, 1.14133227e+000, 8.36247444e-001,
          -1.61432385e-001, 6.19504511e-001, -4.15463686e-001,
          -8.81501973e-001, 4.35012549e-001, -2.06462353e-001,
          9.94908214e-002, -1.19256698e-001, 2.64763266e-001,
          -4.48993176e-001, -1.85404822e-001, -1.33953750e-001,
          -1.74818337e-001 ]
      - [ 1.11284292e+000, 4.01521958e-002, 4.63772535e-001,
          2.76149452e-001, 4.50473499e+000, 1.06045938e+000,
          6.32596374e-001, -3.18487555e-001, -3.58978175e-002,
          9.77125298e-003, 1.51057267e+000, 8.02278042e-001,
          -9.23926950e-001, 2.94714063e-001, 1.90754688e+000,
          -1.96546304e+000, -6.55014932e-001, -1.05788612e+000,
          2.55636275e-001, -6.78158283e-001, 7.32747018e-001,
          2.87575334e-001, -8.39026988e-001, 2.79509395e-001,
          -3.70968491e-001 ]
      - [ 2.61778712e+000, 7.85370111e-001, 1.82451233e-001,
          1.17504132e+000, 5.25272548e-001, 2.19232395e-001,
          1.03968501e+000, 2.01183170e-001, -1.82755083e-001,
          -4.23884124e-001, 9.37638640e-001, 2.98107062e-002,
          2.76956528e-001, -4.07827824e-001, -1.02637196e-002,
          -1.08146057e-001, -2.58796979e-002, -2.02802598e-001,
          2.95953065e-001, -2.44208395e-001, 1.30002648e-001,
          -6.16765060e-002, -8.46689120e-002, 1.18917912e-001,
          8.46492797e-002 ]
      - [ 9.52651858e-001, 7.82291293e-001, 3.36219549e-001,
          2.49700856e+000, 1.06551707e+000, 2.61245394e+000,
          -4.42100167e-001, 2.38190830e-001, -5.60540438e-001,
          -1.27688229e+000, 5.26581883e-001, -1.43809840e-001,
          3.10565680e-001, -3.33857030e-001, -1.62213612e-002,
          -8.84118378e-001, -2.87149400e-001, 1.90372467e-001,
          1.76920652e-001, -4.39598143e-001, 1.74965337e-001,
          -1.19027622e-001, -2.71679878e-001, -1.45286307e-001,
          2.09531099e-001 ]
      - [ 7.50294089e-001, 9.56089020e-001, -1.79816580e+000,
          1.64198506e+000, -2.22353444e-001, 2.31754446e+000,
          2.31809592e+000, 8.68736088e-001, -1.14785686e-001,
          2.23608583e-001, -4.83282834e-001, 8.24907571e-002,
          1.11204777e-002, -9.60329920e-002, 2.08299637e-001,
          -8.72199714e-001, 2.05562308e-001, 3.46541315e-001,
          3.97930294e-001, -3.48018706e-001, -1.11414120e-001,
          -2.66115427e-001, -1.10762507e-001, -2.68126577e-001,
          2.22815141e-001 ]
      - [ 2.46508694e+000, 2.44794667e-001, 7.42914021e-001,
          1.20951617e+000, 2.06805617e-001, 9.47438240e-001,
          1.98668092e-002, 6.26296461e-001, -3.57153893e-001,
          8.08111355e-002, 1.86424460e-002, 5.92178106e-001,
          -1.71825096e-001, -1.21269404e-004, -1.28259778e-001,
          -3.75582635e-001, -1.37716860e-001, 2.85593346e-002,
          -6.19936511e-002, -3.87329683e-002, -2.71337032e-002,
          7.99561739e-002, -1.67334765e-001, 1.14552297e-001,
          -1.02945864e-002 ]
      - [ 2.82178855e+000, 6.21305346e-001, -7.45298192e-002,
          8.36110950e-001, 7.81151116e-001, 9.89307761e-001,
          5.97412705e-001, 6.83092847e-002, 5.76511502e-001,
          -3.17891181e-001, 6.96228445e-001, 1.48540974e-001,
          4.68881071e-001, 3.19768131e-001, 2.48819053e-001,
          -2.72089511e-001, -1.83259502e-001, -6.74880249e-003,
          2.11766809e-002, -8.35317150e-002, -8.88250321e-002,
          1.55181199e-001, -3.02937090e-001, -1.63538203e-001,
          1.50109798e-001 ]
      - [ 7.59728432e-001, -3.53596598e-001, 1.14166415e+000,
          1.21939868e-001, 3.24938440e+000, 1.40223420e+000,
          1.18127263e+000, 4.55210716e-001, 5.17940998e-001,
          -8.50371197e-002, 2.99443185e-001, 3.70036483e-001,
          5.00217676e-001, 5.52331097e-002, -3.45383078e-001,
          -2.66788632e-001, -7.40137398e-001, -3.09119135e-001,
          6.31839275e-001, -6.71412274e-002, 4.02071834e-001,
          1.51994109e-001, -1.64410084e-001, 2.99862563e-003,
          -4.77524906e-001 ]
      - [ 1.59169245e+000, 1.38823196e-001, 3.48288417e-001,
          2.30725479e+000, 1.57023728e+000, 2.01520801e+000,
          3.92391533e-001, -1.28278673e-001, 3.89815904e-002,
          1.11467347e-001, 3.73576321e-002, 4.95034397e-001,
          7.18558252e-001, 3.67914617e-001, 6.67451680e-001,
          3.88476878e-001, 1.22586638e-001, -1.77742124e-001,
          3.19705009e-001, -3.03606778e-001, 3.52687955e-001,
          -2.80813687e-002, -1.24035642e-001, -1.40917571e-002,
          -1.13355629e-001 ]
      - [ 1.52396476e+000, 1.18601310e+000, -1.62391043e+000,
          4.84130055e-001, 1.51107228e+000, 4.05579031e-001,
          -3.73284310e-001, 7.30376840e-002, -4.45618153e-001,
          -1.53863905e-002, 1.56996503e-001, 5.74273884e-001,
          1.85035869e-001, 9.30968523e-002, -1.55385569e-001,
          -1.20762952e-001, -4.43282276e-002, 1.69045813e-002,
          -1.08607054e-001, -1.62794456e-001, 7.61871040e-002,
          4.44341935e-002, -1.38991117e-001, 3.62148695e-002,
          2.09486037e-001 ]
      - [ 3.96601290e-001, 2.60493851e+000, -1.41800821e-001,
          1.33775866e+000, 1.15795851e+000, 1.11799192e+000,
          3.56443346e-001, 1.96257159e-001, 3.06936949e-001,
          1.28326327e-001, 3.63765508e-002, 1.86242729e-001,
          -2.01317240e-002, -8.30840051e-001, 4.04233277e-001,
          -3.85038644e-001, 7.98425153e-002, -8.31501111e-002,
          1.12364903e-001, -5.70821054e-002, -8.29262733e-002,
          -7.48670846e-002, -1.85552895e-001, -1.35782167e-001,
          1.83556788e-002 ]
      - [ 6.77250624e-001, 8.99985373e-001, 2.78012216e-001,
          8.80889952e-001, 1.44236112e+000, 1.81097221e+000,
          1.83579683e+000, 1.50185376e-001, 2.69837230e-001,
          -7.21802950e-001, 6.44328117e-001, 7.68023133e-001,
          -7.60246813e-001, -5.21028154e-002, 3.00389558e-001,
          2.92793870e-001, -2.67151922e-001, -2.79143989e-001,
          -1.04485422e-001, -4.81383175e-001, -1.98646605e-001,
          1.26185432e-001, -1.86905235e-001, 2.77413931e-002,
          2.40491882e-001 ]
      - [ 9.37329173e-001, 2.32561588e+000, 6.89075887e-001,
          2.53977925e-001, 1.32449269e+000, 1.22831929e+000,
          4.60738748e-001, 5.57364523e-001, -2.42111728e-001,
          -6.69303164e-002, 1.91683710e-001, -1.21043064e-001,
          -8.17086771e-002, 9.46909860e-002, 1.22314356e-001,
          -2.68016487e-001, -2.23034844e-002, -1.44751459e-001,
          -1.20222876e-002, 7.04182088e-002, 1.82666808e-001,
          -3.25687453e-002, -1.96401909e-001, 1.44802049e-001,
          1.92975372e-001 ]
      - [ 5.99917650e-001, 2.00020909e+000, -4.60931391e-001,
          2.31126904e+000, 1.07710838e+000, -1.03922866e-001,
          1.18092251e+000, 3.50717247e-001, -1.19606838e-001,
          -9.30538535e-001, -6.33072853e-001, 3.65718126e-001,
          2.05603540e-001, 2.31181756e-001, 3.96343201e-001,
          -3.70018005e-001, -1.39306381e-001, -1.16694495e-001,
          9.73540172e-002, -2.11221144e-001, 1.60388574e-002,
          2.83532701e-002, 3.12902816e-002, 1.35302162e-002,
          -5.08949868e-002 ]
      - [ 1.15772653e+000, -2.96897459e+000, 4.65640565e-003,
          -2.75893140e+000, 1.15874290e+000, -6.18932128e-001,
          -3.97795647e-001, 1.85163870e-001, 2.65125670e-002,
          -6.63350403e-001, -1.01804698e+000, -7.62103975e-001,
          -5.20993829e-001, -8.54431987e-001, 1.87186384e+000,
          -6.42532527e-001, -5.16066909e-001, 9.17668566e-002,
          1.41176879e-002, -5.05844116e-001, 2.59716004e-001,
          2.66501278e-001, -1.02140225e-001, 3.21990371e-001,
          2.00659648e-001 ]
      - [ 3.24887490e+000, 3.77366357e-002, 2.64718622e-001,
          -8.01539943e-002, -7.54516602e-001, -9.61250126e-001,
          8.64226699e-001, 2.18511462e-001, -1.50953174e-001,
          -4.82992023e-001, 3.95113736e-001, -3.05810481e-001,
          3.80574256e-001, -1.01619554e+000, 4.83747959e-001,
          3.70920956e-001, -1.23487704e-001, -1.35913640e-001,
          2.96527743e-001, 5.00253476e-002, 5.04586734e-002,
          2.00668380e-001, 3.59323859e-001, 4.18125272e-001,
          2.34484509e-001 ]
      - [ 1.62022960e+000, -1.72267592e+000, 8.72410953e-001,
          1.96152136e-001, -1.88940477e+000, 1.28615069e+000,
          -1.95367610e+000, 1.29430139e+000, -5.94240665e-001,
          -2.41123033e+000, -5.48146665e-001, -1.45418453e+000,
          1.07168162e+000, -8.63058746e-001, 4.03043538e-001,
          -1.51262447e-001, -1.56846964e+000, 2.40122184e-001,
          1.85832709e-001, -4.30852979e-001, -1.19343929e-001,
          3.21637809e-001, -3.49854410e-001, -1.46086752e-001,
          -6.84587806e-002 ]
      - [ 5.21410942e-001, -1.08193076e+000, -1.78275430e+000,
          -1.01086855e+000, -2.49615598e+000, 1.04131317e+000,
          1.41083515e+000, 1.40711999e+000, 1.60159856e-001,
          -3.23903829e-001, -1.47808218e+000, -1.09517503e+000,
          1.34164557e-001, -7.89622605e-001, 4.17413294e-001,
          1.30727753e-001, -3.56005989e-002, 4.58946854e-001,
          -3.81224155e-002, -1.46047577e-001, -7.85359889e-002,
          1.22898892e-002, 3.34396899e-001, -5.52753471e-002,
          3.41509610e-001 ]
      - [ 2.77301073e+000, -6.61200166e-001, 9.29930031e-001,
          8.86573195e-002, -7.16750860e-001, 1.61018521e-001,
          -2.73233891e-001, 6.87718093e-001, -1.22296952e-001,
          1.51474699e-001, -8.31347823e-001, 2.54863560e-001,
          -2.42025241e-001, -2.53438026e-001, 2.23798249e-002,
          -5.27805090e-002, -2.95828193e-001, -5.22827497e-003,
          -6.26563057e-002, 2.47088522e-002, -7.77833536e-002,
          8.39859527e-003, 1.15755975e-001, 4.83670086e-002,
          1.65463239e-001 ]
      - [ 3.23796153e+000, -5.60207248e-001, 1.87004477e-001,
          -8.36045682e-001, -4.70382184e-001, 1.34781316e-001,
          1.22437619e-001, 2.26249099e-001, 9.33805823e-001,
          -4.38077122e-001, -1.52739450e-001, -3.36696863e-001,
          5.31909347e-001, 1.40328100e-003, 5.82839608e-001,
          2.44258940e-001, -3.10244352e-001, -7.23727094e-003,
          -1.22846060e-001, -2.35435739e-002, -3.46756540e-002,
          3.17033142e-001, 7.98314139e-002, -3.86675894e-002,
          3.41049522e-001 ]
      - [ 1.18129230e+000, -2.10403466e+000, 1.22656393e+000,
          -1.93203747e+000, 1.65506756e+000, 1.73982650e-001,
          6.13349438e-001, 7.50205517e-001, 5.27636945e-001,
          -5.08844495e-001, -1.16315377e+000, -1.48329630e-001,
          6.33223414e-001, -7.60944724e-001, 4.81166504e-002,
          3.41323227e-001, -7.83352733e-001, 8.98496360e-002,
          -8.02326947e-002, -4.57558073e-002, -1.94262028e-001,
          1.04303703e-001, 4.71622832e-002, 1.17296413e-001,
          5.10906316e-002 ]
      - [ 2.84858346e+000, -2.28308892e+000, 1.00011277e+000,
          6.09852850e-001, -1.98880062e-001, 1.37822151e+000,
          -4.30225194e-001, 3.02017838e-001, 4.49837655e-001,
          1.18731260e-001, -1.67225051e+000, 3.06350198e-002,
          1.38744926e+000, -6.27522245e-002, 1.52630997e+000,
          1.33111548e+000, 3.87645438e-002, -5.31751029e-002,
          2.74235547e-001, -3.46514374e-001, 1.41169369e-001,
          2.13347942e-001, 3.99720073e-002, 6.88089058e-002,
          6.55106157e-002 ]
      - [ 2.00074673e+000, 4.08322155e-001, -1.93708134e+000,
          -1.06048250e+000, 7.73628235e-001, -1.83414593e-001,
          -1.05843723e+000, 4.46958601e-001, -5.34074903e-001,
          -5.54434061e-001, -6.48615360e-001, 5.49625382e-002,
          4.60554585e-002, -3.77436697e-001, 1.21896841e-001,
          4.56951052e-001, -3.89221519e-001, 3.55412178e-002,
          -5.69820285e-001, -9.95079204e-002, 8.93987417e-002,
          1.82339057e-001, 2.44359270e-001, 4.08453763e-001,
          7.53423423e-002 ]
      - [ 8.75571609e-001, 3.80230165e+000, 2.71339923e-001,
          -5.99563837e-001, -3.27541202e-001, -5.94312735e-002,
          -4.36539024e-001, 6.58554375e-001, 1.22115672e+000,
          -2.84861717e-002, -1.93359125e+000, -2.29394883e-001,
          8.67652774e-001, -2.31101036e+000, 1.48788154e+000,
          3.97133917e-001, -2.83733666e-001, -3.47763538e-001,
          2.14509487e-001, 1.60314918e-001, -4.99157071e-001,
          1.89655557e-001, -4.23394054e-001, -1.57688428e-002,
          -7.58090913e-002 ]
      - [ 1.22604668e+000, -6.67574584e-001, 4.23651725e-001,
          -1.45164597e+000, -5.29540330e-002, 1.25129509e+000,
          2.57863688e+000, 6.84422016e-001, 4.41674411e-001,
          -1.52284133e+000, 1.60722062e-001, 6.04754984e-001,
          -1.20920372e+000, -1.02543306e+000, 9.32278395e-001,
          1.62355518e+000, -9.73307490e-001, 1.09969892e-001,
          -4.69529569e-001, -4.92426664e-001, -6.54932857e-001,
          7.79528767e-002, -2.61284441e-001, 2.66233265e-001,
          6.02286458e-001 ]
      - [ 1.62158084e+000, 2.18558383e+000, 1.26643538e+000,
          -1.98062980e+000, 1.94904491e-001, 2.59653986e-001,
          -8.48976821e-002, 1.24566317e+000, -3.85232329e-001,
          -4.42672670e-001, -8.43521237e-001, -8.01532805e-001,
          1.26673713e-001, -3.80404703e-002, 5.19273162e-001,
          3.30885828e-001, -3.25210363e-001, -1.46326765e-001,
          1.69984505e-001, 2.89157659e-001, -1.52254403e-001,
          1.61023568e-002, -1.81240335e-001, 3.16852748e-001,
          1.54556409e-001 ]
      - [ 7.08488524e-001, 1.94739234e+000, -5.31782508e-001,
          1.58232188e+000, -4.46591437e-001, -2.31514525e+000,
          1.00146759e+000, 1.05414701e+000, 6.40838504e-001,
          -1.76269209e+000, -2.58888102e+000, -9.64997262e-002,
          9.01173770e-001, -2.42658690e-001, 1.24915850e+000,
          -2.66660511e-001, -1.09993529e+000, 9.47592854e-002,
          4.04009670e-001, -2.58005023e-001, -1.10607505e-001,
          2.23955825e-001, 2.07580701e-001, 6.23589754e-001,
          -3.48528251e-002 ]
      - [ 2.46626902e+000, 1.27940202e+000, 5.70257068e-001,
          1.05459523e+000, -1.49512792e+000, -7.95895934e-001,
          1.02508318e+000, 2.52503574e-001, 3.66256945e-002,
          -9.14234072e-002, 9.00923610e-001, -1.31705210e-001,
          6.10838711e-001, -5.04208982e-001, -5.49275398e-001,
          8.04622531e-001, -3.13734040e-002, -7.80112594e-002,
          3.67722958e-001, 1.83140598e-002, -8.74208659e-002,
          -2.47788318e-002, 5.10221124e-002, 5.86309284e-002,
          2.61247277e-001 ]
      - [ -3.51724833e-001, 1.43413424e+000, 5.53726494e-001,
          2.18730664e+000, -2.25372171e+000, 1.91241121e+000,
          -1.14909542e+000, 7.92391121e-001, -2.42520601e-001,
          -1.32611871e+000, 4.54536706e-001, -4.77538675e-001,
          7.35189557e-001, -3.51513952e-001, -9.03985202e-001,
          4.80308950e-001, -8.05630088e-001, 3.45125049e-001,
          -8.07713866e-002, -1.21945990e-002, -1.97374359e-001,
          1.07751004e-001, -1.23109013e-001, -1.23434484e-001,
          1.43565342e-001 ]
      - [ -7.13968351e-002, 1.10165691e+000, -1.65712404e+000,
          6.33376360e-001, -2.60194445e+000, 1.24633956e+000,
          1.67844653e+000, 1.30921125e+000, 9.49561298e-002,
          2.70743996e-001, -6.66728318e-001, -1.87683299e-001,
          3.14554900e-001, -1.54830620e-001, -2.54478574e-001,
          3.86358410e-001, -7.21092522e-002, 5.64043164e-001,
          5.62929027e-002, 2.86696523e-001, -4.29359116e-002,
          -2.09871978e-001, 1.42314449e-001, -2.92955637e-001,
          1.87065974e-001 ]
      - [ 2.32482100e+000, 5.49380124e-001, 1.09509206e+000,
          1.34317768e+000, -1.40539515e+000, 4.84822243e-001,
          -2.93266743e-001, 7.87735641e-001, -1.21029578e-001,
          5.40476382e-001, -4.34290707e-001, 4.34344500e-001,
          -1.06101362e-002, 1.29600778e-001, -7.31489897e-001,
          2.63707012e-001, -2.43835166e-001, 3.49732161e-001,
          -8.27291310e-002, 1.95218742e-001, -9.30968970e-002,
          2.68563684e-002, -5.33168316e-002, 8.11661407e-002,
          2.13828430e-001 ]
      - [ 2.97725058e+000, 1.14904165e+000, 1.76668406e-001,
          5.95220149e-001, -1.28303540e+000, 6.59166157e-001,
          4.43880975e-001, 1.48689523e-001, 1.18411362e+000,
          -9.07203299e-004, 5.28073192e-001, -1.86542764e-001,
          1.10014892e+000, 7.31219769e-001, -5.59707701e-001,
          7.68506467e-001, -5.00448108e-001, 2.25659043e-001,
          7.18225092e-002, 1.31444380e-001, -1.30369708e-001,
          1.38307020e-001, -3.06087136e-001, -2.08138436e-001,
          4.32394564e-001 ]
      - [ 5.07708549e-001, -5.03133833e-001, 2.25582147e+000,
          1.70836255e-001, 1.72785032e+000, 1.45541430e+000,
          1.69184446e+000, 1.41833210e+000, 1.62161624e+000,
          8.54484662e-002, -1.01995862e+000, -1.47999704e-001,
          2.44836211e+000, -3.40131581e-001, -2.87049031e+000,
          1.30475712e+000, -1.02694488e+000, 5.21745861e-001,
          7.23426044e-001, 3.74686748e-001, -1.64982185e-001,
          3.74300599e-001, 2.36250758e-001, -1.06676616e-001,
          -4.14115757e-001 ]
      - [ 1.18002462e+000, 6.47539139e-001, 1.29825413e+000,
          2.84108710e+000, -1.20525408e+000, 1.85189426e+000,
          -7.69083649e-002, 2.24162221e-001, 7.10924149e-001,
          7.72174358e-001, -8.47559869e-001, 5.24959385e-001,
          1.59726357e+000, 6.63503230e-001, -2.47398522e-002,
          2.07950139e+000, 2.77534992e-001, 1.81189671e-001,
          5.27598895e-002, -1.17474310e-002, 1.06200933e-001,
          6.93415776e-002, -1.48007516e-002, 1.30347669e-001,
          1.62368655e-001 ]
      - [ 1.26282620e+000, 1.98661721e+000, -2.25551009e+000,
          2.31576394e-002, 2.78921247e-001, -2.28993714e-001,
          -7.21160173e-001, 4.82053757e-001, -3.41839939e-001,
          1.85651645e-001, -6.19543381e-002, 5.32745242e-001,
          5.12988150e-001, 1.82202756e-001, -7.67356515e-001,
          8.74821246e-001, -5.90057373e-001, 1.80674300e-001,
          -2.11772650e-001, 2.80475676e-001, -4.94631194e-002,
          1.16365351e-001, -2.23889798e-002, 1.07915848e-001,
          3.58770818e-001 ]
      - [ -2.06718206e-001, 3.13314366e+000, 1.26989588e-001,
          1.18386519e+000, -5.68025649e-001, 4.96624291e-001,
          -8.94311257e-003, 3.68562490e-001, 4.83955681e-001,
          3.44660044e-001, -3.32440168e-001, 1.43565118e-001,
          3.86279553e-001, -6.92420244e-001, -1.66589946e-001,
          3.92684937e-001, -1.43410880e-002, -8.86273980e-002,
          -4.93720882e-002, 1.13330632e-001, -2.31165901e-001,
          6.66984394e-002, -3.58959138e-002, -1.28263205e-001,
          -4.51542772e-002 ]
      - [ 9.31813344e-002, 1.67740500e+000, 1.01920716e-001,
          1.13382423e+000, -8.21360648e-001, 1.77930367e+000,
          2.44750404e+000, 4.53737438e-001, 2.82434195e-001,
          -1.18760550e+000, 5.82846463e-001, 7.99452305e-001,
          -7.88132846e-001, -3.19326520e-001, -2.29240060e-001,
          1.79060495e+000, -4.46696281e-001, -7.34136179e-002,
          -4.64237452e-001, -2.15217844e-001, -6.34715974e-001,
          9.18550193e-002, -4.49062102e-002, 1.30714655e-001,
          4.47774976e-001 ]
      - [ 5.77336431e-001, 3.12969303e+000, 8.90860140e-001,
          2.71286294e-002, -3.28564167e-001, 7.36893237e-001,
          8.28587711e-002, 9.10166025e-001, -2.39360884e-001,
          1.47530079e-001, -1.81574404e-001, -5.32079935e-001,
          3.48784775e-001, 2.87031949e-001, -4.09572035e-001,
          4.75177884e-001, 2.71715969e-002, 3.39585007e-003,
          5.67407422e-002, 1.90460429e-001, -5.17874807e-002,
          1.47339866e-001, 4.26064916e-002, 9.39191431e-002,
          2.12809861e-001 ]
      - [ -3.11875433e-001, 2.32861376e+000, -1.64220527e-001,
          2.02847457e+000, -8.98274839e-001, -9.76816654e-001,
          8.74161780e-001, 4.46982592e-001, 1.00978971e-001,
          -6.53627872e-001, -7.78594732e-001, 3.20971429e-001,
          5.37436843e-001, 2.94786215e-001, -1.41653612e-001,
          5.29145360e-001, -2.43603587e-001, 6.29564971e-002,
          -1.21776275e-001, 8.93198624e-002, -3.22123677e-001,
          3.72683294e-002, 7.41175637e-002, 1.24863340e-002,
          -1.36500508e-001 ]
      - [ -2.52909446e+000, -3.93492877e-001, -5.40683754e-002,
          5.10806859e-001, -1.86858475e-001, 1.88847268e+000,
          -1.71067846e+000, 1.48843378e-001, -1.93456970e-002,
          -5.61095953e-001, -5.20330548e-001, -2.01702580e-001,
          -4.16700244e-002, 3.78889859e-001, -1.43836215e-001,
          -1.72565103e-001, -3.96390080e-001, 2.23560140e-001,
          -3.23047489e-001, -1.91405833e-001, 6.89972639e-002,
          -1.68752402e-001, -3.73395413e-001, -2.07291916e-001,
          -1.42667562e-001 ]
      - [ -1.94890821e+000, -4.81268018e-001, -1.55948830e+000,
          -6.54787004e-001, -5.46614707e-001, 1.60299635e+000,
          1.25587001e-001, 6.59063876e-001, 2.99938142e-001,
          1.63567409e-001, -1.24884510e+000, -1.33099303e-001,
          -5.46575546e-001, 2.58034170e-001, 2.26697162e-001,
          -1.71455353e-001, 1.14949413e-001, 3.26989084e-001,
          -1.15971126e-001, 1.79911166e-001, 7.39795491e-002,
          -1.06230021e-001, 4.10055928e-002, -3.83179545e-001,
          -2.15396240e-001 ]
      - [ 4.97807227e-002, -2.94541955e-001, 1.04657996e+000,
          1.16220438e+000, -2.93069303e-001, 2.09789968e+000,
          -2.23501039e+000, 9.17388678e-001, -4.25273567e-001,
          1.51834285e+000, -2.40555263e+000, 1.57133198e+000,
          -1.37090600e+000, 1.44686854e+000, -5.84158897e-001,
          -1.10631311e+000, -8.01164985e-001, 4.24494416e-001,
          -8.59998405e-001, 4.37177479e-001, -7.54542947e-001,
          2.01305121e-001, 2.33604565e-001, 3.33548337e-001,
          -1.54835910e-001 ]
      - [ 3.03510517e-001, -1.51686400e-001, -2.06418324e+000,
          -1.60883093e+000, 3.38315427e-001, 2.72273254e+000,
          -1.17235363e+000, -4.61550176e-001, 2.34708953e+000,
          5.97178280e-001, -8.26745629e-001, 3.75114590e-001,
          1.53458342e-001, 2.71648693e+000, 8.28821659e-001,
          -6.55284047e-001, -5.39708436e-001, 7.73736358e-001,
          -2.33246133e-001, 3.71613145e-001, -7.78424501e-001,
          5.83234668e-001, -1.30630344e-001, 1.58459976e-001,
          -2.62655407e-001 ]
      - [ -2.21935940e+000, -1.03313863e+000, 4.20970887e-001,
          -8.16330492e-001, 2.00964189e+000, 1.07971895e+000,
          -2.58707881e-001, 8.98158103e-002, 2.65305072e-001,
          8.60802606e-002, -8.76854718e-001, 2.57521033e-001,
          6.66392595e-003, 2.21320421e-001, -1.82032898e-001,
          -3.13816428e-001, -1.58891037e-001, 3.11126560e-001,
          -3.03112239e-001, 1.04978189e-001, -1.54829204e-001,
          2.29694657e-002, 3.63727026e-002, 1.68833081e-002,
          -1.99487165e-001 ]
      - [ -2.26668859e+000, -1.00028527e+000, 1.28466040e-001,
          8.56271029e-001, 8.17786813e-001, 2.22761607e+000,
          -1.27471137e+000, -3.58760804e-001, 4.62985218e-001,
          6.30615473e-001, -1.56295681e+000, 5.15490890e-001,
          3.32063675e-001, 1.13347614e+000, 5.86492300e-001,
          4.96740043e-001, 2.01243758e-001, -3.56595144e-002,
          -2.27604166e-001, -1.70551762e-001, 1.84635580e-001,
          2.12598503e-001, -2.32854262e-001, 2.73442846e-002,
          -1.96314290e-001 ]
      - [ -3.12136531e-001, 4.36217964e-001, -2.34934735e+000,
          -8.94704521e-001, 1.35148644e+000, 5.14933765e-001,
          -1.29932797e+000, 4.04736757e-001, -3.35773021e-001,
          2.18321785e-001, -6.14719629e-001, 3.31203461e-001,
          2.91908868e-002, 4.33829367e-001, -1.16254590e-001,
          1.03452034e-001, -2.06062496e-001, 3.29448491e-001,
          -3.75917524e-001, -1.75236911e-001, -7.58539587e-002,
          -5.54217473e-002, -1.03151269e-001, -1.34309055e-002,
          -2.30479270e-001 ]
      - [ -2.32554078e+000, 1.55817294e+000, -8.33344236e-002,
          2.69930903e-002, 5.03170967e-001, 9.98412251e-001,
          -1.07555842e+000, 1.21721752e-001, 7.33005822e-001,
          6.39834166e-001, -9.43002760e-001, 9.29153562e-002,
          -1.35518059e-001, -1.99778795e-001, 9.42301154e-002,
          -2.29538247e-001, 8.98062345e-003, 2.66995020e-002,
          -2.73952037e-001, -7.19008371e-002, -2.21599177e-001,
          -5.86112626e-002, -1.29279792e-001, -3.46436113e-001,
          -3.14794660e-001 ]
      - [ -2.39363885e+000, -2.99671501e-001, 4.21305513e-003,
          -5.58570623e-001, 8.31694365e-001, 1.77464068e+000,
          5.49871624e-001, -8.50661006e-003, 3.91259372e-001,
          -5.11136591e-001, -9.13625807e-002, 6.93422675e-001,
          -1.13696229e+000, 2.86344081e-001, 3.56495529e-001,
          5.44076383e-001, -3.56193691e-001, 1.69987619e-001,
          -5.50174892e-001, -2.74506956e-001, -4.63313669e-001,
          -1.53226778e-002, -1.43286139e-001, -4.85699065e-002,
          3.10694929e-002 ]
      - [ -1.74941432e+000, 2.00704026e+000, 8.78823221e-001,
          -1.12997472e+000, 9.60085094e-001, 1.28201532e+000,
          -7.11572766e-001, 7.01478362e-001, -2.19322443e-001,
          6.06897652e-001, -4.45812851e-001, -4.76216853e-001,
          -3.11411798e-001, 7.21902609e-001, 1.20831452e-001,
          -1.33740172e-001, 9.90304872e-002, 1.52487755e-001,
          -2.61904001e-001, -4.17221338e-002, -1.46140918e-001,
          -7.85954446e-002, 7.83321187e-002, 8.29265360e-003,
          -1.23837590e-001 ]
      - [ -2.90891910e+000, 9.58033860e-001, -3.07392150e-001,
          1.04460394e+000, 4.50635076e-001, -5.10898411e-001,
          -3.11788201e-001, 2.81624496e-001, 1.52829632e-001,
          -3.60419095e-001, -1.58322966e+000, 2.27344140e-001,
          9.38633680e-002, 9.13996935e-001, 1.51085943e-001,
          -2.37207741e-001, -1.70479447e-001, 2.50006914e-001,
          -4.82915282e-001, -1.43831357e-001, -2.67460406e-001,
          -1.49776027e-001, -4.60493043e-002, -9.82659310e-002,
          -3.62365931e-001 ]
      - [ -1.24484077e-001, -2.79231556e-002, -2.14835978e+000,
          -1.08752441e+000, -9.56841767e-001, -4.11511272e-001,
          2.82241297e+000, 5.13375759e-001, 5.73791742e-001,
          1.75767839e+000, -8.65641117e-001, -6.58965558e-002,
          -3.49257320e-001, 2.12310553e-001, 1.33735940e-001,
          9.45824757e-002, 3.41708332e-001, 3.36642683e-001,
          8.13098066e-003, 1.17695041e-001, 7.62913451e-002,
          -3.33563030e-001, 3.96887273e-001, -1.24088012e-001,
          4.98276241e-002 ]
      - [ 2.98424840e+000, -2.94433177e-001, 1.06401503e+000,
          -2.00542599e-001, -1.63604785e-002, -7.29459763e-001,
          5.48499167e-001, 4.38000053e-001, -4.57449554e-004,
          1.23066044e+000, -1.02078485e+000, 8.60827267e-001,
          -7.52760768e-001, 9.78106856e-002, -3.15095663e-001,
          -3.41376185e-001, -2.78309733e-003, 7.08692446e-002,
          -8.00761059e-002, 2.38434672e-001, -2.12353423e-001,
          4.15114947e-002, 2.01986268e-001, -4.00839671e-002,
          1.64676204e-001 ]
      - [ 2.96733379e+000, -1.50747284e-001, -3.14170212e-001,
          -1.32393765e+000, 7.56587029e-001, -7.87467241e-001,
          1.33275700e+000, -2.65626192e-001, 1.07589543e+000,
          8.10573101e-001, 8.82857591e-002, 1.29937589e-001,
          4.17418152e-001, 6.97159529e-001, 2.27741823e-001,
          1.05489276e-001, -9.51580182e-002, 3.69301923e-002,
          4.93025482e-002, 1.25164330e-001, -2.21399255e-002,
          2.74157763e-001, 2.40671281e-002, -1.66832164e-001,
          2.42638171e-001 ]
      - [ 5.93063712e-001, -1.04802203e+000, 6.31708443e-001,
          -1.76253188e+000, 2.40616870e+000, -8.25407803e-001,
          1.66426921e+000, -3.19037884e-002, 7.17863262e-001,
          7.42189229e-001, -6.55856371e-001, 6.62499845e-001,
          1.87313944e-001, -2.64434163e-002, -1.69062525e-001,
          2.45506525e-001, 7.65879452e-002, -4.83028218e-002,
          -3.37096937e-002, 3.53208840e-001, -2.00969562e-001,
          -1.54501706e-001, -4.37262170e-002, -5.65753728e-002,
          2.06983741e-002 ]
      - [ 2.08254695e+000, -1.17093909e+000, 2.13465646e-001,
          5.51264942e-001, 2.08705759e+000, -1.92035720e-001,
          1.60769939e+000, -1.37877131e+000, 1.18158281e+000,
          2.33671713e+000, -2.25137448e+000, 9.54356253e-001,
          6.09741509e-001, 1.03316164e+000, 8.59570980e-001,
          1.45341551e+000, 1.88271165e+000, -2.20871761e-001,
          3.24212402e-001, -2.45651588e-001, 2.99447894e-001,
          1.55483305e-001, 9.26984847e-002, 4.71980095e-001,
          -1.14431262e-001 ]
      - [ 1.23668516e+000, 8.05459142e-001, -1.85931838e+000,
          -9.57209408e-001, 1.29553020e+000, -1.03681636e+000,
          -1.33517116e-001, -3.49771567e-002, -3.66735101e-001,
          7.14369297e-001, -1.52787894e-001, 5.83739698e-001,
          1.49913952e-001, 3.29151779e-001, -1.10159434e-001,
          4.19130206e-001, 2.13534646e-002, 2.39672922e-002,
          -2.83359677e-001, 1.74139857e-001, 2.08928183e-001,
          -4.38476838e-002, 1.55197755e-001, 1.79493845e-001,
          5.98909296e-002 ]
      - [ -3.24159443e-001, 3.18035793e+000, -3.65606397e-001,
          -4.40751821e-001, 8.56951952e-001, -7.57576227e-001,
          8.50416422e-001, -1.48869351e-001, 1.19034660e+000,
          1.52046537e+000, -6.97312951e-001, 5.79874635e-001,
          -3.10105205e-001, -7.95836687e-001, 7.21394300e-001,
          4.30223644e-001, 4.94605541e-001, -5.00813007e-001,
          1.37721170e-002, 2.43913412e-001, -1.46374300e-001,
          -2.89055090e-002, 8.06969404e-002, -1.08253986e-001,
          -1.62453920e-001 ]
      - [ 3.54131572e-002, 4.22912598e-001, 5.90927638e-002,
          -1.21244431e+000, 1.20532894e+000, -1.81547344e-001,
          3.07830811e+000, -3.07002127e-001, 7.16982007e-001,
          2.77212530e-001, 4.72308040e-001, 1.16275489e+000,
          -1.39519298e+000, 4.16429219e-004, 4.05936480e-001,
          1.23060060e+000, -2.10396513e-001, -7.30231777e-002,
          -4.57148284e-001, -9.57932919e-002, -3.92710596e-001,
          -1.42336532e-001, -3.00552417e-002, 1.30570948e-001,
          4.09109950e-001 ]
      - [ 6.90328717e-001, 2.55456996e+000, 7.31279552e-001,
          -1.61527681e+000, 1.01619947e+000, -4.45226490e-001,
          9.50612783e-001, 6.63559377e-001, -2.01007500e-001,
          7.37039089e-001, -4.52552021e-001, 1.03355482e-001,
          -5.34343183e-001, 3.94434720e-001, 3.58130693e-001,
          4.36808169e-001, 4.31389153e-001, -2.69126743e-001,
          1.19687475e-001, 4.56018925e-001, 3.71080153e-002,
          1.60279609e-002, -8.71521011e-002, 1.59641981e-001,
          1.72072381e-001 ]
      - [ -4.38342005e-001, 1.85679734e+000, -7.89267957e-001,
          6.94071233e-001, 6.86091661e-001, -2.51531291e+000,
          1.80772936e+000, 2.54266471e-001, 4.10954177e-001,
          1.19810291e-001, -1.20440209e+000, 7.36484289e-001,
          -1.50244236e-001, 4.10462976e-001, 5.96824110e-001,
          2.85328478e-001, 8.57476816e-002, -2.25760758e-001,
          4.41679470e-002, 3.05035144e-001, 6.35070307e-003,
          9.98733565e-002, 3.42686027e-001, 2.23203823e-001,
          -2.25556329e-001 ]
      - [ 2.01028323e+000, -6.19724877e-002, 1.94286168e+000,
          6.53987408e-001, 2.04496980e-001, -4.19915140e-001,
          -1.09249520e+000, -6.61121905e-002, -1.78013295e-001,
          3.06089312e-001, 2.84435805e-002, 5.62815964e-001,
          -2.93758474e-002, 1.93945602e-001, -4.44989592e-001,
          -1.01524889e-001, -4.09020960e-001, -7.94038475e-002,
          -2.86792457e-001, 2.67809611e-002, -1.20392077e-001,
          1.06845528e-001, -1.44351527e-001, 2.08921030e-001,
          1.16489395e-001 ]
      - [ 2.50559044e+000, 1.00863799e-001, 1.44548798e+000,
          9.88094434e-002, 8.23569059e-001, -7.97139764e-001,
          -9.28495586e-001, -9.15322900e-001, 8.72848451e-001,
          -4.46228720e-002, 1.00781488e+000, 2.14934707e-001,
          7.38988817e-001, 7.54628539e-001, -9.78110060e-002,
          1.16955265e-001, -3.71804476e-001, -2.20175698e-001,
          -1.94180846e-001, -1.43810943e-001, -2.85331964e-001,
          4.76907641e-001, -3.73097211e-001, 1.61734194e-001,
          2.73717910e-001 ]
      - [ 1.20935112e-001, -7.82682061e-001, 2.02066040e+000,
          -6.44433737e-001, 2.38751912e+000, -5.02994597e-001,
          -4.56746519e-001, -5.16210854e-001, 3.95187438e-001,
          -1.92630529e-001, 1.53421834e-001, 2.63864368e-001,
          4.09472197e-001, 6.31783307e-002, -5.35931051e-001,
          2.22968489e-001, -4.85536009e-001, -2.92348623e-001,
          -2.72984989e-002, -2.15516891e-002, -8.85339156e-002,
          9.69523340e-002, -5.02380729e-002, 2.64389187e-001,
          -1.48712650e-001 ]
      - [ 1.16040492e+000, -4.52688903e-001, 2.22552395e+000,
          1.27778959e+000, 1.68123269e+000, 3.75839025e-002,
          -1.67546368e+000, -1.19071150e+000, 2.21292168e-001,
          7.22095966e-002, 1.07916795e-001, 4.51206088e-001,
          7.39037097e-001, 5.58741629e-001, 2.72803843e-001,
          8.41879845e-001, 1.63613021e-001, -4.08490539e-001,
          4.26532626e-002, -7.30954409e-002, 1.25429496e-001,
          4.06883031e-001, -2.04882100e-001, 3.74215275e-001,
          -1.49036974e-001 ]
      - [ 1.22681522e+000, 1.12283933e+000, -6.69251323e-001,
          -2.17035696e-001, 1.89031529e+000, -1.10353816e+000,
          -1.76429343e+000, -4.88979042e-001, -4.02453482e-001,
          -1.64431825e-001, 3.34732652e-001, 5.27505219e-001,
          1.65041432e-001, 1.75447255e-001, -4.60396916e-001,
          4.35991347e-001, -3.22863728e-001, -2.37035587e-001,
          -3.63801628e-001, -2.58608073e-001, -1.81996047e-001,
          1.17135711e-001, -9.77225453e-002, 2.48678476e-001,
          1.00115046e-001 ]
      - [ -1.50702327e-001, 2.49932456e+000, 1.34751260e+000,
          4.97167557e-001, 1.45817804e+000, -4.86241549e-001,
          -1.28336108e+000, -7.53563523e-001, 6.17951453e-001,
          5.18017411e-002, 2.52546042e-001, 3.32117766e-001,
          4.69031259e-002, -5.76379240e-001, 2.89949417e-001,
          1.36666819e-001, -8.77480060e-002, -4.22012478e-001,
          -1.48141727e-001, -6.62722141e-002, -2.95786299e-002,
          2.19579026e-001, -1.60111085e-001, 2.82687657e-002,
          -2.49167889e-001 ]
      - [ -1.16864080e-002, 4.45346355e-001, 2.11175823e+000,
          -2.32740730e-001, 2.18041253e+000, 3.29410613e-001,
          6.75777078e-001, -8.51169765e-001, 4.29235160e-001,
          -1.01435399e+000, 1.43329597e+000, 1.18284130e+000,
          -1.06101787e+000, -7.11784437e-002, -9.91829857e-002,
          1.16364264e+000, -6.46320581e-001, -6.95136666e-001,
          -4.98881072e-001, -2.69037545e-001, -2.52588272e-001,
          2.44922593e-001, -4.40672964e-001, 3.02909166e-001,
          2.39365727e-001 ]
      - [ 3.34028095e-001, 1.95843375e+000, 1.88864172e+000,
          -4.85040486e-001, 1.35235071e+000, -2.96948224e-001,
          -8.24380279e-001, -9.54528227e-002, -2.13014297e-002,
          -3.91061306e-002, 3.27091187e-001, -1.43548220e-001,
          1.49607375e-001, 3.51508319e-001, -9.38112661e-002,
          1.68988049e-001, -2.82094300e-001, -3.24714094e-001,
          -1.45128310e-001, -1.16872080e-002, 1.18339039e-001,
          1.04949325e-001, -1.44003168e-001, 2.23407805e-001,
          5.87137230e-002 ]
      - [ -1.62471712e-001, 1.56422853e+000, 1.13137817e+000,
          1.45822477e+000, 1.25313175e+000, -2.11261153e+000,
          -5.11277676e-001, -5.51980495e-001, 2.12415047e-002,
          -1.05144787e+000, -2.28779763e-001, 3.14788759e-001,
          3.21654350e-001, 3.47911507e-001, 3.01354229e-001,
          9.47986022e-002, -3.14211577e-001, -1.01954244e-001,
          -1.11622736e-001, -6.82509597e-003, 8.24256316e-002,
          2.20729992e-001, -1.91506073e-001, 2.90682584e-001,
          -2.64802724e-001 ]
      - [ -4.48380440e-001, 5.44417858e-001, -2.32615519e+000,
          -1.88126457e+000, 8.15570116e-001, -1.43161133e-001,
          1.10571754e+000, -1.44541144e+000, 1.65469205e+000,
          -1.05549562e+000, 1.58773875e+000, -1.20832622e+000,
          1.29706335e+000, 9.26956415e-001, 5.83398938e-001,
          4.93668616e-001, 6.99616000e-002, -2.42178440e-001,
          4.28769112e-001, -3.17950286e-002, 9.86079033e-003,
          5.73019683e-001, -4.82391417e-001, -4.29149680e-002,
          1.52563900e-001 ]
      - [ -2.15112686e+000, -4.79760796e-001, -3.11839610e-001,
          -1.14866912e+000, 2.10753751e+000, -5.08785807e-002,
          9.75496769e-001, -3.45287561e-001, 3.43549997e-001,
          -5.83520055e-001, 1.10531919e-001, -2.85278141e-001,
          5.57095647e-001, -2.64695168e-001, 1.01624969e-002,
          2.14859709e-001, 1.06837042e-001, -2.04783287e-002,
          -8.05532113e-002, 7.29567409e-002, -2.54830755e-002,
          -2.88919229e-002, 1.24729879e-001, 1.01569435e-002,
          -2.36416325e-001 ]
      - [ -3.04428124e+000, -4.77422208e-001, -1.05562615e+000,
          5.54924309e-001, 1.40825093e+000, 8.89006495e-001,
          4.84031379e-001, -1.26337194e+000, 4.64537710e-001,
          -2.37526655e-001, 2.57009089e-001, -5.73669195e-001,
          1.53131425e+000, 2.77285874e-001, 1.25834370e+000,
          1.19095695e+000, 9.86661136e-001, -4.54523832e-001,
          4.80347797e-002, -4.96626318e-001, 3.82190675e-001,
          2.38499254e-001, -3.12546074e-001, 2.25625023e-001,
          -1.50512516e-001 ]
      - [ -7.19505310e-001, 7.45544314e-001, -2.23287106e+000,
          -7.93897212e-001, 1.15360153e+000, -2.21746534e-001,
          -2.39012137e-001, -1.28847599e-001, -8.94383043e-002,
          -2.21584603e-001, 3.83224368e-001, -1.69749126e-001,
          3.62458259e-001, 8.16458762e-002, 1.44122187e-002,
          2.88306415e-001, 7.97967911e-002, 4.50266860e-002,
          -1.06345722e-002, -1.62968814e-001, 7.14405328e-002,
          2.69752927e-002, 2.32209209e-002, 2.46984139e-002,
          -3.45337987e-002 ]
      - [ -2.10396862e+000, 1.68608785e+000, -8.03572118e-001,
          -1.82998419e-001, 5.81345379e-001, -4.52163257e-002,
          9.46743563e-002, -3.67976099e-001, 6.35231256e-001,
          1.21275812e-001, 3.73183519e-001, -3.31935793e-001,
          3.86349499e-001, -4.22694355e-001, 1.77348301e-001,
          1.45377547e-001, 1.38278276e-001, -2.00288892e-001,
          5.04433326e-002, -9.87400264e-002, -3.71833518e-002,
          7.54007623e-002, 4.26589288e-002, -2.21846830e-002,
          -1.93898022e-001 ]
      - [ -2.04255033e+000, 3.21057796e-001, -7.61712730e-001,
          -6.53156996e-001, 8.56356561e-001, 4.89465922e-001,
          1.29944837e+000, -3.88577461e-001, 2.14285716e-001,
          -7.90991247e-001, 6.85585439e-001, 1.13080740e-001,
          -4.60409790e-001, -1.14559062e-001, 4.02371228e-001,
          6.78067148e-001, 4.93890978e-002, -2.00820163e-001,
          -1.54623076e-001, -2.25055158e-001, -1.59223408e-001,
          7.23317862e-002, -1.19307972e-002, 1.13782234e-001,
          -4.11903225e-002 ]
      - [ -1.78178728e+000, 2.05047727e+000, -4.93395375e-003,
          -1.22278786e+000, 1.06385970e+000, 1.34793490e-001,
          4.41735983e-001, 1.40960023e-001, -3.12931277e-002,
          -1.55240789e-001, 4.05214578e-001, -9.36260998e-001,
          2.10433573e-001, 2.93950021e-001, 1.13680132e-001,
          2.82936037e-001, 2.61556357e-001, -2.08476529e-001,
          1.28461063e-001, -1.36354148e-001, 1.12491995e-001,
          1.72834441e-001, 2.07253043e-002, 2.59903241e-002,
          -4.38729189e-002 ]
      - [ -2.24365950e+000, 1.11574233e+000, -8.17609787e-001,
          3.61226082e-001, 5.55350184e-001, -9.98659194e-001,
          6.35658860e-001, -9.97831002e-002, 2.87900865e-001,
          -5.27327418e-001, 1.02845147e-001, -2.77625501e-001,
          5.63931108e-001, 2.39985794e-001, 2.15168148e-001,
          9.24492553e-002, 5.84090799e-002, 4.08900902e-002,
          -1.51124923e-002, -1.28824040e-001, -1.31295174e-002,
          4.38091345e-002, -1.35877579e-002, 9.33901686e-003,
          -4.38946746e-002 ]
      - [ -2.71136546e+000, -1.04493785e+000, 8.81572545e-001,
          -4.53546643e-001, 2.12575579e+000, -2.33735014e-002,
          4.57649618e-001, 3.69985849e-001, -3.30738872e-001,
          -1.08559288e-001, -9.06231999e-001, 3.87862951e-001,
          -2.44816676e-001, -9.43175495e-001, -5.62637985e-001,
          -1.88388675e-001, 1.54104203e-001, -1.62665802e-003,
          1.35800550e-002, 2.79352162e-002, -1.71190426e-001,
          -2.05793351e-001, 2.29194731e-001, 2.97580600e-001,
          -4.25430715e-001 ]
      - [ -2.90061569e+000, -7.52015233e-001, 7.63239384e-001,
          2.27167511e+000, 5.61748087e-001, 1.08090210e+000,
          -6.82599247e-001, -5.37201166e-001, -7.77046621e-001,
          5.82519174e-001, -1.58943748e+000, 5.18026829e-001,
          8.04102942e-002, -3.89359057e-001, 3.78196925e-001,
          8.74403059e-001, 1.15111279e+000, -2.01628163e-001,
          2.37728223e-001, -3.87253672e-001, 3.17286372e-001,
          -1.85874343e-001, 1.03190035e-001, 3.34303707e-001,
          -3.34785879e-001 ]
      - [ -9.56832767e-001, 8.70040655e-001, -2.41778374e+000,
          -4.07447249e-001, 1.73944414e+000, -4.85806763e-001,
          -9.77237403e-001, 6.02727950e-001, -1.76262987e+000,
          8.48507322e-003, -3.25875908e-001, 3.85323137e-001,
          -7.24461451e-002, -4.79691893e-001, -3.00739110e-001,
          3.64903390e-001, -7.83198178e-002, 2.46221527e-001,
          -2.60452956e-001, -1.61435574e-001, 7.93440416e-002,
          -1.13108411e-001, 9.53104421e-002, -5.69639429e-002,
          -3.92793631e-003 ]
      - [ -2.51750326e+000, 1.68252158e+000, 9.42241028e-002,
          7.69467890e-001, 2.82746226e-001, 2.29501992e-001,
          -4.53501910e-001, 2.68023252e-001, -3.49155247e-001,
          4.60129887e-001, -3.78523648e-001, 6.18621409e-002,
          4.58423011e-002, -1.06601417e+000, -5.04988097e-002,
          -1.03988983e-001, 7.57891592e-003, -3.23487580e-001,
          -1.87188461e-001, -2.82980129e-002, 1.27117202e-001,
          1.38387606e-001, 1.67365134e-001, 6.44303784e-002,
          -2.82063842e-001 ]
      - [ -2.75283074e+000, 1.79398432e-001, 1.09214701e-001,
          1.27514631e-001, 5.49493551e-001, 8.23145092e-001,
          1.19032097e+000, 2.50034064e-001, -6.17030501e-001,
          -6.22762740e-001, 1.83361575e-001, 8.26747239e-001,
          -1.29072511e+000, -6.19646788e-001, 1.49631768e-001,
          7.03603268e-001, -7.24663511e-002, -4.73122336e-002,
          -2.97535747e-001, -1.77850887e-001, -2.75407434e-001,
          5.30477688e-002, 8.92059207e-002, 2.58413792e-001,
          2.11757924e-002 ]
      - [ -2.00572228e+000, 2.39719367e+000, 1.20702982e+000,
          -5.78359902e-001, 5.82720816e-001, 1.69377431e-001,
          5.25370911e-002, 1.19781160e+000, -1.01780057e+000,
          4.99419719e-001, -1.74951583e-001, -3.51351351e-001,
          1.91289987e-002, -2.18376413e-001, -4.85716537e-002,
          1.04886599e-001, 1.86859876e-001, -3.63514096e-001,
          -2.41740674e-001, -1.56411946e-001, 1.51240975e-001,
          5.14045507e-002, 1.86290964e-001, 1.84706941e-001,
          -1.47798704e-002 ]
      - [ -2.38727427e+000, 1.03619361e+000, 3.38774957e-002,
          1.29664278e+000, 2.36466631e-001, -1.08203244e+000,
          2.30466917e-001, 3.08120757e-001, -5.67138433e-001,
          -4.60637629e-001, -8.34224701e-001, 1.70468301e-001,
          9.39035490e-002, -1.32580688e-002, -5.45064136e-002,
          -1.21224783e-001, 4.66177091e-002, 7.55342096e-002,
          -1.43841088e-001, -4.49139662e-002, -9.02562123e-003,
          -9.15692281e-003, 9.94434431e-002, 3.84037271e-002,
          -1.78412393e-001 ]
      - [ 6.47276402e-001, 4.66886550e-001, -4.59151417e-001,
          3.01157928e+000, -2.17551613e+000, 1.07547438e+000,
          -1.40090108e+000, -6.01378798e-001, -6.97206482e-002,
          1.08923888e+000, -5.36717698e-002, 1.42794997e-001,
          4.64060336e-001, 1.04335833e+000, 1.69424450e+000,
          1.04482508e+000, 9.50711370e-001, 5.58618307e-002,
          2.92416215e-001, -5.89806914e-001, 4.61184144e-001,
          -6.47633150e-002, -2.06147686e-001, 6.18521459e-002,
          2.10644588e-001 ]
      - [ 8.90565753e-001, 1.32399237e+000, -2.34564161e+000,
          1.26026407e-001, -2.68902183e-001, -3.85556519e-001,
          -8.80674958e-001, -2.49966923e-002, -6.62354648e-001,
          1.99722469e-001, 2.17703536e-001, 2.11234272e-001,
          -1.23142034e-001, 1.95778817e-001, 8.49988535e-002,
          1.71547100e-001, -7.62991309e-002, 4.57112268e-002,
          -9.92879942e-002, 2.56790072e-002, 2.08808556e-001,
          1.35771977e-002, -6.97673932e-002, 8.42331946e-002,
          4.12001275e-002 ]
      - [ -4.74372774e-001, 2.75745988e+000, -6.90268874e-001,
          9.04168606e-001, -1.10400558e+000, 1.09090850e-001,
          -5.44994831e-001, -5.13881631e-002, 1.62032962e-001,
          4.95294034e-001, 1.64130628e-002, 1.80554185e-002,
          -1.39006153e-001, -3.22779924e-001, 3.15244019e-001,
          1.07468907e-002, 1.82265341e-001, -2.75410831e-001,
          7.00027719e-002, 6.33194372e-002, 9.47649777e-002,
          2.05292180e-001, -5.28628342e-002, -8.43114108e-002,
          -3.45700085e-002 ]
      - [ -4.08526391e-001, 1.67596149e+000, -1.12344348e+000,
          7.02648163e-001, -1.92963398e+000, 8.95014822e-001,
          1.50699222e+000, -2.02408463e-001, -2.49219105e-001,
          -8.91254246e-001, 1.35183966e+000, 7.51277566e-001,
          -1.91954780e+000, -1.13633059e-001, 1.04736185e+000,
          9.45290625e-001, -2.36381575e-001, -1.61842510e-001,
          -4.43829477e-001, -3.82628649e-001, -2.11854383e-001,
          1.57515287e-001, -2.75532424e-001, -1.55504197e-002,
          4.53298837e-001 ]
      - [ 3.11836958e-001, 3.24860954e+000, 1.63229123e-001,
          -1.69212535e-001, -9.99979615e-001, 3.37775201e-001,
          -4.21216071e-001, 5.59283137e-001, -5.35305798e-001,
          4.43857878e-001, 2.00402692e-001, -5.96713543e-001,
          -2.56818742e-001, 6.04290783e-001, 2.32259423e-001,
          6.56529069e-002, 4.83370461e-002, -3.26627761e-001,
          7.10480288e-002, 1.03749782e-001, 1.95574105e-001,
          2.86639065e-001, 3.08237923e-003, 4.49025892e-002,
          2.65370846e-001 ]
      - [ -4.43161845e-001, 1.88661993e+000, -9.23554957e-001,
          1.71227193e+000, -1.22629201e+000, -1.18473697e+000,
          1.68491974e-001, 3.81757319e-002, -1.59169659e-001,
          -4.65633363e-001, -3.42102528e-001, 2.49568764e-002,
          1.23550832e-001, 4.01195675e-001, 2.14109883e-001,
          -5.74511010e-003, 6.67982399e-002, -4.26672995e-002,
          5.99544570e-002, -3.57042626e-002, -4.55913097e-002,
          4.56943316e-003, -1.96940824e-002, 1.28453330e-003,
          -8.17918777e-002 ]
      - [ 5.07217526e-001, 9.89286423e-001, -2.26925850e+000,
          -1.25013494e+000, 9.35980558e-001, -8.58355284e-001,
          -5.60350835e-001, 4.40221786e-001, -6.83433354e-001,
          -9.67236608e-002, 3.71742487e-001, 2.73760796e-001,
          -2.01088503e-001, -1.77439213e-001, -3.85107934e-001,
          -1.64640963e-001, -3.72107416e-001, 2.26078019e-001,
          -1.73115477e-001, 1.57578573e-001, -3.23538594e-002,
          -1.35698721e-001, 4.56384681e-002, 3.52720581e-002,
          9.47858915e-002 ]
      - [ -1.39707506e+000, 3.28230023e+000, -3.53127986e-001,
          -5.24287760e-001, 3.19967680e-002, -7.02271819e-001,
          2.15940289e-002, 4.03065920e-001, 5.51733315e-001,
          2.20064953e-001, 1.87699139e-001, -8.18381980e-002,
          -5.37697971e-001, -1.04156661e+000, -2.52416551e-001,
          -5.90700746e-001, -2.31496274e-001, -1.60213128e-001,
          -9.99107286e-002, 9.00563896e-002, -2.89637417e-001,
          7.27783516e-002, -6.18322231e-002, -1.03379525e-001,
          -1.62585825e-001 ]
      - [ -1.12282193e+000, 1.08403850e+000, -3.96728367e-001,
          -1.53029811e+000, 1.40169665e-001, 6.84327632e-002,
          2.09244609e+000, 2.06780761e-001, 1.15421498e-002,
          -1.51716650e+000, 1.31325078e+000, 5.34663677e-001,
          -2.05501938e+000, -6.71408236e-001, -2.90114552e-001,
          3.35473925e-001, -7.91151822e-001, -2.40336023e-002,
          -5.21415055e-001, -7.01786578e-002, -6.14098251e-001,
          -2.56418288e-002, -1.09782457e-001, 1.94909856e-001,
          3.60062003e-001 ]
      - [ -3.16184193e-001, 2.72098136e+000, 6.44884229e-001,
          -1.79192626e+000, 3.23282659e-001, -2.69657463e-001,
          1.28735125e-001, 9.49797511e-001, -3.61644477e-001,
          -8.56889710e-002, 3.45122486e-001, -5.54722011e-001,
          -4.94293660e-001, 8.03081691e-003, -3.60330760e-001,
          -3.91648173e-001, -4.59075660e-001, -1.36436835e-001,
          -1.30128674e-002, 2.07262650e-001, -4.64675650e-002,
          1.15476713e-001, 1.28644109e-001, 1.18265472e-001,
          1.60850838e-001 ]
      - [ -1.47196627e+000, 2.17262292e+000, -7.40218818e-001,
          4.90768611e-001, -1.47434309e-001, -2.31563830e+000,
          8.63583088e-001, 5.11653900e-001, 1.02882646e-002,
          -8.99894834e-001, -2.27592543e-001, 8.35815724e-003,
          -2.88418591e-001, 7.03946650e-002, -3.32551092e-001,
          -6.86870754e-001, -4.69307661e-001, 1.73854798e-001,
          -9.19140503e-002, 1.04356207e-001, -2.65868634e-001,
          -2.65784748e-002, 3.78406160e-002, 1.32321641e-001,
          -5.09480797e-002 ]
      - [ -1.49559569e+000, 1.13886869e+000, 2.06640100e+000,
          8.27216685e-001, -7.55406380e-001, 4.60907042e-001,
          2.52109766e-001, -2.52485156e-001, 1.10673618e+000,
          1.90816298e-001, -1.86451629e-001, -2.44698480e-001,
          -1.68861642e-001, -6.99664533e-001, 1.55053511e-001,
          -1.54697821e-001, 1.47212222e-001, -4.03057337e-001,
          1.73083395e-001, 1.58312574e-001, 6.26433790e-002,
          -5.74351139e-002, 1.63678125e-001, -1.06316172e-001,
          -2.25582004e-001 ]
      - [ -1.07774508e+000, -5.76274872e-001, 1.85447967e+000,
          2.92289078e-001, -6.02613389e-001, 7.50094712e-001,
          1.36500132e+000, -1.32193267e-001, 5.46835005e-001,
          -4.24085855e-001, 3.22556883e-001, 1.74655542e-001,
          -7.64538765e-001, -1.92164823e-001, 3.44773471e-001,
          3.08268666e-001, 9.43586882e-003, -1.10511169e-001,
          -1.76984482e-002, -2.28911322e-002, -2.66746908e-001,
          -1.04249250e-002, 5.64613119e-002, -7.40476921e-002,
          1.44603878e-001 ]
      - [ -8.69244337e-001, 1.02411580e+000, 2.65546441e+000,
          -1.19824693e-001, -4.73610282e-001, 5.57925940e-001,
          5.26969492e-001, 1.73100874e-001, 3.75608653e-001,
          4.98099886e-002, -9.18722749e-002, -4.80798542e-001,
          -1.07490093e-001, 1.83195263e-001, 1.98916107e-001,
          -6.46105781e-002, 9.43695828e-002, -2.21449971e-001,
          8.88830572e-002, 2.17569068e-001, 4.13495339e-002,
          -4.03544158e-002, 5.51682636e-002, -8.81852210e-002,
          8.39627609e-002 ]
      - [ -1.42442262e+000, 4.21195179e-001, 1.79044378e+000,
          1.40690804e+000, -7.99847364e-001, -7.32732594e-001,
          8.04060042e-001, -1.35983363e-001, 5.66499412e-001,
          -4.68263149e-001, -4.48615611e-001, -1.82542264e-001,
          1.78557038e-002, -2.73525547e-002, 2.86819249e-001,
          -1.28915653e-001, 5.85402250e-002, 9.54962224e-002,
          1.68131664e-001, 1.29274413e-001, -6.43516984e-003,
          1.84478946e-002, 1.48715600e-001, -1.01806983e-001,
          -1.37236435e-002 ]
      - [ 4.23003674e-001, -2.33157802e+000, 6.42844811e-002,
          -7.19741762e-001, 9.55123827e-002, 6.21349096e-001,
          1.80544746e+000, -1.55036256e-001, -3.54121983e-001,
          -1.15243948e+000, 9.46259618e-001, 6.25161350e-001,
          -1.02633476e+000, 4.51517284e-001, -7.93171953e-003,
          8.71981084e-001, -4.50311482e-001, 2.63719231e-001,
          -2.91400850e-001, -3.17799002e-001, -3.32689255e-001,
          -1.34024650e-001, -9.31637809e-002, 2.14212358e-001,
          3.92075211e-001 ]
      - [ 1.82832778e+000, -1.96253266e-002, 1.75738883e+000,
          -2.61668324e+000, 8.21029693e-002, 3.33605528e-001,
          5.73816001e-001, 1.29185069e+000, -1.44835913e+000,
          -9.53199327e-001, 4.93912309e-001, -1.14343441e+000,
          -3.04306179e-001, 2.02286720e+000, -2.14707360e-001,
          3.46001625e-001, -3.73131633e-001, 1.44518390e-001,
          -3.20083231e-001, 1.34373814e-001, 1.49938732e-001,
          -5.47616899e-001, -2.32270330e-001, 7.49947503e-002,
          1.05184697e-001 ]
      - [ 5.37543334e-002, -1.49854577e+000, -5.24365425e-001,
          1.96637642e+000, -8.48204345e-002, -2.79322886e+000,
          1.31885231e+000, 5.99693120e-001, -1.18829405e+000,
          -2.04222512e+000, -6.32238865e-001, 3.97350699e-001,
          1.76764235e-001, 2.04078436e+000, -2.80934781e-001,
          -2.58815289e-001, -5.42582572e-001, 5.23495615e-001,
          1.05654940e-001, -1.33245364e-001, 3.29797417e-001,
          1.87828362e-001, 6.69274688e-001, 5.65545201e-001,
          4.29548204e-001 ]
      - [ 5.75753629e-001, 2.27248645e+000, 9.34933722e-001,
          -7.00982392e-001, 1.19871318e-001, -4.08169746e-001,
          -1.55949676e+000, 7.43817031e-001, -3.85837644e-001,
          7.25679398e-001, -6.83452129e-001, -1.08582187e+000,
          1.02904654e+000, 4.77260560e-001, -2.46359736e-001,
          -7.60730445e-001, 1.96239859e-001, -1.81641966e-001,
          3.06865692e-001, 3.14378351e-001, 4.45769638e-001,
          8.91187135e-003, 1.28662691e-001, 7.95346498e-002,
          -1.42753527e-001 ]
      - [ -4.70576793e-001, 1.18160963e+000, -4.39647764e-001,
          1.68761075e+000, -4.57348615e-001, -2.15629244e+000,
          -8.08080494e-001, 1.47873402e-001, -1.08538404e-001,
          -7.83144683e-002, -1.21325326e+000, -4.95318413e-001,
          9.52844381e-001, 4.86106128e-001, -1.11609966e-001,
          -8.53047669e-001, 2.05490381e-001, 6.83301240e-002,
          2.23146349e-001, 2.13780478e-001, 4.53759819e-001,
          3.72039191e-002, 2.41948962e-001, 5.64833963e-003,
          -5.36454737e-001 ]
      - [ -9.24162090e-001, -8.21812570e-001, -1.26669586e+000,
          2.44626117e+000, -3.07262391e-001, -1.79949522e+000,
          6.17226064e-001, -5.00571907e-001, 5.17426968e-001,
          -4.68085587e-001, -6.42839611e-001, 8.30843270e-001,
          4.43361133e-001, -1.00526642e-002, -4.59149070e-002,
          -2.99908608e-001, -1.77876472e-001, 7.39845932e-002,
          4.79416437e-002, -2.69623756e-001, 5.26263155e-002,
          8.06935281e-002, 2.52533257e-001, -1.06211893e-001,
          1.51877478e-001 ]
   decision_functions:
      -
         sv_count: 1
         rho: -5.1325544938052914e-001
         alpha: [ 1. ]
         index: [ 0 ]
      -
         sv_count: 1
         rho: -4.2875663264590447e+000
         alpha: [ 1. ]
         index: [ 1 ]
      -
         sv_count: 1
         rho: -4.4907024890533631e-001
         alpha: [ 1. ]
         index: [ 2 ]
      -
         sv_count: 1
         rho: -3.4325701774689272e+000
         alpha: [ 1. ]
         index: [ 3 ]
      -
         sv_count: 1
         rho: 8.9141975082329061e-001
         alpha: [ 1. ]
         index: [ 4 ]
      -
         sv_count: 1
         rho: -2.3863266653194373e+000
         alpha: [ 1. ]
         index: [ 5 ]
      -
         sv_count: 1
         rho: -1.5843679227627103e+000
         alpha: [ 1. ]
         index: [ 6 ]
      -
         sv_count: 1
         rho: 5.6245957712486017e-001
         alpha: [ 1. ]
         index: [ 7 ]
      -
         sv_count: 1
         rho: 1.8596787421115764e+000
         alpha: [ 1. ]
         index: [ 8 ]
      -
         sv_count: 1
         rho: -1.1723071361991015e-001
         alpha: [ 1. ]
         index: [ 9 ]
      -
         sv_count: 1
         rho: 3.5564152646584204e+000
         alpha: [ 1. ]
         index: [ 10 ]
      -
         sv_count: 1
         rho: -9.4996621366929368e-001
         alpha: [ 1. ]
         index: [ 11 ]
      -
         sv_count: 1
         rho: 1.9624377270620974e-001
         alpha: [ 1. ]
         index: [ 12 ]
      -
         sv_count: 1
         rho: 8.2081670684668581e-002
         alpha: [ 1. ]
         index: [ 13 ]
      -
         sv_count: 1
         rho: 9.1439329630912047e-001
         alpha: [ 1. ]
         index: [ 14 ]
      -
         sv_count: 1
         rho: -6.4923363957050173e-001
         alpha: [ 1. ]
         index: [ 15 ]
      -
         sv_count: 1
         rho: -2.5860445714565294e+000
         alpha: [ 1. ]
         index: [ 16 ]
      -
         sv_count: 1
         rho: 4.7014192034417907e-001
         alpha: [ 1. ]
         index: [ 17 ]
      -
         sv_count: 1
         rho: -1.9149881076157926e+000
         alpha: [ 1. ]
         index: [ 18 ]
      -
         sv_count: 1
         rho: 2.4041397596103238e+000
         alpha: [ 1. ]
         index: [ 19 ]
      -
         sv_count: 1
         rho: -9.2164880947384320e-001
         alpha: [ 1. ]
         index: [ 20 ]
      -
         sv_count: 1
         rho: -9.0748494147525738e-001
         alpha: [ 1. ]
         index: [ 21 ]
      -
         sv_count: 1
         rho: 6.9356129206921124e-001
         alpha: [ 1. ]
         index: [ 22 ]
      -
         sv_count: 1
         rho: 3.1034073102394473e+000
         alpha: [ 1. ]
         index: [ 23 ]
      -
         sv_count: 1
         rho: 8.4063409931519673e-001
         alpha: [ 1. ]
         index: [ 24 ]
      -
         sv_count: 1
         rho: 4.8726279534134713e+000
         alpha: [ 1. ]
         index: [ 25 ]
      -
         sv_count: 1
         rho: -9.5200312271221033e-001
         alpha: [ 1. ]
         index: [ 26 ]
      -
         sv_count: 1
         rho: 6.9747463500435203e-001
         alpha: [ 1. ]
         index: [ 27 ]
      -
         sv_count: 1
         rho: 9.7465116196117663e-001
         alpha: [ 1. ]
         index: [ 28 ]
      -
         sv_count: 1
         rho: 1.5403297714766586e+000
         alpha: [ 1. ]
         index: [ 29 ]
      -
         sv_count: 1
         rho: -3.8852070407456685e-001
         alpha: [ 1. ]
         index: [ 30 ]
      -
         sv_count: 1
         rho: 5.1359193970086769e+000
         alpha: [ 1. ]
         index: [ 31 ]
      -
         sv_count: 1
         rho: 4.2819849845230404e+000
         alpha: [ 1. ]
         index: [ 32 ]
      -
         sv_count: 1
         rho: 3.5745240396611533e+000
         alpha: [ 1. ]
         index: [ 33 ]
      -
         sv_count: 1
         rho: 2.9861712303096457e+000
         alpha: [ 1. ]
         index: [ 34 ]
      -
         sv_count: 1
         rho: 3.0241892330569855e+000
         alpha: [ 1. ]
         index: [ 35 ]
      -
         sv_count: 1
         rho: 2.8723153489933400e+000
         alpha: [ 1. ]
         index: [ 36 ]
      -
         sv_count: 1
         rho: 4.2005197397623624e+000
         alpha: [ 1. ]
         index: [ 37 ]
      -
         sv_count: 1
         rho: 4.2699231885276179e+000
         alpha: [ 1. ]
         index: [ 38 ]
      -
         sv_count: 1
         rho: 5.9841171415203886e+000
         alpha: [ 1. ]
         index: [ 39 ]
      -
         sv_count: 1
         rho: 1.5214289487218113e+000
         alpha: [ 1. ]
         index: [ 40 ]
      -
         sv_count: 1
         rho: 3.2974086483380289e+000
         alpha: [ 1. ]
         index: [ 41 ]
      -
         sv_count: 1
         rho: 3.9345758323226709e+000
         alpha: [ 1. ]
         index: [ 42 ]
      -
         sv_count: 1
         rho: 3.8229856509004572e+000
         alpha: [ 1. ]
         index: [ 43 ]
      -
         sv_count: 1
         rho: 2.9994373801163703e+000
         alpha: [ 1. ]
         index: [ 44 ]
      -
         sv_count: 1
         rho: -3.4996470319196682e+000
         alpha: [ 1. ]
         index: [ 45 ]
      -
         sv_count: 1
         rho: 1.6919187278258696e+000
         alpha: [ 1. ]
         index: [ 46 ]
      -
         sv_count: 1
         rho: -3.4810913256716938e+000
         alpha: [ 1. ]
         index: [ 47 ]
      -
         sv_count: 1
         rho: -2.5093531750566327e+000
         alpha: [ 1. ]
         index: [ 48 ]
      -
         sv_count: 1
         rho: 5.7312542205922479e-001
         alpha: [ 1. ]
         index: [ 49 ]
      -
         sv_count: 1
         rho: 1.6859008437361640e+000
         alpha: [ 1. ]
         index: [ 50 ]
      -
         sv_count: 1
         rho: -3.4305943635405084e-001
         alpha: [ 1. ]
         index: [ 51 ]
      -
         sv_count: 1
         rho: 3.4839664764267990e+000
         alpha: [ 1. ]
         index: [ 52 ]
      -
         sv_count: 1
         rho: -1.5583130394502400e+000
         alpha: [ 1. ]
         index: [ 53 ]
      -
         sv_count: 1
         rho: 6.9654690932555219e-001
         alpha: [ 1. ]
         index: [ 54 ]
      -
         sv_count: 1
         rho: 7.1972643444587558e-001
         alpha: [ 1. ]
         index: [ 55 ]
      -
         sv_count: 1
         rho: 1.2148558193416701e+000
         alpha: [ 1. ]
         index: [ 56 ]
      -
         sv_count: 1
         rho: -1.2910080624755105e-001
         alpha: [ 1. ]
         index: [ 57 ]
      -
         sv_count: 1
         rho: 2.7852641814696009e+000
         alpha: [ 1. ]
         index: [ 58 ]
      -
         sv_count: 1
         rho: 2.9449474966416439e-001
         alpha: [ 1. ]
         index: [ 59 ]
      -
         sv_count: 1
         rho: 7.0311744560964018e-001
         alpha: [ 1. ]
         index: [ 60 ]
      -
         sv_count: 1
         rho: 2.3060184785634115e+000
         alpha: [ 1. ]
         index: [ 61 ]
      -
         sv_count: 1
         rho: 4.0427591781210115e+000
         alpha: [ 1. ]
         index: [ 62 ]
      -
         sv_count: 1
         rho: 4.6940363769825284e+000
         alpha: [ 1. ]
         index: [ 63 ]
      -
         sv_count: 1
         rho: 6.7466724287209301e+000
         alpha: [ 1. ]
         index: [ 64 ]
      -
         sv_count: 1
         rho: 5.2645414783211431e-001
         alpha: [ 1. ]
         index: [ 65 ]
      -
         sv_count: 1
         rho: 2.1195651841963579e+000
         alpha: [ 1. ]
         index: [ 66 ]
      -
         sv_count: 1
         rho: 3.0434159620475278e+000
         alpha: [ 1. ]
         index: [ 67 ]
      -
         sv_count: 1
         rho: 3.0342071499101917e+000
         alpha: [ 1. ]
         index: [ 68 ]
      -
         sv_count: 1
         rho: 1.2351181494538304e+000
         alpha: [ 1. ]
         index: [ 69 ]
      -
         sv_count: 1
         rho: -2.4486225684311251e+000
         alpha: [ 1. ]
         index: [ 70 ]
      -
         sv_count: 1
         rho: -2.0911483435388192e+000
         alpha: [ 1. ]
         index: [ 71 ]
      -
         sv_count: 1
         rho: -1.2331519631183327e-001
         alpha: [ 1. ]
         index: [ 72 ]
      -
         sv_count: 1
         rho: 1.7707542232661200e+000
         alpha: [ 1. ]
         index: [ 73 ]
      -
         sv_count: 1
         rho: -7.4659031465004455e-001
         alpha: [ 1. ]
         index: [ 74 ]
      -
         sv_count: 1
         rho: 1.0836324245215481e+000
         alpha: [ 1. ]
         index: [ 75 ]
      -
         sv_count: 1
         rho: -1.9055308766722912e+000
         alpha: [ 1. ]
         index: [ 76 ]
      -
         sv_count: 1
         rho: -8.7893317153515504e-001
         alpha: [ 1. ]
         index: [ 77 ]
      -
         sv_count: 1
         rho: -6.5477271195804376e-001
         alpha: [ 1. ]
         index: [ 78 ]
      -
         sv_count: 1
         rho: 7.0989304058566816e-001
         alpha: [ 1. ]
         index: [ 79 ]
      -
         sv_count: 1
         rho: -1.8156092967950186e+000
         alpha: [ 1. ]
         index: [ 80 ]
      -
         sv_count: 1
         rho: 2.4441630261591865e-001
         alpha: [ 1. ]
         index: [ 81 ]
      -
         sv_count: 1
         rho: 1.5693740752429479e+000
         alpha: [ 1. ]
         index: [ 82 ]
      -
         sv_count: 1
         rho: 3.0489783301653453e+000
         alpha: [ 1. ]
         index: [ 83 ]
      -
         sv_count: 1
         rho: 1.5175800543858671e+000
         alpha: [ 1. ]
         index: [ 84 ]
      -
         sv_count: 1
         rho: 6.5817944287158863e+000
         alpha: [ 1. ]
         index: [ 85 ]
      -
         sv_count: 1
         rho: 3.0805368980895204e-001
         alpha: [ 1. ]
         index: [ 86 ]
      -
         sv_count: 1
         rho: 2.4126807811066731e+000
         alpha: [ 1. ]
         index: [ 87 ]
      -
         sv_count: 1
         rho: 2.3802497709629660e+000
         alpha: [ 1. ]
         index: [ 88 ]
      -
         sv_count: 1
         rho: 2.9045595346403488e+000
         alpha: [ 1. ]
         index: [ 89 ]
      -
         sv_count: 1
         rho: 1.4539143585224770e+000
         alpha: [ 1. ]
         index: [ 90 ]
      -
         sv_count: 1
         rho: 1.3514449436160525e+000
         alpha: [ 1. ]
         index: [ 91 ]
      -
         sv_count: 1
         rho: 2.8022260150136158e+000
         alpha: [ 1. ]
         index: [ 92 ]
      -
         sv_count: 1
         rho: 9.0460481407532922e-001
         alpha: [ 1. ]
         index: [ 93 ]
      -
         sv_count: 1
         rho: 3.7395197850261348e+000
         alpha: [ 1. ]
         index: [ 94 ]
      -
         sv_count: 1
         rho: -4.0479200867024506e-001
         alpha: [ 1. ]
         index: [ 95 ]
      -
         sv_count: 1
         rho: 1.6868209651170663e+000
         alpha: [ 1. ]
         index: [ 96 ]
      -
         sv_count: 1
         rho: 2.3481322737082428e+000
         alpha: [ 1. ]
         index: [ 97 ]
      -
         sv_count: 1
         rho: 2.0272313964946318e+000
         alpha: [ 1. ]
         index: [ 98 ]
      -
         sv_count: 1
         rho: 9.1165096854636585e-001
         alpha: [ 1. ]
         index: [ 99 ]
      -
         sv_count: 1
         rho: 9.9794946487989467e-001
         alpha: [ 1. ]
         index: [ 100 ]
      -
         sv_count: 1
         rho: -4.5047419123194726e-001
         alpha: [ 1. ]
         index: [ 101 ]
      -
         sv_count: 1
         rho: 1.7814755959275672e+000
         alpha: [ 1. ]
         index: [ 102 ]
      -
         sv_count: 1
         rho: -9.5757343770587489e-001
         alpha: [ 1. ]
         index: [ 103 ]
      -
         sv_count: 1
         rho: -1.9051906061313902e-002
         alpha: [ 1. ]
         index: [ 104 ]
      -
         sv_count: 1
         rho: -2.1162911024592634e-001
         alpha: [ 1. ]
         index: [ 105 ]
      -
         sv_count: 1
         rho: 7.4639887243077863e-001
         alpha: [ 1. ]
         index: [ 106 ]
      -
         sv_count: 1
         rho: -2.8128440281868800e-001
         alpha: [ 1. ]
         index: [ 107 ]
      -
         sv_count: 1
         rho: -1.7404680226280749e+000
         alpha: [ 1. ]
         index: [ 108 ]
      -
         sv_count: 1
         rho: 5.5483209441609127e-001
         alpha: [ 1. ]
         index: [ 109 ]
      -
         sv_count: 1
         rho: -2.7440058994384975e+000
         alpha: [ 1. ]
         index: [ 110 ]
      -
         sv_count: 1
         rho: -7.7732334871545106e-001
         alpha: [ 1. ]
         index: [ 111 ]
      -
         sv_count: 1
         rho: -7.2174932198132935e-001
         alpha: [ 1. ]
         index: [ 112 ]
      -
         sv_count: 1
         rho: 6.4468302032133362e-001
         alpha: [ 1. ]
         index: [ 113 ]
      -
         sv_count: 1
         rho: -1.2251937528769585e+000
         alpha: [ 1. ]
         index: [ 114 ]
      -
         sv_count: 1
         rho: 3.8713449320368829e+000
         alpha: [ 1. ]
         index: [ 115 ]
      -
         sv_count: 1
         rho: -8.3121668516570535e-001
         alpha: [ 1. ]
         index: [ 116 ]
      -
         sv_count: 1
         rho: 7.4298095990552293e-001
         alpha: [ 1. ]
         index: [ 117 ]
      -
         sv_count: 1
         rho: 4.1461816965701387e-001
         alpha: [ 1. ]
         index: [ 118 ]
      -
         sv_count: 1
         rho: 1.7534852738305104e+000
         alpha: [ 1. ]
         index: [ 119 ]
      -
         sv_count: 1
         rho: -2.1347413704573417e-001
         alpha: [ 1. ]
         index: [ 120 ]
      -
         sv_count: 1
         rho: -2.1533955662875046e+000
         alpha: [ 1. ]
         index: [ 121 ]
      -
         sv_count: 1
         rho: -1.2440204475254517e+000
         alpha: [ 1. ]
         index: [ 122 ]
      -
         sv_count: 1
         rho: -2.0618638316266051e+000
         alpha: [ 1. ]
         index: [ 123 ]
      -
         sv_count: 1
         rho: -1.1325982494105356e-001
         alpha: [ 1. ]
         index: [ 124 ]
      -
         sv_count: 1
         rho: -2.0840611908783662e+000
         alpha: [ 1. ]
         index: [ 125 ]
      -
         sv_count: 1
         rho: 1.3008216066644285e+000
         alpha: [ 1. ]
         index: [ 126 ]
      -
         sv_count: 1
         rho: 1.2276770537116140e+000
         alpha: [ 1. ]
         index: [ 127 ]
      -
         sv_count: 1
         rho: 2.0751123593221537e+000
         alpha: [ 1. ]
         index: [ 128 ]
      -
         sv_count: 1
         rho: 9.6138736992623208e-001
         alpha: [ 1. ]
         index: [ 129 ]
      -
         sv_count: 1
         rho: -2.2641241003653115e-001
         alpha: [ 1. ]
         index: [ 130 ]
      -
         sv_count: 1
         rho: 4.5056840125530090e-001
         alpha: [ 1. ]
         index: [ 131 ]
      -
         sv_count: 1
         rho: -3.5063490531936953e-001
         alpha: [ 1. ]
         index: [ 132 ]
      -
         sv_count: 1
         rho: 9.7111582835771471e-001
         alpha: [ 1. ]
         index: [ 133 ]
      -
         sv_count: 1
         rho: -1.0109073309911554e+000
         alpha: [ 1. ]
         index: [ 134 ]
      -
         sv_count: 1
         rho: -9.7862134526257416e-001
         alpha: [ 1. ]
         index: [ 135 ]
