%YAML:1.0
opencv_ml_svm:
   format: 3
   svmType: C_SVC
   kernel:
      type: LINEAR
   C: 2.5000000000000000e-001
   term_criteria: { epsilon:1.1920928955078125e-007, iterations:1000 }
   var_count: 25
   class_count: 17
   class_labels: !!opencv-matrix
      rows: 17
      cols: 1
      dt: i
      data: [ 0, 1, 2, 3, 4, 5, 6, 7, 8, 9, 10, 11, 12, 13, 14, 15, 16 ]
   sv_total: 136
   support_vectors:
      - [ -1.97985387e+000, 1.17218637e+000, 1.84012622e-001,
          -7.66552150e-001, -2.98825830e-001, -3.26148182e-001,
          -1.12165201e+000, -1.63010240e+000, -2.35754061e+000,
          -6.35638833e-001, -2.05608353e-001, -7.81484663e-001,
          -4.99284506e-001, 4.07887883e-002, 1.20403536e-001,
          -4.14835550e-002, 5.00133455e-001, -1.89475656e-001,
          -8.10946152e-002, -1.85388193e-001, -1.25511944e-001,
          9.00103226e-002, 9.06066671e-002, -1.10677570e-001,
          8.42768177e-002 ]
      - [ -4.38496768e-001, -1.91637731e+000, 2.62575094e-002,
          -1.98230302e+000, 5.33657789e-001, 1.41986763e+000,
          -1.06781864e+000, -9.10873532e-001, -3.41292530e-001,
          -2.86510020e-001, -7.19955444e-001, 1.89983487e-001,
          -1.03324525e-001, -8.55917856e-002, -2.30415732e-001,
          7.73208365e-002, 6.98612034e-002, 1.92145571e-001,
          -3.75889212e-001, -1.87433168e-001, -1.13202833e-001,
          7.21015781e-002, -1.66077167e-001, -2.27593705e-001,
          4.74847034e-002 ]
      - [ -2.56039238e+000, -1.61970353e+000, 3.61010402e-001,
          -3.58621210e-001, 1.55725694e+000, 1.15906619e-001,
          -9.36167955e-001, -1.45298958e+000, -8.91887307e-001,
          -2.33472628e-003, -3.67835820e-001, -1.89652890e-001,
          5.90159036e-002, -1.05312121e+000, 1.56099007e-001,
          -5.86969972e-001, -3.76536936e-001, 2.56835669e-001,
          -3.97760183e-001, -7.99650848e-002, -3.10403585e-001,
          -1.97669849e-001, -3.90279889e-001, -2.75841117e-001,
          -9.64674354e-002 ]
      - [ -1.70327282e+000, 1.00897467e+000, 4.36287373e-001,
          -5.68625331e-001, 1.98954904e+000, 3.34183633e-001,
          -1.10776246e+000, -8.86063397e-001, -1.35471135e-001,
          4.29452717e-001, -8.15047696e-002, 2.88248330e-001,
          -3.16910237e-001, 1.15096450e-001, 2.92939022e-002,
          2.77845353e-001, -1.37262732e-001, -4.92660236e-003,
          -2.78644502e-001, 8.84781852e-002, -8.76746234e-003,
          8.50913376e-002, -5.79602756e-002, 2.56431699e-001,
          1.31832317e-001 ]
      - [ -7.79154718e-001, -7.42835879e-001, 8.82639229e-001,
          -2.71564436e+000, 1.38896084e+000, -1.79349750e-001,
          -1.94798410e-001, -2.03620958e+000, -1.64970100e+000,
          5.31852961e-001, -2.66514063e-001, -4.14660096e-001,
          1.08738914e-001, 5.22958159e-001, 6.59059107e-001,
          -1.07961917e+000, -1.69006690e-001, -9.66822803e-002,
          -2.95163184e-001, 3.21757287e-001, -1.21627204e-001,
          -4.07679379e-001, -3.74350667e-001, -1.63071215e-001,
          -2.19454944e-001 ]
      - [ -1.71580112e+000, 1.00829315e+000, 5.34626663e-001,
          -1.02148342e+000, -1.23194921e+000, 1.19848382e+000,
          -1.80514061e+000, -4.54184890e-001, -5.75588584e-001,
          4.32032824e-001, 1.94552634e-002, 5.15476525e-001,
          8.62911623e-003, -4.63291913e-001, 3.89710724e-001,
          -4.60773200e-001, -7.17275068e-002, -1.73876844e-002,
          8.74361321e-002, 9.46529284e-002, -6.93373941e-003,
          5.88686988e-002, 1.77555159e-001, 1.09763265e-001,
          2.24943087e-001 ]
      - [ -1.66570556e+000, -1.78200471e+000, 2.79520810e-001,
          -3.47953498e-001, -1.00180529e-001, -8.05332839e-001,
          -2.15622568e+000, -1.80488932e+000, 3.69610995e-001,
          9.61435139e-001, -9.82190371e-001, -6.03833459e-002,
          -2.65804440e-001, -7.25200549e-002, 4.41701412e-001,
          -2.29847655e-001, 8.69943082e-001, -3.01851127e-002,
          -2.57952988e-001, 2.06789300e-001, -1.07915558e-001,
          -4.36845720e-001, -4.60221827e-001, -2.21543208e-001,
          -4.55773771e-002 ]
      - [ -1.15246999e+000, -1.40248418e+000, -1.29293096e+000,
          -1.40762436e+000, 8.37598443e-001, -1.32516012e-001,
          -2.07098913e+000, 7.35521555e-001, -9.31783915e-001,
          -1.58785164e-001, -2.02107713e-001, 2.36660987e-002,
          7.19270781e-002, 2.18113258e-001, 4.87127565e-002,
          -2.06751972e-001, 1.29842684e-001, 2.73169577e-001,
          6.17231838e-002, 2.58959949e-001, -3.10218424e-001,
          -8.83609131e-002, 2.95533501e-002, -1.58695891e-001,
          1.41611621e-001 ]
      - [ -5.52275300e-001, -8.63232240e-002, 2.59621096e+000,
          -2.15525293e+000, 8.79448295e-001, -8.27326655e-001,
          -5.31714186e-002, -1.08689651e-001, -1.45212781e+000,
          2.28897661e-001, -6.10541463e-001, 7.83064187e-001,
          -1.62298590e-001, -5.72752953e-001, 5.43412685e-001,
          1.20465741e-001, 4.17906493e-001, 3.93172689e-002,
          -2.20954448e-001, 2.25812867e-002, -2.66866058e-001,
          -8.27452838e-002, -2.78653353e-001, -3.35636377e-001,
          -3.35331373e-002 ]
      - [ -1.54093373e+000, 8.19888175e-001, 2.28701687e+000,
          -3.52795541e-001, 1.39978528e+000, 7.12733865e-002,
          -9.21014965e-001, -1.39223427e-001, -3.33187521e-001,
          -3.20185900e-001, -1.42179823e+000, 1.56633392e-001,
          -2.98420101e-001, -2.12033540e-001, -3.73310089e-001,
          -5.28700769e-001, 1.94886371e-001, -4.10869159e-002,
          -3.74536842e-001, 1.49093792e-002, -3.18276197e-001,
          -2.19480544e-001, -6.48207366e-002, 1.62307620e-001,
          8.31816941e-002 ]
      - [ -1.56054759e+000, -4.95848536e-001, 1.57094085e+000,
          -1.73931211e-001, -3.57774436e-001, -1.80662036e+000,
          -2.09058166e+000, -1.89446568e+000, -1.17361283e+000,
          -8.30209911e-001, -1.41991341e+000, 3.16274732e-001,
          1.56327438e+000, -1.12108976e-001, -4.30244766e-002,
          2.13584200e-001, -3.38910818e-002, 5.30946016e-001,
          -2.50536650e-001, 4.84832466e-001, 7.40029812e-002,
          -4.12261009e-001, -1.59577519e-001, -1.80815496e-002,
          -8.88338387e-002 ]
      - [ -1.73025513e+000, 8.14723611e-001, -1.20151889e+000,
          -1.59131193e+000, 5.37272274e-001, -9.00018066e-002,
          4.85181302e-001, -7.05224633e-001, -2.15465531e-001,
          1.62830636e-001, -6.10675752e-001, 9.83171538e-003,
          3.34841222e-001, -3.79996389e-001, -8.12537894e-002,
          3.41396332e-002, 3.18855792e-001, 3.28960977e-002,
          -2.22860739e-001, 1.54517755e-001, -5.22153899e-002,
          4.14286256e-002, -2.02857386e-002, -1.13993689e-001,
          -5.79029508e-002 ]
      - [ -2.67557335e+000, -9.44627166e-001, 1.18300669e-001,
          -2.07298547e-001, 3.52263838e-001, -2.56762892e-001,
          -5.48677862e-001, -5.75838685e-001, -2.77464479e-001,
          -3.76170963e-001, -2.98373252e-001, 6.56964660e-001,
          -3.37229520e-002, 1.81912377e-001, -1.72018372e-002,
          -1.59559622e-001, -7.16208518e-002, -7.83285648e-002,
          3.10132671e-002, -1.94957629e-001, -1.13252461e-001,
          -1.80030808e-001, -2.58557647e-001, -1.01089664e-001,
          -5.56002222e-002 ]
      - [ -1.30414176e+000, -6.61781967e-001, 7.00718999e-001,
          -1.11025059e+000, 6.64555013e-001, -9.28733051e-001,
          -1.41732383e+000, 1.64058521e-001, -1.35569823e+000,
          1.45465815e+000, 1.08238518e-001, 4.85917121e-001,
          6.35204256e-001, -1.47030666e-001, -5.99939704e-001,
          3.10891233e-002, 4.62496936e-001, -2.92537719e-001,
          -2.01066673e-001, -3.40557098e-001, 2.77338952e-001,
          -2.16882695e-002, -7.41803125e-002, -1.37334261e-002,
          1.29710287e-001 ]
      - [ -2.32310343e+000, -4.05112177e-001, 9.32604730e-001,
          -1.04329395e+000, -1.36937601e-002, -3.96655113e-001,
          -5.22848904e-001, -1.51563019e-001, 5.28836921e-002,
          -1.13327682e-001, -3.57348442e-001, -1.92330495e-001,
          -5.80130182e-002, -2.06118952e-002, 1.97114586e-003,
          -1.26328960e-003, -1.18438173e-002, -1.16836227e-001,
          -3.50933196e-003, 1.09343261e-001, -1.86930913e-002,
          6.48951009e-002, -1.79352373e-001, -9.33267176e-002,
          -1.58621054e-002 ]
      - [ -2.56243992e+000, -1.27687740e+000, -1.63567752e-001,
          1.85812190e-001, -1.04229830e-001, 9.59523857e-001,
          -3.51784468e-001, 7.12657124e-002, -1.03897846e+000,
          4.40632910e-001, -1.31373167e+000, 7.30958059e-002,
          9.45846178e-003, 1.81337103e-001, 3.26199412e-001,
          6.65361807e-002, -2.06805125e-001, 1.35368168e-001,
          -2.39157289e-001, -1.11516960e-001, -1.00886546e-001,
          -1.25092492e-001, -1.90824106e-001, -1.28941715e-001,
          -1.64400280e-001 ]
      - [ 8.92455220e-001, -2.24835753e+000, 1.07859887e-001,
          -1.17014909e+000, 5.15430510e-001, 1.22778499e+000,
          -2.79455464e-002, 2.12398544e-001, 1.00036013e+000,
          5.59879467e-002, -1.57888755e-001, 5.33018529e-001,
          1.68431148e-001, -1.26578405e-001, -3.43023300e-001,
          2.39176080e-001, -3.19382280e-001, 3.49100381e-001,
          -1.02626318e-002, 1.42185062e-001, -3.35076079e-002,
          8.07453245e-002, 9.02752131e-002, 8.26987159e-003,
          1.30326673e-001 ]
      - [ -2.84101963e-001, -2.82592225e+000, 2.76517153e-001,
          4.74743068e-001, 2.02253747e+000, 1.39945492e-001,
          1.64551452e-001, 2.10262939e-001, 1.57269943e+000,
          7.79733181e-001, -4.39804234e-003, 5.01577735e-001,
          6.14113748e-001, -1.05553174e+000, 2.18591187e-002,
          -4.89096612e-001, -1.03550661e+000, 4.14975405e-001,
          6.43710271e-002, 2.52778530e-001, -5.74537143e-002,
          -5.00866324e-002, -2.15088367e-001, 1.04890168e-002,
          1.23572543e-001 ]
      - [ -8.18930924e-001, 8.42879474e-001, 6.49181545e-001,
          1.40502438e-001, 2.77270651e+000, 4.93820876e-001,
          -5.78263342e-001, -4.11346331e-002, 1.70745265e+000,
          8.85598004e-001, 2.86595486e-002, 7.81979859e-001,
          -9.60304588e-002, 1.62405968e-001, -1.49647579e-001,
          4.13073659e-001, -4.50234294e-001, 5.43499470e-001,
          1.12134501e-001, 1.83765948e-001, -1.43885806e-001,
          -1.36647150e-001, -2.07045928e-001, 2.24982217e-001,
          -2.04962771e-002 ]
      - [ 1.89813459e+000, -1.85613167e+000, 6.39164031e-001,
          -1.45568264e+000, 1.37252820e+000, 3.94401653e-003,
          1.43330538e+000, 1.47271112e-001, 1.41442823e+000,
          1.11476541e+000, 3.28903235e-002, 6.76621079e-001,
          4.31276888e-001, 6.23531044e-001, 2.12795958e-001,
          -8.13271046e-001, -1.28699529e+000, 3.50938439e-001,
          7.20165893e-002, 5.32119095e-001, 2.12309077e-001,
          -2.72583008e-001, -2.82053351e-002, -5.79242557e-002,
          -2.85538912e-001 ]
      - [ -7.22804546e-001, 4.40908015e-001, 6.54772520e-001,
          -7.58405507e-001, -1.50278175e+000, 2.05431890e+000,
          -1.61880088e+000, 8.28188062e-001, 1.63452518e+000,
          1.70377874e+000, 5.21323979e-001, 1.73422360e+000,
          4.94386882e-001, -9.74392414e-001, 2.15127207e-002,
          -4.83450800e-001, -3.44943613e-001, 5.97863436e-001,
          5.16215205e-001, 5.58616757e-001, -2.26956978e-001,
          1.77054077e-001, -1.52240396e-001, 4.37836021e-001,
          -1.90146536e-001 ]
      - [ 2.02881873e-001, -2.45065355e+000, 3.49159390e-002,
          3.48078579e-001, 1.81993484e-001, -4.97867405e-001,
          -6.55724227e-001, 4.12038229e-002, 2.50997210e+000,
          1.06007969e+000, -6.06039107e-001, 7.49443173e-001,
          -2.16900453e-001, -2.25305051e-001, 1.80161223e-001,
          -2.82002121e-001, -1.77246496e-001, 3.88215780e-001,
          -1.31787151e-001, 3.19900125e-001, 2.55226731e-001,
          -3.81539375e-001, -1.94376451e-004, -1.13046430e-001,
          -2.72102598e-002 ]
      - [ 4.69564199e-001, -1.97795951e+000, -1.29801059e+000,
          -8.22947800e-001, 8.27531278e-001, -3.11188310e-001,
          -1.10186005e+000, 1.68475235e+000, 8.28682959e-001,
          1.37672722e-001, -2.68613994e-001, 6.20860398e-001,
          2.56257743e-001, 1.59660131e-001, -4.65156250e-002,
          -3.18045557e-001, -3.25951725e-001, 4.29896027e-001,
          5.63055463e-002, 3.14726233e-001, -8.83142129e-002,
          4.02325690e-002, 1.65393110e-002, -1.83811504e-002,
          1.78540394e-001 ]
      - [ 1.18342400e+000, -1.10225916e+000, 2.13357782e+000,
          -9.84013438e-001, 7.67255604e-001, -6.43226922e-001,
          1.15046442e+000, 1.18919671e+000, 8.68296564e-001,
          6.99850023e-001, -3.03606063e-001, 1.32560182e+000,
          1.31426409e-001, -4.02166277e-001, 2.91726589e-001,
          8.67343396e-002, -3.31582934e-001, 4.77649987e-001,
          5.45516796e-002, 1.80341348e-001, 1.61521405e-001,
          -1.20339049e-002, 1.98781192e-002, -1.94595993e-001,
          -8.74133199e-004 ]
      - [ -9.19088125e-002, 3.06794941e-001, 2.33957148e+000,
          4.18505251e-001, 1.83837545e+000, 2.44182333e-001,
          -1.58338323e-001, 1.18934155e+000, 1.57118297e+000,
          1.18017413e-001, -1.35599518e+000, 5.62894523e-001,
          2.11515531e-001, 1.35259628e-002, -6.96431041e-001,
          -5.15008032e-001, -8.23780820e-002, 2.57968813e-001,
          -1.04914308e-001, 8.87049139e-002, -1.79090559e-001,
          -4.57784623e-001, -1.53373107e-001, 1.70546919e-001,
          -2.40912691e-001 ]
      - [ 1.14649022e+000, -2.11546826e+000, 9.08119738e-001,
          9.21513557e-001, -4.95871715e-002, -1.38156056e+000,
          -7.71147430e-001, 4.91409153e-001, 2.34959602e+000,
          -8.46050754e-002, -1.08612061e+000, 1.58853781e+000,
          2.21755099e+000, -1.40173778e-001, -5.49637496e-001,
          3.51663381e-001, -1.21284783e+000, 7.83052504e-001,
          -3.07282478e-001, 6.46145284e-001, 1.45122290e-001,
          -5.82862496e-001, -2.46309012e-001, 2.80297518e-001,
          -2.31695965e-001 ]
      - [ -9.40404356e-001, 3.46940160e-001, -1.58738399e+000,
          -1.79176795e+000, 9.07185018e-001, -8.80072340e-002,
          1.28412247e+000, 1.18411317e-001, 1.46664584e+000,
          5.24571240e-001, -7.21986532e-001, 6.25408828e-001,
          9.04915750e-001, -4.18146163e-001, 6.08749427e-002,
          -9.39297900e-002, 8.38191882e-002, 2.53366888e-001,
          -1.13467805e-001, 1.44251809e-001, -9.23329219e-003,
          -4.53937314e-002, -1.61582738e-001, -1.08927764e-001,
          -6.79748878e-002 ]
      - [ -1.92802906e+000, -2.09906030e+000, 3.23476166e-001,
          -6.19272292e-002, 6.63399875e-001, -2.67417341e-001,
          2.17313021e-001, 3.36654097e-001, 1.25672460e+000,
          -8.76799524e-002, 1.18952654e-001, 1.28879893e+000,
          4.03654903e-001, 1.89756870e-001, 9.49606299e-002,
          -1.52949795e-001, -3.17320734e-001, 1.01340510e-001,
          1.20367020e-001, -2.81264801e-002, -5.15040644e-002,
          -2.45120138e-001, -1.07044488e-001, -2.95307264e-002,
          3.15263011e-002 ]
      - [ 1.78693384e-002, -1.70181930e+000, 7.83665061e-001,
          -3.79001230e-001, 9.86045837e-001, -6.98271573e-001,
          -5.24517596e-001, 1.29623222e+000, 4.76637691e-001,
          1.81158757e+000, 6.72102809e-001, 9.22010601e-001,
          1.11614156e+000, -1.79002807e-001, -7.25680768e-001,
          -5.77739552e-002, 1.32137403e-001, 9.52735990e-002,
          -1.71396524e-001, -2.11216390e-001, 5.18041909e-001,
          -1.02539092e-001, 1.09944001e-001, -2.30287686e-002,
          1.24002986e-001 ]
      - [ -1.81499410e+000, -1.28683102e+000, 1.35287094e+000,
          -1.16247272e+000, 9.27644297e-002, -2.88613945e-001,
          3.76875401e-002, 6.95603132e-001, 1.32646370e+000,
          2.20082238e-001, -8.14968571e-002, 1.49785534e-001,
          2.47045144e-001, -1.02807090e-001, -4.26754504e-002,
          7.66806453e-002, -3.34013671e-001, 2.24441495e-002,
          1.28537118e-001, 2.96105444e-001, 1.78605188e-002,
          -1.38809662e-002, -5.28088175e-002, 1.47490145e-003,
          1.28603466e-002 ]
      - [ -1.18977427e+000, -2.26085353e+000, 6.34492785e-002,
          8.37223887e-001, 1.72518641e-001, 1.29657638e+000,
          6.57326519e-001, 1.23461974e+000, 6.83319747e-001,
          8.37565541e-001, -8.37806940e-001, 6.09198570e-001,
          4.25671458e-001, 4.06226926e-002, 5.05420446e-001,
          2.04637900e-001, -4.05713499e-001, 2.56162375e-001,
          -1.80136740e-001, -1.71720721e-002, 6.94402009e-002,
          -2.47431487e-001, -1.60470262e-001, -9.49759111e-002,
          -2.23099768e-001 ]
      - [ -1.78235197e+000, 1.62104774e+000, 1.42444924e-001,
          2.45731807e+000, 1.03013837e+000, -1.62607217e+000,
          6.26756191e-001, 1.64082363e-001, -5.31528294e-001,
          8.21959972e-001, 3.81041884e-001, -5.88831782e-001,
          3.63652349e-001, -6.85855925e-001, 5.51420391e-001,
          -7.60311186e-001, -7.07102478e-001, -8.97383690e-002,
          -3.39069776e-002, -1.23573188e-002, -5.14723584e-002,
          5.44255078e-002, -1.89597815e-001, -3.46697271e-001,
          -1.53247491e-001 ]
      - [ -1.05274200e+000, 1.99692810e+000, 3.79129887e-001,
          7.71171451e-001, 1.26659060e+000, -4.09918696e-001,
          -1.60625011e-001, -3.52057479e-002, 2.76702911e-001,
          3.18322808e-001, 2.58357674e-001, 8.80556852e-002,
          -1.61306441e-001, 2.41862312e-001, 2.91824162e-001,
          -3.13284807e-002, -5.71371540e-002, -1.90361634e-001,
          -2.40148511e-002, 8.68850276e-002, 2.77821422e-001,
          -1.18056215e-001, -1.00920781e-001, 1.18081942e-001,
          5.06608859e-002 ]
      - [ -3.24824542e-001, 2.61478639e+000, 1.50062633e+000,
          5.15028179e-001, 9.97348905e-001, -2.06475759e+000,
          2.15631843e+000, -2.36194074e-001, -5.40575564e-001,
          1.30333304e+000, 1.26215291e+000, -6.15997136e-001,
          9.62794065e-001, 8.29748929e-001, 1.38906002e+000,
          -1.34993935e+000, -1.62416399e-001, -1.60325003e+000,
          -5.29738188e-001, 3.71302187e-001, 3.25718112e-002,
          -5.36905050e-001, -2.21891016e-001, 1.00715935e+000,
          -4.84287471e-001 ]
      - [ -1.06667483e+000, 2.35071349e+000, 1.14992008e-001,
          6.77749038e-001, -1.09777558e+000, -1.71390444e-001,
          -7.26695955e-001, 4.10416007e-001, -2.91091744e-002,
          6.15557611e-001, 3.77835542e-001, 3.00595850e-001,
          1.28240557e-002, -3.39243174e-001, 3.23467284e-001,
          -2.63059855e-001, -4.57609892e-002, -9.36503038e-002,
          1.21994950e-001, 7.32946545e-002, 2.40590394e-001,
          -9.02489126e-002, -3.21067795e-002, 1.30221799e-001,
          -6.18104935e-002 ]
      - [ -9.57884073e-001, 1.07698107e+000, -2.48298813e-002,
          2.03908086e+000, -7.79015243e-001, -2.54091287e+000,
          -4.01292056e-001, -2.68319994e-001, 6.10382318e-001,
          1.09769821e+000, -4.62054223e-001, -1.10866174e-001,
          -4.77664381e-001, 1.25723109e-001, 7.82848835e-001,
          -6.37051046e-001, 2.76987016e-001, -2.01341901e-002,
          -4.10803370e-002, 1.88743502e-001, 1.75505921e-001,
          -1.62325189e-001, -2.82368600e-001, -9.65631008e-002,
          5.56268692e-002 ]
      - [ -9.88030553e-001, 9.09317851e-001, -1.72891557e+000,
          1.19627452e+000, 3.68326068e-001, -1.81836319e+000,
          -1.31307268e+000, 2.04179072e+000, -1.00369656e+000,
          -2.42858127e-001, 2.59686150e-002, -1.54674336e-001,
          -1.69280230e-003, 3.00826490e-001, 5.76928079e-001,
          -8.06216776e-001, -1.01584345e-001, 2.53023952e-001,
          1.49992719e-001, 8.44994262e-002, 2.88567513e-001,
          8.52152240e-003, 1.81645662e-001, -3.10111721e-003,
          -2.12302916e-002 ]
      - [ 1.68559909e-001, 1.74604785e+000, 1.89300394e+000,
          3.55791062e-001, 4.25228864e-001, -1.98183548e+000,
          1.19265974e+000, 9.48649704e-001, -4.07906771e-001,
          4.01005208e-001, 3.61146271e-001, 3.43960255e-001,
          3.53774205e-002, -5.60408413e-001, 8.75011384e-001,
          1.51565462e-001, 3.55738580e-001, -3.29926103e-001,
          2.80002803e-001, 2.53113747e-001, -2.09848762e-001,
          -2.31264085e-001, -1.96762845e-001, 3.21998596e-001,
          -3.85124713e-001 ]
      - [ -8.11962545e-001, 2.07916331e+000, 1.27322483e+000,
          1.03507388e+000, 9.82315123e-001, -8.60030949e-001,
          -2.70979423e-002, 6.29696846e-001, 2.04860836e-001,
          1.11785404e-001, -3.57955009e-001, -1.90766484e-001,
          -1.04893610e-001, -1.13669224e-001, 4.71295640e-002,
          -5.79525590e-001, 1.73522741e-001, -1.10140726e-001,
          -7.38052875e-002, 8.08280185e-002, 3.15960869e-002,
          -1.47056252e-001, -8.20359960e-002, -7.67780691e-002,
          2.70308759e-002 ]
      - [ -3.86443943e-001, 1.84974372e+000, 2.60061681e-001,
          1.95456338e+000, -6.45989418e-001, -2.25968742e+000,
          -1.50188327e-001, 3.67656238e-002, -1.98833138e-001,
          -1.54366910e-001, -2.86899447e-001, 7.29815662e-002,
          9.68525529e-001, -6.66598529e-002, 2.58491844e-001,
          8.18858389e-003, -4.53289896e-002, -2.90930625e-002,
          -3.14640924e-002, 1.91174746e-001, 7.18812495e-002,
          -1.17528491e-001, -2.39040151e-001, 2.97753606e-002,
          2.14808546e-002 ]
      - [ -1.25550282e+000, 1.86216342e+000, -1.07932007e+000,
          2.06408976e-003, 1.42622486e-001, -8.13219190e-001,
          9.08917367e-001, -1.70762911e-001, 8.51426199e-002,
          1.42007366e-001, -3.59402269e-001, 1.05692202e-003,
          3.15780997e-001, -3.26772004e-001, 9.14326459e-002,
          -3.15368891e-001, 6.23591319e-002, -1.41917437e-001,
          -1.48600519e-001, 1.64330602e-001, 1.49643376e-001,
          5.39469393e-003, -3.84412669e-002, -7.77047547e-003,
          4.40724418e-002 ]
      - [ -2.48620939e+000, 6.51667178e-001, -3.39387767e-002,
          1.08580172e+000, 1.13206394e-001, -1.25649726e+000,
          2.98697770e-001, 3.36273164e-001, -1.37737349e-001,
          -8.77935719e-003, 4.02074099e-001, 5.58944345e-001,
          -4.38037775e-002, 5.51122904e-001, 2.72841930e-001,
          -3.96833926e-001, -4.42939028e-002, -4.99753617e-002,
          1.11175142e-001, -1.62002355e-001, 8.21801275e-002,
          -3.91827300e-002, -1.66925132e-001, 1.51908388e-002,
          -2.54783245e-005 ]
      - [ -9.43786681e-001, 1.10953760e+000, 5.51811814e-001,
          8.83406758e-001, 1.86496541e-001, -1.81479406e+000,
          -2.40047082e-001, 1.14937007e+000, -9.33019042e-001,
          1.25958681e+000, 7.21672297e-001, 2.43066892e-001,
          5.91050565e-001, -8.87955576e-002, -2.61726677e-001,
          -1.06384724e-001, 1.90877244e-001, -4.13036287e-001,
          -7.11941198e-002, -1.18803032e-001, 3.68672907e-001,
          -2.30211422e-001, 1.13409109e-001, 2.73578078e-001,
          8.96533299e-003 ]
      - [ -2.29018188e+000, 9.16745365e-001, 8.33884418e-001,
          1.80130407e-001, -1.76748037e-001, -1.34207153e+000,
          1.41571254e-001, 4.74741518e-001, 4.09517586e-002,
          2.52369732e-001, 2.40315303e-001, -2.64801830e-001,
          -5.92697114e-002, 8.84768441e-002, 2.01602951e-001,
          -6.82258829e-002, -1.11626804e-001, -1.71430230e-001,
          -1.27383575e-001, 1.65197209e-001, 5.40005639e-002,
          1.93922549e-001, -1.04536012e-001, 7.99147412e-002,
          -5.51954769e-002 ]
      - [ -1.95471132e+000, 9.20748651e-001, -4.99787778e-001,
          1.84450817e+000, -4.87326145e-001, -3.11662912e-001,
          6.42035306e-001, 1.05965436e+000, -8.16855371e-001,
          7.20647812e-001, -5.34549654e-001, -5.53323925e-002,
          1.24042384e-001, 4.05602187e-001, 4.94846731e-001,
          8.37203935e-002, -1.27161697e-001, -1.19952254e-001,
          7.41590932e-002, 5.04606180e-002, 1.61166683e-001,
          -2.04941884e-001, -1.11108191e-001, -1.37533974e-002,
          -7.61140808e-002 ]
      - [ -4.74139243e-001, 3.00807071e+000, 4.48338091e-001,
          -5.23711443e-001, 1.74891829e+000, 3.28063756e-001,
          -1.02760673e+000, 2.10734785e-001, 7.88042605e-001,
          2.01056108e-001, 3.50249857e-001, 3.69253457e-001,
          -4.28517073e-001, 1.26635671e+000, 1.02788247e-001,
          6.92421794e-001, 5.79301715e-001, 2.36777052e-001,
          -2.47618556e-001, 1.37424871e-001, 2.18780383e-001,
          -2.25273922e-001, 2.68090963e-001, 8.09404179e-002,
          1.02399684e-001 ]
      - [ 2.88347745e+000, 8.89812410e-001, 4.82030332e-001,
          -2.68364072e+000, -8.95574868e-001, -1.34883389e-001,
          1.21338296e+000, -3.08715235e-002, -2.34772235e-001,
          1.78015396e-001, 3.49509090e-001, 5.69108389e-002,
          -2.19140291e-001, 1.98215175e+000, 5.03643394e-001,
          -2.99423009e-001, 5.31016707e-001, -2.57181287e-001,
          -3.39357316e-001, 2.80606598e-001, 3.49073827e-001,
          -2.95124382e-001, 5.68138473e-002, 2.64319092e-001,
          -2.31089517e-001 ]
      - [ -3.16996545e-001, 2.18184161e+000, -8.45111087e-002,
          -5.75106680e-001, -1.99986196e+000, 1.09749556e+000,
          -1.20960426e+000, 4.43374574e-001, 1.54773211e-002,
          2.98422873e-001, 3.57813716e-001, 6.96235001e-001,
          2.74144560e-002, 2.32292354e-001, 1.33634523e-001,
          -1.02966428e-001, 2.66678929e-001, 1.73848774e-002,
          2.20146343e-001, 1.69906914e-001, 1.84340373e-001,
          2.79249758e-001, 2.81750888e-001, 3.39486077e-002,
          -1.55823961e-001 ]
      - [ 1.56364965e+000, -3.37709044e-003, -2.51024932e-001,
          -3.94164145e-001, -2.66851449e+000, -9.95547175e-001,
          -1.48699355e+000, -2.71632493e-001, 2.15107894e+000,
          6.11204207e-001, -1.51874685e+000, 1.77030921e-001,
          -1.15445638e+000, 7.84852684e-001, 8.87084186e-001,
          2.05651104e-001, 1.66886508e+000, -3.03069413e-001,
          1.60782579e-002, 1.10010095e-001, -7.15513676e-002,
          -6.39977813e-001, -6.70789406e-002, 1.88199103e-001,
          -1.67862400e-001 ]
      - [ 1.12431705e+000, -5.09160697e-001, -2.00232148e+000,
          -1.32593358e+000, -6.33352995e-001, -3.25128168e-001,
          -1.84770536e+000, 2.12319088e+000, -1.63770467e-001,
          -6.48257792e-001, -2.92765111e-001, 2.58684695e-001,
          -7.25180209e-001, 9.54780936e-001, -1.52537018e-001,
          1.34745777e-001, 5.00871420e-001, 2.99015552e-001,
          4.49116388e-003, 1.92438319e-001, 2.59613872e-001,
          1.62534956e-002, 2.05416977e-002, -1.58276439e-001,
          2.74606913e-001 ]
      - [ 1.87220466e+000, 1.13202214e+000, 1.73250782e+000,
          -1.68814409e+000, -7.51599789e-001, -7.04645813e-001,
          7.78862476e-001, 9.97651696e-001, -3.29836279e-001,
          -1.31071284e-001, -2.98944682e-001, 8.58677089e-001,
          -3.12157393e-001, 4.32559103e-001, 2.56685764e-001,
          6.10835671e-001, 7.16067910e-001, -6.86599687e-002,
          6.89202547e-002, -6.93460330e-002, 1.34229943e-001,
          -5.64002171e-002, 6.19820878e-002, -9.65047032e-002,
          -1.09442718e-001 ]
      - [ 2.64806837e-001, 2.67575908e+000, 2.01335478e+000,
          -5.53194344e-001, 9.36670423e-001, -4.95011918e-002,
          -7.00914919e-001, 1.41546869e+000, 6.23049259e-001,
          -9.04944420e-001, -1.28577423e+000, 1.80673674e-001,
          -2.02743173e-001, 8.33927989e-001, -4.62254912e-001,
          -1.13595627e-001, 1.16124928e+000, -2.88255930e-001,
          -2.69039303e-001, -2.58530248e-002, 5.97409196e-002,
          -3.47166926e-001, 4.89428341e-001, -8.19265395e-002,
          1.39476806e-001 ]
      - [ 1.95819068e+000, 1.78993976e+000, 5.41475952e-001,
          1.19876616e-001, -2.39384556e+000, -1.42406046e+000,
          -8.47464323e-001, 1.56314388e-001, 2.65604645e-001,
          -1.40241802e+000, -1.02141738e+000, 7.04513073e-001,
          1.26924837e+000, 9.24886763e-001, -7.14782700e-002,
          8.26824009e-001, 2.27062121e-001, 2.07564756e-001,
          3.69220227e-003, 2.57846236e-001, 1.95338875e-001,
          -2.01638252e-001, -2.75225844e-002, 1.87083945e-001,
          5.89563474e-002 ]
      - [ -4.48692769e-001, 1.68245053e+000, -1.50116646e+000,
          -1.65670681e+000, -5.61003506e-001, -2.87347615e-001,
          9.36893523e-001, -1.11609571e-001, 4.79702622e-001,
          1.06688052e-001, -6.86712027e-001, 2.18530938e-001,
          -1.62002612e-002, 2.56792665e-001, -3.74631405e-001,
          1.91709355e-001, 5.47903299e-001, -3.61716956e-001,
          -4.53004032e-001, 3.05153549e-001, 2.38506377e-001,
          9.71273631e-002, 1.11097425e-001, -2.37166703e-001,
          1.00182202e-002 ]
      - [ -3.46064186e+000, -3.30831051e-001, -1.04544260e-001,
          -9.47418809e-001, -1.30098283e+000, -1.86111122e-001,
          1.97586939e-001, 5.30536592e-001, 1.19839244e-001,
          -1.21139979e+000, -3.38289976e-001, 2.19182634e+000,
          -1.62097141e-001, 2.04299259e+000, 2.24329025e-001,
          4.77169126e-001, 6.12219334e-001, -1.55193716e-001,
          3.02345753e-001, -5.84242105e-001, 9.51654017e-002,
          3.59449275e-002, -3.56947988e-001, 4.08249557e-001,
          -2.73822129e-001 ]
      - [ 5.72188199e-001, 7.77914226e-001, 5.14241338e-001,
          -1.36599004e+000, -5.26024222e-001, -9.32199359e-001,
          -1.23321748e+000, 1.94033206e+000, -1.11191833e+000,
          1.76487088e+000, 9.75916207e-001, 9.09503877e-001,
          7.45418429e-001, 5.43605506e-001, -1.00403631e+000,
          5.54665387e-001, 1.49669516e+000, -2.10243106e-001,
          -3.05873334e-001, -4.66064662e-001, 7.42479444e-001,
          -1.56511646e-002, 1.62236586e-001, 1.04534246e-001,
          1.93496779e-001 ]
      - [ -2.00241947e+000, 5.19654334e-001, 1.17008042e+000,
          -2.14478159e+000, -1.25796807e+000, -4.04734999e-001,
          -1.13425888e-001, 7.64316142e-001, 5.77286005e-001,
          -2.06896320e-001, -3.12097818e-001, -3.18281412e-001,
          -2.00093448e-001, 7.23948359e-001, 2.69046705e-002,
          6.29478991e-001, 3.59526306e-001, -1.60435706e-001,
          1.34945720e-001, 8.96002576e-002, 5.32685257e-002,
          3.40079039e-001, -5.74293248e-002, 1.72232389e-001,
          -1.67027295e-001 ]
      - [ -1.73269916e+000, -1.25201061e-001, -9.96752441e-001,
          9.42691743e-001, -2.08942533e+000, 1.65919662e+000,
          1.02534068e+000, 1.89576161e+000, -8.60046864e-001,
          3.02494854e-001, -1.29038346e+000, 7.31310070e-001,
          -1.00786485e-001, 1.54692268e+000, 1.06642199e+000,
          9.49081361e-001, 5.72848320e-001, -8.49104300e-002,
          1.40700802e-001, 3.42886865e-001, 2.55049527e-001,
          -1.20065972e-001, 4.62943852e-001, 3.21594417e-001,
          -5.06956458e-001 ]
      - [ 1.73438478e+000, -1.55855024e+000, -6.62199920e-003,
          -9.43099439e-001, -1.77468693e+000, -6.22884393e-001,
          1.15901232e+000, -7.06181452e-002, -8.21305275e-001,
          5.21858670e-002, -1.13514438e-001, -4.03542817e-001,
          2.92551130e-001, 9.44445133e-002, 3.16599756e-002,
          -7.75537074e-001, -2.63950706e-001, -1.10549383e-001,
          9.71599109e-003, -1.03829643e-002, -8.17431137e-002,
          -1.62727952e-001, 2.14017201e-002, -1.83252737e-001,
          -4.06744063e-001 ]
      - [ 1.88755110e-001, -7.52823770e-001, -2.78540790e-001,
          -1.85744554e-001, -3.06702113e+000, 8.54316533e-001,
          -6.44126654e-001, 4.07825977e-001, -5.29876113e-001,
          -8.79680589e-002, 3.48301865e-002, 2.63009042e-001,
          6.10810161e-001, -6.73432291e-001, 2.61915207e-001,
          -1.05980968e+000, -2.09292490e-002, 2.18613055e-002,
          3.10975909e-001, 5.39477952e-002, 1.82027102e-001,
          4.15439457e-001, 1.22142486e-001, -8.16244930e-002,
          5.56934625e-002 ]
      - [ 7.10444450e-001, -2.01902270e+000, -4.07698721e-001,
          2.32130960e-001, -1.96946347e+000, -9.12722290e-001,
          5.13591282e-002, -6.93742782e-002, 3.66602212e-001,
          5.19561097e-002, -5.28460562e-001, -2.02967018e-001,
          -9.48599279e-002, -2.33007714e-001, 1.18747935e-001,
          -4.45067585e-001, 2.61129707e-001, -4.04391997e-002,
          1.07805267e-001, -4.87006605e-002, -2.16085985e-002,
          -1.54285818e-001, -9.20451339e-003, -2.32130736e-001,
          -2.09828392e-001 ]
      - [ 9.66058552e-001, -1.65171885e+000, -1.29799318e+000,
          -6.61970317e-001, -1.39697480e+000, -6.14035189e-001,
          -3.80579382e-001, 9.63353515e-001, -5.15549481e-001,
          -4.60639864e-001, -3.32502902e-001, -1.96281858e-002,
          4.36503887e-002, 3.31487656e-002, -3.84008251e-002,
          -2.99761087e-001, 2.26830356e-002, 1.45961627e-001,
          7.89455622e-002, -3.47604230e-003, -1.75662518e-001,
          3.46028358e-002, 1.25776827e-001, -1.29639104e-001,
          7.86953419e-002 ]
      - [ 1.35877681e+000, -1.07412386e+000, 9.68189776e-001,
          -5.96553028e-001, -1.56065762e+000, -1.07199097e+000,
          1.04154694e+000, 8.06200683e-001, -6.63194954e-001,
          -1.42539054e-001, -3.13535184e-001, 2.37756416e-001,
          9.32528004e-002, -3.75063032e-001, 1.41367204e-002,
          -1.37322277e-001, 1.15629524e-001, 8.11563358e-002,
          4.95745428e-002, -1.44350350e-001, -1.03808254e-001,
          -3.24204676e-002, 8.25036988e-002, -2.20989496e-001,
          -7.93852881e-002 ]
      - [ 8.31158221e-001, -1.03885245e+000, 2.43007708e+000,
          6.72752917e-001, -1.32782590e+000, -5.15422761e-001,
          3.63713920e-001, 1.67469525e+000, -4.13627714e-001,
          -1.31948817e+000, -2.46184611e+000, -3.85995179e-001,
          3.42339844e-001, -4.22361404e-001, -1.02722311e+000,
          -1.41510296e+000, 5.81463337e-001, -6.68925643e-001,
          2.01385729e-002, -5.74099906e-002, 6.06250986e-002,
          1.19446255e-001, 5.09853482e-001, -3.06797028e-001,
          -9.05425847e-002 ]
      - [ 1.10971224e+000, -1.36307347e+000, 1.47096187e-001,
          3.36046368e-001, -2.28251195e+000, -9.90833580e-001,
          1.09956704e-001, 1.47699580e-001, -3.81205350e-001,
          -8.90542150e-001, -6.05157495e-001, 6.15141168e-002,
          1.05046594e+000, -1.99825808e-001, -1.34674340e-001,
          -1.33952588e-001, 2.81512775e-002, -8.50676447e-002,
          -5.90267219e-002, -4.76434641e-002, 1.20650090e-001,
          1.50321899e-002, 2.79463567e-002, -1.77062199e-001,
          -1.92647159e-001 ]
      - [ -2.52928704e-001, -2.52553791e-001, -1.69989491e+000,
          -1.31753612e+000, -1.30313528e+000, -5.49574018e-001,
          1.61657929e+000, -1.27495630e-002, -1.43644571e-001,
          -2.48750567e-001, -6.73161447e-001, -2.26403236e-001,
          4.97960955e-001, -5.55720866e-001, 1.40698075e-001,
          -2.17858613e-001, 2.73678899e-001, -1.04571335e-001,
          -9.35335457e-002, -1.46347927e-002, -2.64453772e-003,
          -8.27184506e-003, 1.46316186e-001, -2.91966558e-001,
          -2.38511667e-001 ]
      - [ -1.08059657e+000, -2.14925480e+000, -5.59315979e-002,
          1.22597091e-001, -1.71908915e+000, -5.96273422e-001,
          7.28258371e-001, 3.29311267e-002, -2.84452617e-001,
          -5.16964793e-001, -2.56793618e-001, 4.57876772e-001,
          1.31306916e-001, 2.27972064e-002, -2.95302451e-001,
          -1.79232314e-001, 8.85224491e-002, -1.11779220e-001,
          9.88760665e-002, -8.27571750e-002, -1.04392983e-001,
          -7.91935250e-003, -2.41844095e-002, -3.12461238e-002,
          -1.81907967e-001 ]
      - [ 6.86571419e-001, -1.75815260e+000, 2.62938946e-001,
          -3.55486840e-001, -1.53699887e+000, -1.09182262e+000,
          9.12458673e-002, 7.02538013e-001, -1.13522339e+000,
          8.30757141e-001, 1.88442901e-001, 9.90779698e-002,
          7.20507324e-001, -2.37089917e-001, -6.91459894e-001,
          -1.23939231e-001, 5.66040099e-001, -2.06963837e-001,
          -6.81503788e-002, -3.65895420e-001, 1.31858870e-001,
          -6.01524226e-002, 1.84178308e-001, -1.63228184e-001,
          2.48558708e-002 ]
      - [ -1.09628427e+000, -1.49076068e+000, 8.51215303e-001,
          -7.69442856e-001, -1.86106944e+000, -5.64845443e-001,
          4.94820178e-001, 4.07144278e-001, -3.97352129e-003,
          -1.88605949e-001, -3.69252056e-001, -4.31285501e-001,
          5.37177324e-002, -4.43674289e-002, -2.97894269e-001,
          -1.44018546e-001, 1.00015350e-001, -1.52115017e-001,
          9.63861421e-002, 1.19839370e-001, -1.06650434e-001,
          2.21546099e-001, -8.58237222e-003, -2.55788267e-002,
          -1.85325652e-001 ]
      - [ -3.98785830e-001, -1.84594905e+000, -3.68430316e-001,
          6.21642530e-001, -1.72150826e+000, 3.92444164e-001,
          8.88076663e-001, 3.99745971e-001, -7.56281078e-001,
          -1.62097793e-002, -6.73514903e-001, -2.97067896e-003,
          2.05276668e-001, -8.19634348e-002, 1.98037148e-001,
          -9.80855897e-002, 1.20932303e-001, -6.51502609e-002,
          1.10734114e-003, -1.55356089e-002, -1.31896868e-001,
          -1.13642752e-001, 1.53869033e-001, -1.82921335e-001,
          -1.48004562e-001 ]
      - [ -1.43729353e+000, 1.35807502e+000, -7.58758560e-002,
          5.25437534e-001, -1.66021037e+000, 1.20099819e+000,
          -1.73801935e+000, 4.94678915e-001, 1.94649622e-001,
          3.83426063e-002, 3.39601696e-001, 5.93055606e-001,
          8.24327320e-002, -8.87748063e-001, -6.12792149e-002,
          2.26940244e-001, 1.62528828e-001, 1.56971186e-001,
          3.64334106e-001, -1.37949154e-001, 1.95657462e-001,
          1.00988045e-001, 7.54199475e-002, 1.11361295e-001,
          5.69635816e-002 ]
      - [ -1.29895020e+000, -1.33146310e+000, -6.47436023e-001,
          1.72516251e+000, -1.06756532e+000, -1.12537801e+000,
          -1.95157135e+000, -1.68491960e-001, 1.68979740e+000,
          6.10366166e-001, -8.85750711e-001, 3.90374005e-001,
          -8.09952021e-001, -6.16947412e-001, 1.13010248e-002,
          3.80270302e-001, 9.56995845e-001, 1.77124605e-001,
          3.16820219e-002, -4.21753787e-002, -2.65783817e-002,
          -1.31636903e-001, 2.24607661e-002, -1.76423654e-001,
          1.39380768e-001 ]
      - [ -9.65373039e-001, -7.97800362e-001, -2.08640027e+000,
          2.25623831e-001, -9.01685678e-004, -2.57479131e-001,
          -2.19520068e+000, 2.01528955e+000, -1.03266783e-001,
          -5.83230853e-001, -1.45315811e-001, 2.15069383e-001,
          -9.43325087e-002, -2.84748115e-002, -5.61760142e-002,
          2.67112583e-001, 2.83929080e-001, 5.43009758e-001,
          6.20464347e-002, 1.05011212e-002, -1.73188090e-001,
          1.99901417e-001, 2.43469670e-001, -1.62992388e-001,
          3.49488527e-001 ]
      - [ 3.94184232e-001, 8.02772522e-001, 2.58492613e+000,
          5.42301536e-001, -3.89946103e-001, -1.72673380e+000,
          1.00643918e-001, 2.29142356e+000, -1.53311759e-001,
          -1.14416265e+000, -7.26295471e-001, 1.74935901e+000,
          -1.10452425e+000, -2.25691986e+000, 3.77997071e-001,
          1.64757943e+000, 9.29079235e-001, 7.47182071e-001,
          8.28459561e-001, 5.56938536e-002, -3.96718115e-001,
          -6.94304854e-002, 5.85938655e-002, 2.63641309e-002,
          -2.32890084e-001 ]
      - [ -1.42107475e+000, 1.58533347e+000, 1.50696397e+000,
          1.49379313e+000, 1.17711902e+000, 2.06963032e-001,
          -9.71089423e-001, 1.15810287e+000, 7.87603021e-001,
          -7.96283066e-001, -1.30388117e+000, 7.95730278e-002,
          -2.90282369e-001, -6.66038215e-001, -6.90005004e-001,
          -2.17267111e-001, 5.06432712e-001, 2.28532389e-001,
          -1.96074583e-002, -2.38668010e-001, -7.75109753e-002,
          -3.08527220e-002, 1.18148558e-001, -5.77843226e-002,
          1.70822144e-001 ]
      - [ -7.59298682e-001, 1.95823982e-001, 2.72461325e-001,
          2.41906476e+000, -1.59446836e+000, -1.31631434e+000,
          -1.69252312e+000, 2.84641623e-001, 4.29782420e-001,
          -1.56138313e+000, -1.05666316e+000, 6.73920929e-001,
          1.41263926e+000, -6.55937612e-001, -6.81579053e-001,
          1.14335740e+000, 5.33675961e-002, 6.01283252e-001,
          -6.00735992e-002, 1.23296142e-001, 3.50534692e-002,
          7.25549385e-002, 1.07170135e-001, 1.22689627e-001,
          1.26047462e-001 ]
      - [ -1.87629104e+000, 1.22278595e+000, -1.91108656e+000,
          -5.10323405e-001, 1.24429964e-001, 4.72149514e-002,
          5.96317649e-001, 2.25622728e-002, 6.05401814e-001,
          -2.65849590e-001, -6.79856122e-001, 2.58844554e-001,
          2.81536520e-001, -9.04433072e-001, -2.93627173e-001,
          5.14703870e-001, 6.32606804e-001, -4.77898680e-002,
          -1.46138549e-001, 1.34718761e-001, -9.60797146e-002,
          2.95210570e-001, 1.52054071e-001, -8.30379426e-002,
          1.92792103e-001 ]
      - [ -2.90880251e+000, -5.98532617e-001, -2.28488639e-001,
          8.98047507e-001, -1.08558863e-001, -2.68759102e-001,
          -4.09403950e-001, 3.57814759e-001, 2.76377261e-001,
          -5.34519970e-001, -6.93245754e-002, 8.05848241e-001,
          -1.94256343e-002, 1.22412853e-001, -1.79144233e-001,
          2.00084135e-001, 1.67427257e-001, 7.23396987e-002,
          1.74462244e-001, -2.16753989e-001, -1.12636864e-001,
          -1.48589024e-002, -6.79092035e-002, -1.19356483e-001,
          2.28022598e-002 ]
      - [ -1.56652272e+000, -1.38534814e-001, -2.42250875e-001,
          1.04586387e+000, -9.02859569e-002, -1.14259458e+000,
          -1.79517841e+000, 1.72049820e+000, -8.63378465e-001,
          1.56930208e+000, 4.89202827e-001, 5.84543467e-001,
          6.32710576e-001, -4.87295926e-001, -1.23208320e+000,
          6.25341296e-001, 9.02790785e-001, -4.06989790e-002,
          -1.57371014e-002, -4.55651164e-001, 5.29380322e-001,
          3.79377864e-002, 2.01598369e-002, -2.98454277e-002,
          2.61349976e-001 ]
      - [ -2.92120147e+000, -1.64081261e-001, 5.97635925e-001,
          -1.71330079e-001, -6.21836185e-001, -5.27737141e-001,
          -6.06870472e-001, 5.97282588e-001, 6.19170547e-001,
          -4.60899979e-001, -2.45795712e-001, -2.96851099e-001,
          -2.32511371e-001, -2.68718123e-001, -2.12642908e-001,
          4.08256054e-001, 1.18155368e-001, 8.05109292e-002,
          1.31094515e-001, 1.63644671e-001, 2.51414962e-002,
          1.22879133e-001, -3.95106064e-004, 2.95128953e-002,
          1.18892685e-001 ]
      - [ -2.12291026e+000, -5.65389335e-001, -6.87571824e-001,
          1.69232035e+000, -5.45515954e-001, 9.86171424e-001,
          -2.49302551e-001, 1.00458670e+000, -3.97582591e-001,
          2.23372683e-001, -8.50533485e-001, 1.99582681e-001,
          1.80027083e-001, -7.46629620e-003, -5.85735887e-002,
          6.95306540e-001, 2.63123810e-001, 1.11959994e-001,
          1.55549794e-002, -1.74520224e-001, 1.05810771e-003,
          2.76862215e-002, 5.98670170e-002, -3.81214246e-002,
          1.66132189e-002 ]
      - [ 5.95750332e-001, -2.24596810e+000, -3.09333891e-001,
          6.67094588e-001, 6.70729220e-001, -1.81208038e+000,
          3.74744296e-001, -7.13095665e-001, 8.41138005e-001,
          1.21257447e-001, -7.65463710e-001, -3.28139603e-001,
          -5.08234620e-001, 1.78752437e-001, 3.63689214e-002,
          2.18784153e-001, 3.21280599e-001, -6.69067204e-002,
          -3.97826731e-001, 5.46407998e-002, -6.24852106e-002,
          -2.96972811e-001, -3.51053476e-001, -1.06986366e-001,
          1.23393670e-001 ]
      - [ 7.03771710e-001, -1.72055519e+000, -1.34821343e+000,
          -6.12733960e-001, 1.17152178e+000, -1.42211986e+000,
          2.93317121e-002, 8.97408426e-001, -1.42385975e-001,
          -4.21321660e-001, -2.65306294e-001, -2.84822971e-001,
          -1.35882393e-001, 6.18637443e-001, -2.33285874e-001,
          6.97037801e-002, 2.41941307e-004, 1.82117537e-001,
          -1.38636097e-001, 5.67704886e-002, -2.97199428e-001,
          -4.88385186e-002, 3.32680866e-002, -5.58577403e-002,
          2.35395297e-001 ]
      - [ 1.11439395e+000, -1.02343559e+000, 1.08148074e+000,
          -1.71630695e-001, 1.53482890e+000, -1.51040125e+000,
          1.58695769e+000, 1.63858891e-001, -3.12367737e-001,
          -8.16871598e-002, -3.82644147e-001, -6.78408444e-002,
          -2.64857948e-001, 2.86389440e-001, 1.35814399e-001,
          1.05949089e-001, 1.07962117e-001, 1.29205272e-001,
          -1.76395819e-001, -7.38273263e-002, -8.20588395e-002,
          6.83463272e-003, 2.31495202e-002, -2.47293293e-001,
          -1.29809424e-001 ]
      - [ 2.29075477e-001, 1.57436300e-002, 1.59474671e+000,
          7.84342110e-001, 2.31257224e+000, -1.03119469e+000,
          1.13970029e+000, 3.24635744e-001, 1.37661770e-001,
          -5.88730037e-001, -1.29963028e+000, -4.57107723e-001,
          -5.52968621e-001, 5.35274506e-001, -7.84371436e-001,
          -9.13626924e-002, 2.06858367e-001, -2.93258518e-001,
          -3.85860026e-001, -6.79462627e-002, -8.78968686e-002,
          -3.88961196e-001, 7.65725151e-002, -9.11085233e-002,
          -1.08540349e-001 ]
      - [ 1.12902331e+000, -1.57762182e+000, 1.45720243e-001,
          1.18638134e+000, 9.53166425e-001, -2.33674240e+000,
          8.20107579e-001, -5.63739359e-001, 5.52783571e-002,
          -1.03785336e+000, -1.07664788e+000, -2.89700866e-001,
          8.34047019e-001, 4.91307020e-001, -3.68649483e-001,
          5.92654467e-001, -1.79589897e-001, -4.09210362e-002,
          -3.48292410e-001, 2.15412125e-001, -8.48990753e-002,
          -2.94017553e-001, -2.40364760e-001, 7.35650957e-002,
          -6.03954382e-002 ]
      - [ -3.49646449e-001, 3.49369735e-001, -1.59561539e+000,
          -1.08652163e+000, 1.06798136e+000, -1.01550472e+000,
          1.61676550e+000, -2.62298077e-001, 4.46282238e-001,
          -2.80465901e-001, -6.69656813e-001, -2.93540418e-001,
          1.59812182e-001, -3.44228148e-002, -1.39208868e-001,
          1.63264021e-001, 2.20048010e-001, 1.24766178e-001,
          -3.47982198e-001, -8.89953598e-002, 5.56814484e-002,
          -2.06260279e-001, -8.87573347e-004, -1.65519491e-001,
          -8.79641846e-002 ]
      - [ -1.24589694e+000, -1.98857999e+000, 2.20831390e-002,
          3.35079491e-001, 1.08945596e+000, -1.14696884e+000,
          1.09782839e+000, -2.18255624e-001, 1.90397531e-001,
          -7.78966546e-001, -1.83929756e-001, 3.35451275e-001,
          -2.08234370e-001, 5.55492163e-001, -2.38004953e-001,
          6.59183636e-002, -2.37060525e-002, -8.25972706e-002,
          -6.61073700e-002, -2.59325385e-001, -1.16106592e-001,
          -2.84627318e-001, -1.27542078e-001, -7.25486130e-002,
          1.12702057e-001 ]
      - [ 4.87702131e-001, -1.58017528e+000, 3.42203021e-001,
          1.85644869e-002, 1.48758018e+000, -1.76115501e+000,
          5.40874124e-001, 4.77752507e-001, -6.27018690e-001,
          1.03086841e+000, 3.57527941e-001, -5.68065420e-002,
          4.49295908e-001, 2.46271804e-001, -7.23045886e-001,
          2.18743563e-001, 4.27216351e-001, -1.48831144e-001,
          -3.29078257e-001, -3.91988009e-001, 3.19736421e-001,
          -1.06351353e-001, 1.72734750e-003, -5.34747094e-002,
          1.61373630e-001 ]
      - [ -1.70156109e+000, -1.50770032e+000, 1.12719405e+000,
          -7.27905273e-001, 9.08626497e-001, -1.40562761e+000,
          8.16658854e-001, 7.08888769e-002, 4.94505614e-001,
          -5.05717516e-001, -5.28429151e-002, -9.34865952e-001,
          -1.46910995e-001, 2.74528414e-001, -1.67178884e-001,
          1.60305426e-001, -8.80134776e-002, 3.16524953e-002,
          -1.87352285e-001, -8.35479125e-002, 1.35423869e-001,
          -2.67544910e-002, -5.38781472e-002, -2.39068687e-001,
          -4.17398512e-002 ]
      - [ -6.40864253e-001, -2.21284223e+000, -2.44624242e-001,
          1.28646016e+000, 8.89587343e-001, 7.89356381e-002,
          1.61564410e+000, 4.84304100e-001, -3.92436832e-001,
          -4.89557944e-002, -1.14724469e+000, -4.71781701e-001,
          -5.69721349e-002, 4.82928962e-001, 1.28770828e-001,
          4.33137089e-001, 6.86306134e-003, 2.81154308e-002,
          -3.71397644e-001, -2.34591424e-001, 1.03738137e-001,
          -2.18241394e-001, -4.34513763e-002, -2.65729040e-001,
          -3.53784859e-002 ]
      - [ 6.63265586e-002, 4.95361723e-002, -1.56660664e+000,
          -1.04660368e+000, 1.10004926e+000, 8.08820128e-001,
          -7.12483883e-001, 2.30776882e+000, -1.66390550e+000,
          -1.43848550e+000, 8.60607803e-001, -7.40987211e-002,
          4.34382379e-001, 4.51301597e-002, -1.64671972e-001,
          1.58390719e-002, -3.01592141e-001, 3.62255335e-001,
          -1.07662410e-001, -1.28311990e-003, -8.91799033e-002,
          1.72086045e-001, 4.24266398e-001, -3.71708870e-002,
          1.18058152e-001 ]
      - [ 8.77753019e-001, 1.35682082e+000, 1.64622760e+000,
          -1.23340940e+000, 6.42029464e-001, 2.49488860e-001,
          1.46403813e+000, 1.09368885e+000, -1.46399045e+000,
          -4.32260960e-001, 5.03147960e-001, 5.85827529e-001,
          3.95849258e-001, -1.85816988e-001, 2.06825379e-002,
          3.95521194e-001, -2.25700155e-001, 1.70982808e-001,
          8.45354348e-002, -2.73007303e-001, -6.15956299e-002,
          2.91842639e-001, 1.62994731e-002, -1.68615254e-004,
          5.91593049e-002 ]
      - [ -2.91518509e-001, 1.96406627e+000, 1.60908484e+000,
          -2.44613782e-001, 1.53838480e+000, 7.44288921e-001,
          2.41480485e-001, 1.16701710e+000, -6.27669632e-001,
          -6.88224971e-001, -3.26711565e-001, 3.41089591e-002,
          4.32476819e-001, 1.08103886e-001, -6.16705894e-001,
          -3.01492989e-001, -1.31212130e-001, -1.05734363e-001,
          1.17357209e-001, -2.16185361e-001, -1.56107023e-001,
          8.34814459e-002, 4.36115917e-003, 1.35848716e-001,
          1.77417561e-001 ]
      - [ 9.04290497e-001, 2.47366619e+000, 7.88376391e-001,
          6.04614615e-001, -3.27857047e-001, -3.41841936e-001,
          9.22388375e-001, 4.05213296e-001, -2.47051477e+000,
          -2.59663868e+000, -3.52945268e-001, 3.87392282e-001,
          2.03200221e+000, 3.66694331e-001, -1.20694852e+000,
          7.36557961e-001, -1.51901019e+000, 5.74167609e-001,
          1.65650696e-001, 3.35209548e-001, 1.45710874e-002,
          -1.50677219e-001, 1.55533761e-001, 1.65172845e-001,
          -3.18257213e-001 ]
      - [ -8.32040846e-001, 1.65352833e+000, -1.01360404e+000,
          -1.21884990e+000, 4.90182698e-001, 4.79665339e-001,
          1.28965020e+000, -1.31026115e-002, -2.52796620e-001,
          -3.84093076e-001, -1.84976429e-001, -7.86340535e-002,
          5.83703935e-001, -3.56008768e-001, -2.17249155e-001,
          1.66567951e-001, -4.88095218e-003, -6.52922839e-002,
          -3.22182804e-001, 1.61719263e-001, -1.58415979e-003,
          2.96533942e-001, -3.79147683e-003, -1.06986433e-001,
          6.46962896e-002 ]
      - [ -2.89494920e+000, -1.21641569e-001, 4.62836884e-002,
          -3.10841948e-001, 6.77174151e-001, 4.20038879e-001,
          1.02905059e+000, 5.39980531e-001, -9.46553767e-001,
          -1.12241507e+000, 1.00621486e+000, 1.05819166e+000,
          5.97858667e-001, 7.03843772e-001, -4.35338557e-001,
          2.05260560e-001, -4.62594002e-001, -1.04846634e-001,
          1.56204388e-001, -3.56405795e-001, -1.33547053e-001,
          6.85398430e-002, -5.17061315e-002, 6.15203865e-002,
          -9.62770954e-002 ]
      - [ -4.13730681e-001, 6.10909581e-001, 8.07558894e-001,
          -7.57576227e-001, 9.92422998e-001, 1.05058409e-001,
          2.33812273e-001, 1.56732500e+000, -2.12142372e+000,
          8.34836602e-001, 1.54308033e+000, 4.15442735e-001,
          1.17644572e+000, -2.52124459e-001, -1.01574707e+000,
          2.42704332e-001, 3.48558605e-001, -1.19079456e-001,
          -2.38783285e-001, -4.86375481e-001, 3.84148151e-001,
          1.88570514e-001, 2.34996140e-001, 9.25209001e-002,
          2.08873078e-001 ]
      - [ -2.38393092e+000, 4.77696389e-001, 1.14332581e+000,
          -1.44711852e+000, 1.45771608e-001, 1.63063958e-001,
          5.71815491e-001, 9.10240412e-001, -4.32871372e-001,
          -4.37961638e-001, 4.47836995e-001, -4.40934628e-001,
          5.38259685e-001, 3.63218814e-001, -4.55998898e-001,
          3.70266020e-001, -3.25869620e-001, -2.37881057e-002,
          1.43893152e-001, 9.42693651e-002, -7.38964751e-002,
          4.47363257e-001, -1.70761779e-001, 1.00679979e-001,
          -1.55968890e-002 ]
      - [ -1.71016991e+000, 2.48331763e-002, -4.47165817e-001,
          6.09083474e-001, 2.39678383e-001, 1.88150978e+000,
          1.47765064e+000, 1.51371336e+000, -1.58020425e+000,
          -2.97378413e-002, -5.07742018e-002, 1.19164281e-001,
          6.60901666e-001, 5.22605419e-001, -3.32690440e-002,
          5.98157346e-001, -2.70241082e-001, 3.58504727e-002,
          1.44289836e-001, 2.32827459e-002, -1.38347238e-001,
          1.75931916e-001, 1.41644374e-001, -5.40202446e-002,
          -3.11018050e-001 ]
      - [ 6.57686293e-001, 6.62399769e-001, 2.45491791e+000,
          -1.32289797e-001, -5.43110892e-002, -2.57933170e-001,
          1.60342216e+000, -6.66005790e-001, -1.81907624e-001,
          2.33587250e-001, -4.13315669e-002, 3.74699652e-001,
          -1.45935163e-001, -5.89687467e-001, 1.16629973e-001,
          4.65124488e-001, 1.15239032e-001, -2.66913176e-001,
          6.00448810e-002, -5.69997840e-002, 1.02304325e-001,
          -2.83556781e-003, -9.69678462e-002, -9.38503817e-003,
          -2.28092283e-001 ]
      - [ -4.72127974e-001, 1.34564149e+000, 2.27664900e+000,
          7.28554845e-001, 9.04778838e-001, 2.31903449e-001,
          6.78612173e-001, -4.98881310e-001, 3.98050725e-001,
          -7.10324943e-002, -6.08164370e-001, -1.03939116e-001,
          6.83834180e-002, -3.06496739e-001, -2.19061270e-001,
          -1.70025468e-001, 2.58715808e-001, -4.69625115e-001,
          -7.56135732e-002, -7.63989687e-002, 1.23627126e-001,
          -1.54141441e-001, -2.74203923e-002, 1.36878043e-001,
          -1.44303339e-002 ]
      - [ 2.29337201e-001, 1.14032078e+000, 1.93797147e+000,
          1.34710908e+000, -1.15498376e+000, -6.26812220e-001,
          9.25351977e-001, -1.92244768e+000, 3.40880901e-001,
          -3.54041189e-001, -5.31038046e-001, 2.39982441e-001,
          7.95473576e-001, -2.96184480e-001, -2.57795066e-001,
          6.09057784e-001, -2.44618565e-001, -1.81195289e-001,
          2.29702946e-002, 1.72035620e-001, 5.98769151e-002,
          -1.31343901e-001, -2.27055162e-001, 3.37183475e-001,
          -2.21895725e-001 ]
      - [ -1.18583417e+000, 1.48692071e+000, -1.97751626e-001,
          -4.87486809e-001, -9.15808156e-002, 3.23311806e-001,
          1.88776124e+000, -1.33956432e+000, 5.73310554e-001,
          2.63482720e-001, -4.65757489e-001, 1.10469110e-001,
          2.32445285e-001, -5.62572837e-001, -3.36493105e-001,
          2.33065993e-001, 2.16392905e-001, -3.85713011e-001,
          -1.55883506e-001, -4.38878387e-002, 2.86718965e-001,
          -9.24409404e-002, -7.63988122e-002, -8.38493705e-002,
          -1.30212516e-001 ]
      - [ -2.29052043e+000, -9.87666547e-002, 1.29076195e+000,
          6.02903783e-001, -2.48815969e-001, -1.03623152e-001,
          1.35921133e+000, -1.31857610e+000, 2.54750133e-001,
          -1.60981936e-003, 2.91938901e-001, 7.64832318e-001,
          1.30683318e-001, 2.51082629e-001, -9.82997566e-002,
          1.05169572e-001, -9.88715980e-003, -3.36479872e-001,
          -4.96829823e-002, -1.89193144e-001, -1.66816674e-002,
          -2.13595510e-001, -1.73879012e-001, 2.27104753e-001,
          -8.85823220e-002 ]
      - [ -5.24845123e-001, 5.17485380e-001, 2.45938683e+000,
          3.56718898e-001, 2.25603953e-001, -7.57090688e-001,
          7.92619467e-001, -4.50259268e-001, -7.29867220e-001,
          1.89677775e+000, 9.89391267e-001, 5.30497968e-001,
          7.65092492e-001, -7.37795949e-001, -9.17635262e-001,
          4.47489321e-001, 4.55614179e-001, -7.87236512e-001,
          -2.01811358e-001, -4.11844283e-001, 2.81966209e-001,
          -1.70886725e-001, -1.20853558e-001, 2.21010506e-001,
          -1.93209469e-001 ]
      - [ -1.82631946e+000, 1.25997037e-001, 1.89675474e+000,
          -2.94900835e-001, -4.51153338e-001, -1.69803455e-001,
          9.27484214e-001, -6.85732245e-001, 4.16326046e-001,
          6.33470789e-002, 4.18438986e-002, -1.99334458e-001,
          -1.97027088e-003, -3.22990477e-001, 3.21282335e-002,
          4.14444506e-001, -1.46498447e-002, -3.58995408e-001,
          -1.61721945e-001, 6.13475926e-002, 9.10255313e-002,
          3.94681096e-002, -1.63646296e-001, 1.29474238e-001,
          -1.03815660e-001 ]
      - [ -1.50367892e+000, 1.10706218e-001, 9.30399656e-001,
          1.38763857e+000, -8.02148402e-001, 1.27736592e+000,
          1.68138146e+000, -6.10162556e-001, -2.81504422e-001,
          7.99518466e-001, -5.68380713e-001, 7.85698220e-002,
          1.52621850e-001, 1.84867606e-001, 2.78889626e-001,
          4.40154076e-001, 1.02343842e-001, -8.81176144e-002,
          -2.06948400e-001, -5.63763194e-002, -3.93762216e-002,
          -1.17709756e-001, -1.65225461e-001, 2.20057473e-001,
          -2.78494388e-001 ]
      - [ -1.74837089e+000, 1.61108518e+000, 1.27067536e-001,
          1.45295644e+000, 1.53151393e+000, 1.46831155e+000,
          -1.58078694e+000, 4.55079153e-002, 1.14018559e+000,
          -1.11511242e+000, -1.32507885e+000, -8.70851874e-001,
          4.13702130e-002, 6.16569594e-002, -5.76829731e-001,
          -1.05582154e+000, 4.92600888e-001, -4.38612700e-001,
          -3.53703052e-001, 2.52673209e-001, 3.00444990e-001,
          -3.09470356e-001, -8.96008685e-002, 6.02244496e-001,
          1.31479114e-001 ]
      - [ -4.93597656e-001, -3.66524816e-001, -1.64210629e+000,
          2.36728406e+000, -1.26405072e+000, -3.91079217e-001,
          -1.60207736e+000, -1.28933847e+000, 8.51528764e-001,
          -1.42302990e+000, -3.24590206e-001, -5.88133037e-001,
          1.88277626e+000, 4.04677302e-001, -4.18238610e-001,
          -1.05409345e-004, -5.87823689e-001, 4.66146886e-001,
          -3.01816106e-001, 2.29377776e-001, 4.17686373e-001,
          -2.26161897e-001, 7.90948197e-002, 4.33104724e-001,
          3.15824412e-002 ]
      - [ -1.26328182e+000, 8.05111647e-001, -2.15650415e+000,
          -4.52199250e-001, 2.30085269e-001, 3.55573148e-001,
          2.89957851e-001, -5.49802363e-001, 4.48071063e-001,
          -7.11221844e-002, -2.26775065e-001, -3.11238259e-001,
          3.25831980e-001, -1.28777772e-001, -1.58704609e-001,
          -9.21219066e-002, 1.53282970e-001, -5.04672751e-002,
          -1.95112571e-001, 1.81736559e-001, -5.72065078e-002,
          5.28335245e-003, -4.79217023e-002, 3.64648104e-002,
          -2.63614561e-002 ]
      - [ -2.47797275e+000, -8.87198210e-001, -1.11049855e+000,
          6.10464215e-001, 5.57229929e-002, 1.46292493e-001,
          -4.30524945e-001, -2.98107982e-001, 3.91720414e-001,
          -4.62975740e-001, 1.35225043e-001, 2.36073613e-001,
          1.18977383e-001, 3.02866012e-001, -1.41097844e-001,
          -1.87974185e-001, -1.36696950e-001, -1.57898560e-001,
          8.28052908e-002, 2.50113271e-002, -1.40717655e-001,
          -2.43701711e-002, -8.79209042e-002, 2.05629393e-001,
          -6.78050471e-003 ]
      - [ -1.51388800e+000, -8.46949637e-001, -1.53871965e+000,
          4.95375395e-001, 2.76917845e-001, -8.38640705e-002,
          -1.88329422e+000, 5.26253462e-001, -6.33112729e-001,
          1.86760533e+000, 1.21701026e+000, -2.24748343e-001,
          1.11774957e+000, 2.90895522e-001, -1.06300652e+000,
          -2.37316713e-001, 5.89702964e-001, -3.49153817e-001,
          -3.63161832e-001, -3.42352152e-001, 3.86187643e-001,
          -6.52006641e-002, 1.61343478e-002, 2.99534559e-001,
          2.21584260e-001 ]
      - [ -2.98869538e+000, -5.17616272e-001, -1.97792917e-001,
          -3.94845009e-001, -3.92998844e-001, -6.75331056e-002,
          -7.35907495e-001, -3.43191065e-003, 7.55427241e-001,
          -4.02873129e-001, 1.12007007e-001, -8.46518636e-001,
          8.02756622e-002, 5.39180115e-002, -1.73171878e-001,
          1.13853559e-001, -1.07824244e-001, -3.10673088e-001,
          -3.39731984e-002, 3.48158151e-001, -7.99077302e-002,
          7.55759180e-002, -5.12072146e-002, 2.78480232e-001,
          1.34841651e-001 ]
      - [ -1.69110215e+000, -6.58101380e-001, -1.36519337e+000,
          1.33293378e+000, -3.49761248e-001, 1.25101507e+000,
          -1.36333302e-001, 2.73910671e-001, -1.42135784e-001,
          1.89503357e-001, -5.80919445e-001, -2.22274885e-001,
          8.38506073e-002, 1.55922726e-001, 5.57327829e-002,
          1.40464246e-001, -6.04272261e-002, -2.61819232e-002,
          2.43277997e-002, 2.20764931e-002, 7.05073327e-002,
          -1.03904856e-002, -4.95065600e-002, 1.51362568e-001,
          4.52865735e-002 ]
      - [ 9.24606800e-001, -1.68062758e+000, -1.63753200e+000,
          3.73244882e-001, -2.29457951e+000, -1.16866112e+000,
          -1.89823583e-001, -1.12859046e+000, -1.92158312e-001,
          -3.16168576e-001, 9.22344923e-001, 3.45260024e-001,
          1.56915390e+000, 6.28130883e-002, 4.46147293e-001,
          7.90092230e-001, -5.22420645e-001, 2.67220497e-001,
          -2.41900489e-001, 2.49949068e-001, 5.25719643e-001,
          1.97494879e-001, -2.38600634e-002, -1.89042404e-001,
          9.08436403e-002 ]
      - [ -5.24154305e-001, 1.71695650e-001, -2.20330477e+000,
          -1.13359523e+000, -4.19928521e-001, -1.31638110e-001,
          8.96522701e-001, -5.63833952e-001, 4.37327847e-002,
          3.33322406e-001, 2.18066007e-001, 3.05148661e-002,
          2.45230287e-001, -2.48192251e-001, 2.62850761e-001,
          3.64361614e-001, -5.72718307e-003, -2.82531939e-002,
          -1.29730493e-001, 1.38900727e-001, 3.07248067e-002,
          4.18465910e-003, -9.64249149e-002, -1.28406748e-001,
          -8.32619742e-002 ]
      - [ -1.85651827e+000, -1.93848193e+000, -1.06215429e+000,
          -2.77064499e-002, -1.04360771e+000, -3.82748872e-001,
          5.12816668e-001, -4.87033129e-001, -2.14318767e-001,
          -6.86213821e-002, 8.10794711e-001, 6.77196026e-001,
          5.29833175e-002, 3.30514550e-001, 2.39662513e-001,
          3.24987799e-001, -3.03590983e-001, 3.05987835e-001,
          1.24901645e-001, -4.52428237e-002, 6.74056336e-002,
          1.04588218e-001, -1.85836866e-001, 9.96340290e-002,
          -1.39238149e-001 ]
      - [ 9.82263833e-002, -1.44963169e+000, -1.24694443e+000,
          -6.52095973e-001, -9.59096909e-001, -8.32108378e-001,
          -2.08345115e-001, 2.01626286e-001, -1.12710190e+000,
          1.79629505e+000, 1.65094554e+000, 4.74326164e-001,
          7.07942843e-001, -5.96176274e-003, -3.83291423e-001,
          5.72513700e-001, 2.32981145e-001, 7.51906857e-002,
          -1.03150487e-001, -1.58852354e-001, 6.84145913e-002,
          8.00353438e-002, 3.27729732e-002, -3.40236239e-002,
          -1.27514184e-001 ]
      - [ -2.27034974e+000, -1.35946441e+000, -4.47084308e-002,
          -1.33911812e+000, -1.58499718e+000, -7.02268183e-001,
          2.19428077e-001, -1.68522850e-001, 2.62719959e-001,
          2.09748253e-001, 7.87769556e-001, -5.82815886e-001,
          6.84915250e-003, 2.36877844e-001, 2.99061835e-001,
          6.39606357e-001, -1.07490748e-001, 1.75661854e-002,
          4.00981456e-001, 2.95980752e-001, -1.05204329e-001,
          2.32932076e-001, -1.09065942e-001, 4.82513122e-002,
          -1.61896974e-001 ]
      - [ -1.07233632e+000, -1.76931453e+000, -1.50087142e+000,
          5.26663959e-001, -1.39842367e+000, 7.03740537e-001,
          9.50522006e-001, 1.34561449e-001, -7.36486077e-001,
          5.69681823e-001, 9.25363526e-002, 2.50889122e-001,
          1.29462391e-001, -5.30772172e-002, 7.19440460e-001,
          6.40193462e-001, -1.92906171e-001, 4.87577729e-002,
          1.30482554e-001, 6.81290403e-002, 1.03349470e-001,
          4.41770852e-002, 5.75719550e-002, 3.76182096e-003,
          5.92425140e-003 ]
      - [ -9.26100016e-001, 9.93451655e-001, -1.48507607e+000,
          -1.49074543e+000, 7.83263564e-001, 4.50083464e-001,
          1.22484910e+000, -1.37357628e-002, 4.04468477e-001,
          4.35495645e-001, -7.74250999e-002, -1.52413294e-001,
          -1.56842873e-001, -3.11058939e-001, 9.09907743e-002,
          -2.24118173e-001, 3.99214178e-001, -7.89404660e-002,
          -1.87335536e-001, 1.23461671e-002, 8.64801779e-002,
          2.65403330e-001, -6.75178245e-002, -1.61981523e-001,
          6.45573810e-002 ]
      - [ -2.86454988e+000, -1.29954064e+000, -1.85974970e-001,
          -3.84148389e-001, 8.65399420e-001, 6.12030149e-001,
          7.00893879e-001, 2.78588295e-001, 1.12948656e-001,
          6.71703294e-002, 7.28960872e-001, 6.46188140e-001,
          -7.08018839e-001, 2.82720566e-001, 5.46243712e-002,
          -3.71070415e-001, 1.68285593e-001, -2.68215656e-001,
          1.30950376e-001, -2.87027091e-001, -2.64037531e-002,
          2.21406663e-004, -2.39465442e-002, 6.49607405e-002,
          -4.33668345e-002 ]
      - [ -9.14406538e-001, -7.18026698e-001, 2.94760540e-002,
          -1.15629947e+000, 1.14840770e+000, 5.47761060e-002,
          -2.51993001e-001, 1.15335941e+000, -1.01812088e+000,
          2.54545426e+000, 1.34522879e+000, 1.55124739e-001,
          -2.74378508e-001, -2.07436025e-001, -8.25287282e-001,
          -1.75464824e-001, 8.79469991e-001, -4.88046825e-001,
          -1.57010823e-001, -4.36327755e-001, 3.39991033e-001,
          1.83275983e-001, 2.39765659e-001, -8.90321732e-002,
          1.22401834e-001 ]
      - [ -2.42773104e+000, -5.68366706e-001, 8.87737274e-001,
          -1.58699560e+000, 2.92626292e-001, 1.53602928e-001,
          3.63458008e-001, 5.79450607e-001, 4.55018878e-001,
          3.30529779e-001, 5.09503305e-001, -4.68410164e-001,
          -6.45060718e-001, -9.34239402e-002, 1.08657971e-001,
          2.52862573e-002, 2.29251757e-001, -3.60537648e-001,
          1.99445058e-002, 1.82565734e-001, 2.73346603e-002,
          1.80388227e-001, 5.41197555e-003, 2.33100168e-002,
          2.39374135e-002 ]
      - [ -1.84872973e+000, -1.09996676e+000, -6.34657979e-001,
          5.04434466e-001, 4.24425602e-001, 1.98162901e+000,
          1.11308467e+000, 1.03249979e+000, -4.79944974e-001,
          9.39470291e-001, -7.50921518e-002, -1.17393926e-001,
          -6.27057850e-001, 5.73868640e-002, 4.18566436e-001,
          2.90666297e-002, 2.02863857e-001, -1.19316690e-002,
          -2.01762933e-002, -1.01048738e-001, 9.74627137e-002,
          9.84356329e-002, 6.81723654e-002, 1.61804929e-002,
          -1.44046083e-001 ]
      - [ -9.00756180e-001, -1.85961926e+000, 1.40012455e+000,
          1.19053233e+000, -2.44300351e-001, -2.37020552e-001,
          -5.77070951e-001, 2.49763355e-002, -1.90961331e-001,
          -3.06494981e-001, 5.89493096e-001, 7.67329395e-001,
          -3.39623719e-001, 4.59078699e-001, -7.70182386e-002,
          4.59975861e-002, -3.03515464e-001, -1.85868025e-001,
          3.16934824e-001, -6.49848729e-002, -2.72607327e-001,
          -8.34740624e-002, 7.87812937e-003, -5.28647006e-002,
          -5.96419908e-002 ]
      - [ 5.97415268e-001, -1.17471623e+000, 1.47325814e+000,
          7.53617048e-001, -5.20167989e-004, -3.62163901e-001,
          -1.02526629e+000, 5.60804486e-001, -6.57372832e-001,
          7.04004467e-001, 7.31903374e-001, 1.85472444e-001,
          1.98523894e-001, 2.50253677e-001, -4.04690593e-001,
          1.72267035e-002, 6.19976409e-002, -4.14052010e-002,
          1.24239147e-001, -2.26006180e-001, 8.28354731e-002,
          3.19403852e-003, 1.36015698e-001, 5.04475981e-002,
          1.56079143e-001 ]
      - [ -8.63754272e-001, -1.42785227e+000, 2.15066624e+000,
          3.65836203e-001, -4.87274379e-001, -3.03178638e-001,
          -7.18036890e-001, 3.31771851e-001, -4.48404960e-002,
          -1.16863273e-001, 3.48888844e-001, -1.51380599e-001,
          -1.86781019e-001, 2.32873857e-001, -4.45049023e-003,
          1.69844329e-001, -1.88306630e-001, -4.05454524e-002,
          1.36974648e-001, 2.98959129e-002, -1.08833291e-001,
          1.27949014e-001, -3.96108255e-002, 3.53501290e-002,
          6.47689402e-002 ]
      - [ -3.01148176e-001, -1.57081079e+000, 1.13157213e+000,
          1.66910458e+000, -4.92618561e-001, 7.86449432e-001,
          -3.17820370e-001, 4.32396472e-001, -5.36369860e-001,
          1.56495318e-001, -2.34492999e-002, 1.85623154e-001,
          -2.05454499e-001, 4.21834230e-001, 1.18476413e-001,
          1.47073328e-001, -6.74546286e-002, 1.82623401e-001,
          2.02860549e-001, 4.60551493e-003, -1.81945726e-001,
          -6.75262436e-002, 3.92941572e-002, -4.97392528e-002,
          2.04315819e-002 ]
      - [ 2.08702397e+000, 6.90481126e-001, 3.14258873e-001,
          -4.91563022e-001, 1.73040316e-001, -3.60857397e-001,
          -8.44661415e-001, 7.96606183e-001, -9.42008793e-001,
          1.76917982e+000, 5.11585534e-001, -3.43186647e-001,
          6.12709045e-001, -5.64187229e-001, -6.14130139e-001,
          7.39804357e-002, 6.59229875e-001, -4.84663341e-003,
          -3.11434805e-001, -2.04478145e-001, 5.22265971e-001,
          1.43923536e-001, 2.87098825e-001, 3.74329314e-002,
          1.11368805e-001 ]
      - [ -5.49460240e-002, 1.03131878e+000, 1.86747026e+000,
          -2.54159856e+000, -1.16731834e+000, -1.56066179e-001,
          -8.26263249e-001, 8.33423734e-001, 7.42597520e-001,
          9.79872286e-001, -1.45761073e-001, -2.24487495e+000,
          -1.56924084e-001, -6.52146161e-001, 5.48149347e-002,
          8.17657948e-001, 9.61382911e-002, 9.67206955e-002,
          -5.61725497e-001, -6.97121471e-002, 8.79332703e-003,
          1.46793395e-001, 1.16209522e-001, 2.29003876e-002,
          1.11267708e-001 ]
      - [ 1.36160004e+000, 4.64709640e-001, -6.91968501e-001,
          1.63329136e+000, -7.82486558e-001, 2.31048012e+000,
          7.89937496e-001, 1.37222004e+000, -8.60976636e-001,
          1.72575068e+000, -1.54354572e+000, -1.58136261e+000,
          3.03228199e-001, -4.42803383e-001, 6.36398792e-001,
          6.49032950e-001, 1.13593638e-001, 2.92265922e-001,
          -8.27284530e-002, 9.23910081e-001, 1.90144628e-001,
          1.48713849e-002, 3.46359611e-001, -2.74752617e-001,
          -4.93053980e-002 ]
      - [ -2.04894805e+000, -1.21642075e-001, 7.88953066e-001,
          -8.33156288e-001, -7.08941758e-001, 2.13657036e-001,
          5.58869481e-001, -4.27099228e-001, 1.25223541e+000,
          -1.37937379e+000, -6.98404372e-001, -5.82738340e-001,
          -6.82887614e-001, 5.14834821e-002, 7.81681061e-001,
          1.91496477e-001, -5.01794338e-001, -3.14072706e-002,
          1.32347479e-001, 4.65837508e-001, -3.10161799e-001,
          3.81484665e-002, -9.47312936e-002, 1.27735948e-002,
          -1.02474280e-001 ]
      - [ -9.87899125e-001, -5.49176037e-001, -8.24609101e-001,
          1.26928222e+000, -6.57838523e-001, 1.80398452e+000,
          1.02282512e+000, -8.83651078e-002, 1.85468078e-001,
          -7.31025040e-001, -1.19507527e+000, -2.84521610e-001,
          -5.55676043e-001, 3.34897816e-001, 8.17364216e-001,
          1.84173182e-001, -5.14913738e-001, 1.50184989e-001,
          4.06434610e-002, 3.41828108e-001, -4.76419419e-001,
          -1.10431045e-001, -6.54265732e-002, -7.51950815e-002,
          -2.75458604e-001 ]
      - [ 7.82557011e-001, -3.42463702e-001, -1.45360839e+000,
          2.22476912e+000, 1.77025311e-002, 1.51984286e+000,
          7.74310470e-001, 4.08257157e-001, -9.66611683e-001,
          1.87552422e-001, -6.77278876e-001, 6.47146940e-001,
          2.35291272e-001, -5.36852032e-002, 4.08321142e-001,
          -5.24195619e-002, -3.79714556e-002, 1.45940799e-002,
          1.17617652e-001, 1.40643314e-001, 9.77280587e-002,
          -1.98033720e-001, 1.30330816e-001, -8.57596099e-002,
          1.24371447e-001 ]
   decision_functions:
      -
         sv_count: 1
         rho: -4.1944677204487997e+000
         alpha: [ 1. ]
         index: [ 0 ]
      -
         sv_count: 1
         rho: -3.2519734457976441e+000
         alpha: [ 1. ]
         index: [ 1 ]
      -
         sv_count: 1
         rho: -4.2041403993747570e+000
         alpha: [ 1. ]
         index: [ 2 ]
      -
         sv_count: 1
         rho: -1.5357024296779342e-001
         alpha: [ 1. ]
         index: [ 3 ]
      -
         sv_count: 1
         rho: -3.1784720476168027e+000
         alpha: [ 1. ]
         index: [ 4 ]
      -
         sv_count: 1
         rho: -1.6080857061975253e+000
         alpha: [ 1. ]
         index: [ 5 ]
      -
         sv_count: 1
         rho: -3.9780323584476167e+000
         alpha: [ 1. ]
         index: [ 6 ]
      -
         sv_count: 1
         rho: -3.3393267416676102e+000
         alpha: [ 1. ]
         index: [ 7 ]
      -
         sv_count: 1
         rho: -9.9648063820893817e-001
         alpha: [ 1. ]
         index: [ 8 ]
      -
         sv_count: 1
         rho: -1.1620389149494506e+000
         alpha: [ 1. ]
         index: [ 9 ]
      -
         sv_count: 1
         rho: -3.5311810857710140e+000
         alpha: [ 1. ]
         index: [ 10 ]
      -
         sv_count: 1
         rho: -2.3656675317139939e+000
         alpha: [ 1. ]
         index: [ 11 ]
      -
         sv_count: 1
         rho: -3.0112432795751598e+000
         alpha: [ 1. ]
         index: [ 12 ]
      -
         sv_count: 1
         rho: -1.6671814704077936e+000
         alpha: [ 1. ]
         index: [ 13 ]
      -
         sv_count: 1
         rho: -2.4880782881136634e+000
         alpha: [ 1. ]
         index: [ 14 ]
      -
         sv_count: 1
         rho: -2.7618286582629819e+000
         alpha: [ 1. ]
         index: [ 15 ]
      -
         sv_count: 1
         rho: 4.0347829229301185e-001
         alpha: [ 1. ]
         index: [ 16 ]
      -
         sv_count: 1
         rho: 9.9083526776498820e-001
         alpha: [ 1. ]
         index: [ 17 ]
      -
         sv_count: 1
         rho: 2.9902817536806769e+000
         alpha: [ 1. ]
         index: [ 18 ]
      -
         sv_count: 1
         rho: 2.5084811445800566e+000
         alpha: [ 1. ]
         index: [ 19 ]
      -
         sv_count: 1
         rho: 2.0857148223945479e+000
         alpha: [ 1. ]
         index: [ 20 ]
      -
         sv_count: 1
         rho: 2.6197807401876355e-001
         alpha: [ 1. ]
         index: [ 21 ]
      -
         sv_count: 1
         rho: -5.0274433878019698e-001
         alpha: [ 1. ]
         index: [ 22 ]
      -
         sv_count: 1
         rho: 3.0583523086962097e+000
         alpha: [ 1. ]
         index: [ 23 ]
      -
         sv_count: 1
         rho: 2.2314948945577804e+000
         alpha: [ 1. ]
         index: [ 24 ]
      -
         sv_count: 1
         rho: 1.6065411080811871e+000
         alpha: [ 1. ]
         index: [ 25 ]
      -
         sv_count: 1
         rho: -3.2434166240083528e-001
         alpha: [ 1. ]
         index: [ 26 ]
      -
         sv_count: 1
         rho: -3.0316966466820294e-001
         alpha: [ 1. ]
         index: [ 27 ]
      -
         sv_count: 1
         rho: 1.8819243995125359e+000
         alpha: [ 1. ]
         index: [ 28 ]
      -
         sv_count: 1
         rho: -5.3336891987984958e-001
         alpha: [ 1. ]
         index: [ 29 ]
      -
         sv_count: 1
         rho: 8.5066196242274417e-001
         alpha: [ 1. ]
         index: [ 30 ]
      -
         sv_count: 1
         rho: 9.6111863528701180e-001
         alpha: [ 1. ]
         index: [ 31 ]
      -
         sv_count: 1
         rho: 1.8729868063640407e+000
         alpha: [ 1. ]
         index: [ 32 ]
      -
         sv_count: 1
         rho: 3.6385864271480393e+000
         alpha: [ 1. ]
         index: [ 33 ]
      -
         sv_count: 1
         rho: 8.5485208230357768e-001
         alpha: [ 1. ]
         index: [ 34 ]
      -
         sv_count: 1
         rho: -2.4993397391477976e-002
         alpha: [ 1. ]
         index: [ 35 ]
      -
         sv_count: 1
         rho: -7.8823785395313983e-001
         alpha: [ 1. ]
         index: [ 36 ]
      -
         sv_count: 1
         rho: 2.7883651859638379e+000
         alpha: [ 1. ]
         index: [ 37 ]
      -
         sv_count: 1
         rho: 1.5714919667622658e+000
         alpha: [ 1. ]
         index: [ 38 ]
      -
         sv_count: 1
         rho: 8.8370419637691966e-001
         alpha: [ 1. ]
         index: [ 39 ]
      -
         sv_count: 1
         rho: -5.1549153727893049e-001
         alpha: [ 1. ]
         index: [ 40 ]
      -
         sv_count: 1
         rho: -9.4461896770542855e-002
         alpha: [ 1. ]
         index: [ 41 ]
      -
         sv_count: 1
         rho: 1.2742604127897486e+000
         alpha: [ 1. ]
         index: [ 42 ]
      -
         sv_count: 1
         rho: -4.3120643441985929e-001
         alpha: [ 1. ]
         index: [ 43 ]
      -
         sv_count: 1
         rho: 7.0540425123067330e-001
         alpha: [ 1. ]
         index: [ 44 ]
      -
         sv_count: 1
         rho: 3.2068736056545148e+000
         alpha: [ 1. ]
         index: [ 45 ]
      -
         sv_count: 1
         rho: 1.9172206471274125e+000
         alpha: [ 1. ]
         index: [ 46 ]
      -
         sv_count: 1
         rho: 7.7670832557770431e-001
         alpha: [ 1. ]
         index: [ 47 ]
      -
         sv_count: 1
         rho: -9.9424161412527212e-001
         alpha: [ 1. ]
         index: [ 48 ]
      -
         sv_count: 1
         rho: -1.8138195264644363e+000
         alpha: [ 1. ]
         index: [ 49 ]
      -
         sv_count: 1
         rho: 2.0886701197463955e+000
         alpha: [ 1. ]
         index: [ 50 ]
      -
         sv_count: 1
         rho: 2.1632241321156878e+000
         alpha: [ 1. ]
         index: [ 51 ]
      -
         sv_count: 1
         rho: 9.7550396023372299e-001
         alpha: [ 1. ]
         index: [ 52 ]
      -
         sv_count: 1
         rho: -1.3139481366610626e+000
         alpha: [ 1. ]
         index: [ 53 ]
      -
         sv_count: 1
         rho: -1.7397487855685747e+000
         alpha: [ 1. ]
         index: [ 54 ]
      -
         sv_count: 1
         rho: 1.8170157272071548e+000
         alpha: [ 1. ]
         index: [ 55 ]
      -
         sv_count: 1
         rho: -1.3872722133121318e+000
         alpha: [ 1. ]
         index: [ 56 ]
      -
         sv_count: 1
         rho: 1.3603698049133586e+000
         alpha: [ 1. ]
         index: [ 57 ]
      -
         sv_count: 1
         rho: -1.8990918132180148e+000
         alpha: [ 1. ]
         index: [ 58 ]
      -
         sv_count: 1
         rho: -1.5226205679925713e+000
         alpha: [ 1. ]
         index: [ 59 ]
      -
         sv_count: 1
         rho: -2.3975300056438846e+000
         alpha: [ 1. ]
         index: [ 60 ]
      -
         sv_count: 1
         rho: -2.4840262944402522e+000
         alpha: [ 1. ]
         index: [ 61 ]
      -
         sv_count: 1
         rho: -5.8126980846236165e-001
         alpha: [ 1. ]
         index: [ 62 ]
      -
         sv_count: 1
         rho: -1.5358845903645884e+000
         alpha: [ 1. ]
         index: [ 63 ]
      -
         sv_count: 1
         rho: -1.6896889316046126e+000
         alpha: [ 1. ]
         index: [ 64 ]
      -
         sv_count: 1
         rho: -2.7939189285189516e+000
         alpha: [ 1. ]
         index: [ 65 ]
      -
         sv_count: 1
         rho: -2.6832926363303895e+000
         alpha: [ 1. ]
         index: [ 66 ]
      -
         sv_count: 1
         rho: -1.3521425946346921e+000
         alpha: [ 1. ]
         index: [ 67 ]
      -
         sv_count: 1
         rho: -2.5380965570807841e+000
         alpha: [ 1. ]
         index: [ 68 ]
      -
         sv_count: 1
         rho: -1.6009833700080869e+000
         alpha: [ 1. ]
         index: [ 69 ]
      -
         sv_count: 1
         rho: -1.9509542261232668e-001
         alpha: [ 1. ]
         index: [ 70 ]
      -
         sv_count: 1
         rho: -2.0956912510602299e+000
         alpha: [ 1. ]
         index: [ 71 ]
      -
         sv_count: 1
         rho: -1.9232588457919082e+000
         alpha: [ 1. ]
         index: [ 72 ]
      -
         sv_count: 1
         rho: 1.8068862294045209e+000
         alpha: [ 1. ]
         index: [ 73 ]
      -
         sv_count: 1
         rho: 7.3819185178343649e-001
         alpha: [ 1. ]
         index: [ 74 ]
      -
         sv_count: 1
         rho: -6.4256239484021660e-001
         alpha: [ 1. ]
         index: [ 75 ]
      -
         sv_count: 1
         rho: -1.4054442980335218e+000
         alpha: [ 1. ]
         index: [ 76 ]
      -
         sv_count: 1
         rho: -1.5608320535228262e+000
         alpha: [ 1. ]
         index: [ 77 ]
      -
         sv_count: 1
         rho: -1.5519302612667879e-001
         alpha: [ 1. ]
         index: [ 78 ]
      -
         sv_count: 1
         rho: -2.1302580827719786e+000
         alpha: [ 1. ]
         index: [ 79 ]
      -
         sv_count: 1
         rho: -3.7451941246681708e-001
         alpha: [ 1. ]
         index: [ 80 ]
      -
         sv_count: 1
         rho: -1.5896792754345817e+000
         alpha: [ 1. ]
         index: [ 81 ]
      -
         sv_count: 1
         rho: -1.4928140037761577e+000
         alpha: [ 1. ]
         index: [ 82 ]
      -
         sv_count: 1
         rho: 9.9930358010918685e-001
         alpha: [ 1. ]
         index: [ 83 ]
      -
         sv_count: 1
         rho: 5.7303134379114906e-001
         alpha: [ 1. ]
         index: [ 84 ]
      -
         sv_count: 1
         rho: -5.6765785241579692e-001
         alpha: [ 1. ]
         index: [ 85 ]
      -
         sv_count: 1
         rho: -1.5212543953631674e+000
         alpha: [ 1. ]
         index: [ 86 ]
      -
         sv_count: 1
         rho: -1.5562560152831373e+000
         alpha: [ 1. ]
         index: [ 87 ]
      -
         sv_count: 1
         rho: 4.1992284634928367e-001
         alpha: [ 1. ]
         index: [ 88 ]
      -
         sv_count: 1
         rho: -1.9529826015618637e+000
         alpha: [ 1. ]
         index: [ 89 ]
      -
         sv_count: 1
         rho: -4.0425828741039366e-001
         alpha: [ 1. ]
         index: [ 90 ]
      -
         sv_count: 1
         rho: -4.2500778531778716e-001
         alpha: [ 1. ]
         index: [ 91 ]
      -
         sv_count: 1
         rho: 2.7688614401408840e+000
         alpha: [ 1. ]
         index: [ 92 ]
      -
         sv_count: 1
         rho: 2.0831829294529509e+000
         alpha: [ 1. ]
         index: [ 93 ]
      -
         sv_count: 1
         rho: 9.9617785911026735e-001
         alpha: [ 1. ]
         index: [ 94 ]
      -
         sv_count: 1
         rho: -3.3119271653100119e-001
         alpha: [ 1. ]
         index: [ 95 ]
      -
         sv_count: 1
         rho: -4.8969892512645963e-001
         alpha: [ 1. ]
         index: [ 96 ]
      -
         sv_count: 1
         rho: 2.0252160339652709e+000
         alpha: [ 1. ]
         index: [ 97 ]
      -
         sv_count: 1
         rho: -4.6704431094566989e-001
         alpha: [ 1. ]
         index: [ 98 ]
      -
         sv_count: 1
         rho: 1.4477458729293367e+000
         alpha: [ 1. ]
         index: [ 99 ]
      -
         sv_count: 1
         rho: 2.0567514342615851e+000
         alpha: [ 1. ]
         index: [ 100 ]
      -
         sv_count: 1
         rho: 1.8937604766910654e+000
         alpha: [ 1. ]
         index: [ 101 ]
      -
         sv_count: 1
         rho: 1.3186411968897995e+000
         alpha: [ 1. ]
         index: [ 102 ]
      -
         sv_count: 1
         rho: -2.2077665537002311e-001
         alpha: [ 1. ]
         index: [ 103 ]
      -
         sv_count: 1
         rho: 3.2124620423085719e-002
         alpha: [ 1. ]
         index: [ 104 ]
      -
         sv_count: 1
         rho: 1.9539450011414994e+000
         alpha: [ 1. ]
         index: [ 105 ]
      -
         sv_count: 1
         rho: -3.0744863340485157e-001
         alpha: [ 1. ]
         index: [ 106 ]
      -
         sv_count: 1
         rho: 1.4198629617363119e+000
         alpha: [ 1. ]
         index: [ 107 ]
      -
         sv_count: 1
         rho: -1.9407574287049964e-001
         alpha: [ 1. ]
         index: [ 108 ]
      -
         sv_count: 1
         rho: -1.5761683022379656e+000
         alpha: [ 1. ]
         index: [ 109 ]
      -
         sv_count: 1
         rho: -1.7120621776178031e+000
         alpha: [ 1. ]
         index: [ 110 ]
      -
         sv_count: 1
         rho: -2.0966142930314886e+000
         alpha: [ 1. ]
         index: [ 111 ]
      -
         sv_count: 1
         rho: -9.4722183030193141e-001
         alpha: [ 1. ]
         index: [ 112 ]
      -
         sv_count: 1
         rho: -2.7789134374530144e+000
         alpha: [ 1. ]
         index: [ 113 ]
      -
         sv_count: 1
         rho: -7.9443810375770640e-001
         alpha: [ 1. ]
         index: [ 114 ]
      -
         sv_count: 1
         rho: -9.8965126065674336e-001
         alpha: [ 1. ]
         index: [ 115 ]
      -
         sv_count: 1
         rho: -1.6809249861019788e+000
         alpha: [ 1. ]
         index: [ 116 ]
      -
         sv_count: 1
         rho: -2.0374268533584137e+000
         alpha: [ 1. ]
         index: [ 117 ]
      -
         sv_count: 1
         rho: -5.8416312283975269e-001
         alpha: [ 1. ]
         index: [ 118 ]
      -
         sv_count: 1
         rho: -2.6032909328820288e+000
         alpha: [ 1. ]
         index: [ 119 ]
      -
         sv_count: 1
         rho: -7.9965391698980803e-001
         alpha: [ 1. ]
         index: [ 120 ]
      -
         sv_count: 1
         rho: -5.3265779131842705e-001
         alpha: [ 1. ]
         index: [ 121 ]
      -
         sv_count: 1
         rho: -1.1356847153350169e+000
         alpha: [ 1. ]
         index: [ 122 ]
      -
         sv_count: 1
         rho: 4.3042491371750663e-001
         alpha: [ 1. ]
         index: [ 123 ]
      -
         sv_count: 1
         rho: -1.2229913122672595e+000
         alpha: [ 1. ]
         index: [ 124 ]
      -
         sv_count: 1
         rho: 5.7829815139623153e-001
         alpha: [ 1. ]
         index: [ 125 ]
      -
         sv_count: 1
         rho: -2.1648526831718065e-001
         alpha: [ 1. ]
         index: [ 126 ]
      -
         sv_count: 1
         rho: 1.3282985930574338e+000
         alpha: [ 1. ]
         index: [ 127 ]
      -
         sv_count: 1
         rho: -1.3483934493176750e-001
         alpha: [ 1. ]
         index: [ 128 ]
      -
         sv_count: 1
         rho: 1.0524410179742365e+000
         alpha: [ 1. ]
         index: [ 129 ]
      -
         sv_count: 1
         rho: 2.0106484580180690e+000
         alpha: [ 1. ]
         index: [ 130 ]
      -
         sv_count: 1
         rho: -1.0036332252770479e+000
         alpha: [ 1. ]
         index: [ 131 ]
      -
         sv_count: 1
         rho: 3.1968104168042242e+000
         alpha: [ 1. ]
         index: [ 132 ]
      -
         sv_count: 1
         rho: -2.0631524531503214e+000
         alpha: [ 1. ]
         index: [ 133 ]
      -
         sv_count: 1
         rho: -6.6006810103897362e-001
         alpha: [ 1. ]
         index: [ 134 ]
      -
         sv_count: 1
         rho: 1.9981604768687020e+000
         alpha: [ 1. ]
         index: [ 135 ]
